{"linear.weight": [[-0.004973126575350761, -0.021135475486516953, -0.011909842491149902, -0.011711036786437035, -0.030730649828910828, 0.029755059629678726, 0.017362080514431, 0.022416654974222183, 0.012659482657909393, 0.028548721224069595, 0.029600825160741806, 0.0285177044570446, 0.030268527567386627, 0.02818240225315094, 0.007897489704191685, -0.03292441740632057, 0.023338012397289276, -0.03389713913202286, -0.03523572161793709, 0.021031435579061508, 0.0015734434127807617, -0.008257273584604263, 0.00490855798125267, 0.030409399420022964, 0.02091505005955696, 0.004117637872695923, -0.034574784338474274, 0.008430346846580505, 0.011641837656497955, 0.02948414906859398, 0.014120325446128845, 0.00843597948551178, -0.030853385105729103, 0.013840989209711552, -0.035708751529455185, 0.01769356057047844, 0.00019171039457432926, 0.033774714916944504, -0.023837866261601448, 0.0009513895493000746, 0.035115811973810196, 0.0021774093620479107, 0.002656832803040743, -0.028590470552444458, -0.015881741419434547, 0.032144270837306976, -0.02785376086831093, -0.020225796848535538, 0.017920831218361855, -0.010021672584116459, 0.013962391763925552, 0.03441204875707626, -0.012957390397787094, 0.00628078356385231, -0.024339258670806885, 0.03419910743832588, 0.03176150843501091, -0.032184623181819916, -0.031177382916212082, 0.006570556666702032, -0.021758170798420906, 0.035126764327287674, 0.019835323095321655, -0.0008649814990349114, 0.02201770432293415, -0.03307667747139931, 3.53805698978249e-05, 0.0063589210622012615, -0.029573453590273857, -0.005103771574795246, -0.052502669394016266, -0.02490983158349991, -0.002475455403327942, -0.009675714187324047, -0.047547344118356705, -0.008340656757354736, 0.007152538280934095, -0.01648709364235401, 0.001642288058064878, -0.012659082189202309, -0.015151062048971653, -0.026336316019296646, -0.009512335062026978, 0.02127891406416893, -0.0005031563341617584, -0.0091533362865448, -0.022715434432029724, 0.011679248884320259, 0.003939875401556492, 0.014072091318666935, 0.008727414533495903, -0.05373222380876541, -0.015263891778886318, -0.05326206982135773, -0.03605801612138748, -0.04374443739652634, -0.0265753585845232, -0.018936756998300552, -0.02881716936826706, -0.07525128126144409, -0.019675742834806442, -0.07511758804321289, -0.11415474116802216, -0.06687606871128082, -0.08117375522851944, -0.03658425807952881, -0.02667694166302681, -0.05133499205112457, -0.024311881512403488, -0.03544575721025467, -0.021800469607114792, 0.03330875560641289, -0.009670032188296318, -0.027461182326078415, -0.035096246749162674, -0.017313696444034576, 0.01339595764875412, -0.003017157781869173, -0.03462293744087219, -0.0293468926101923, -0.022857358679175377, -0.00026762945344671607, -0.008788946084678173, -0.02206014283001423, -0.030554013326764107, -0.001531275687739253, -0.00907767191529274, 0.03132455423474312, -0.051976874470710754, -0.01873502880334854, -0.01671692170202732, -0.10271308571100235, -0.09131507575511932, -0.03669058158993721, -0.053038325160741806, -0.04262308031320572, -0.035198524594306946, -0.02764894999563694, 0.03264780342578888, 0.0016763432649895549, 0.002102542668581009, -0.0027741752564907074, 0.0004902066430076957, -0.017178252339363098, -0.021144643425941467, -0.030655503273010254, -0.009347254410386086, -0.05368658900260925, -0.009528880007565022, -0.05433186888694763, 0.013885839842259884, 0.01593710109591484, 0.042251259088516235, 0.09348034858703613, 0.13363313674926758, 0.1588505655527115, 0.16749392449855804, 0.1697901338338852, 0.1497129499912262, 0.0702655091881752, -0.01732446253299713, -0.00895901769399643, 0.0002621169260237366, -0.09519319236278534, -0.09603768587112427, -0.03435894474387169, -0.04325653612613678, -0.026579057797789574, 0.03244882449507713, 0.006098656449466944, -0.0049089412204921246, -0.025124741718173027, -0.016254177317023277, -0.06539082527160645, -0.012586282566189766, -0.03803021088242531, -0.07692364603281021, -0.055064789950847626, 0.0028025698848068714, -0.017326755449175835, 0.05836927145719528, 0.14316236972808838, 0.14070138335227966, 0.11348099261522293, 0.15761667490005493, 0.17863434553146362, 0.21882113814353943, 0.11663170903921127, 0.10168080031871796, 0.13355442881584167, 0.09600059688091278, -0.041628073900938034, -0.09316384792327881, -0.06305834650993347, -0.03579333424568176, -0.020003318786621094, -0.020916180685162544, -0.020302187651395798, 0.0075342971831560135, -0.02895057015120983, -0.0023597083054482937, -0.011987695470452309, -0.05970664322376251, -0.03309677913784981, -0.1001117005944252, -0.007370385341346264, 0.0262246523052454, 0.07501641660928726, 0.0313350148499012, 0.04908452555537224, 0.06727325916290283, 0.11249558627605438, 0.11630938947200775, 0.22267784178256989, 0.21578636765480042, 0.0980822816491127, 0.041970331221818924, 0.08961790800094604, 0.08800624310970306, 0.0794314295053482, -0.1252071112394333, -0.10514828562736511, -0.031337086111307144, -0.036063168197870255, 0.02869095839560032, 0.024987822398543358, -0.0009172873105853796, -0.03158785402774811, -0.057961784303188324, -0.06613640487194061, -0.05920734256505966, -0.08197464793920517, -0.09266072511672974, -0.0036126915365457535, 0.04658336192369461, 0.005154052749276161, 0.031373389065265656, 0.06266730278730392, 0.08614017814397812, 0.1757318526506424, 0.28501126170158386, 0.21457096934318542, 0.22472557425498962, 0.12164914608001709, 0.07670394331216812, 0.07425450533628464, 0.15763676166534424, 0.17724743485450745, 0.008865093812346458, -0.12200365215539932, -0.04847554489970207, 0.02729697898030281, -0.023372938856482506, 0.008563695475459099, 0.03253205865621567, -0.04041287302970886, -0.026707224547863007, -0.0545080229640007, -0.0895644947886467, -0.07670630514621735, -0.0378049835562706, -0.02703911066055298, 0.05231510102748871, -0.013307914137840271, 0.04030787944793701, 0.11635851114988327, 0.09320385754108429, -0.004722395446151495, 0.13196498155593872, 0.2390987128019333, 0.19926561415195465, 0.17438891530036926, 0.07395508140325546, 0.009019401855766773, 0.14660252630710602, 0.25051894783973694, 0.037141405045986176, -0.11089596152305603, -0.009506233967840672, 0.00441277539357543, -0.01550227589905262, 0.027599191293120384, -0.03145289048552513, -0.02458861470222473, -0.0480291023850441, -0.0217143502086401, -0.03755419701337814, -0.03137370944023132, -0.046252720057964325, -0.011511795222759247, -0.07696452736854553, -0.011972770094871521, 0.03955250233411789, 0.05763578414916992, -0.02115865983068943, -0.09742745012044907, -0.0529189258813858, 0.1236511617898941, 0.2085212767124176, 0.15027007460594177, 0.09437527507543564, 0.10332922637462616, 0.19512633979320526, 0.3029773533344269, 0.15200209617614746, -0.05805939435958862, -0.010932725854218006, 0.004460449330508709, -0.03186241164803505, -0.025702113285660744, -0.02038383111357689, -0.008059096522629261, -0.03655471280217171, -0.0667249858379364, -0.01089135929942131, 0.018308334052562714, 0.025833534076809883, -0.06635183095932007, -0.05494994670152664, -0.008068171329796314, -0.035873811691999435, -0.0705249086022377, -0.2730828821659088, -0.42486372590065, -0.3966076076030731, -0.08681190758943558, -0.016158737242221832, 0.10118339955806732, 0.13254137337207794, 0.19234612584114075, 0.25059378147125244, 0.28594931960105896, 0.1424960196018219, -0.030930180102586746, -0.04567404463887215, -0.02027239091694355, 0.01381393987685442, 0.017787566408514977, 0.027560889720916748, -0.04139992222189903, -0.045047760009765625, -0.042330436408519745, 0.05125214532017708, 0.07876469194889069, -0.02526111528277397, 0.00815476756542921, 0.0368262454867363, 0.042659882456064224, 0.043133772909641266, -0.12261636555194855, -0.4360213279724121, -0.5348465442657471, -0.5073660612106323, -0.1985989362001419, -0.04333576187491417, 0.014628841541707516, 0.02034696936607361, 0.14205321669578552, 0.2644032835960388, 0.33762022852897644, 0.253629207611084, 0.019643211737275124, -0.009836954064667225, 0.00822474341839552, -0.0249496903270483, 0.021025847643613815, -0.029608534649014473, -0.02234339341521263, -0.06388396769762039, 0.03836460039019585, 0.1716831773519516, 0.1285143494606018, 0.08549487590789795, 0.07704684138298035, 0.11169399321079254, 0.09380532056093216, 0.042059555649757385, -0.2976466715335846, -0.5270289778709412, -0.6225883364677429, -0.5112650990486145, -0.26205137372016907, -0.07308857887983322, -0.08821550756692886, -0.08414406329393387, 0.08221275359392166, 0.24722920358181, 0.3419361114501953, 0.2142033725976944, -0.008543836884200573, -0.005405921954661608, 0.01346469484269619, 0.02761274203658104, -0.0032331938855350018, 0.021669330075383186, -0.010617535561323166, -0.046202145516872406, 0.09801264107227325, 0.15464875102043152, 0.2462386041879654, 0.1551850438117981, 0.13951538503170013, 0.202318474650383, 0.1112910658121109, -0.004006696864962578, -0.34079509973526, -0.5769581198692322, -0.5908210277557373, -0.4945138692855835, -0.22423137724399567, -0.05057166889309883, -0.06909948587417603, -0.010784202255308628, 0.11245165765285492, 0.2065654993057251, 0.2816498279571533, 0.2374608814716339, 0.015567401424050331, -0.011834333650767803, -0.01844017021358013, 0.024815456941723824, 0.010789399035274982, 0.026823461055755615, -0.04045547917485237, 0.02782488241791725, 0.1710791438817978, 0.14808964729309082, 0.20622040331363678, 0.17091436684131622, 0.208131805062294, 0.20746994018554688, 0.04332346469163895, -0.14197228848934174, -0.477878600358963, -0.622938871383667, -0.5595744848251343, -0.388961523771286, -0.19181622564792633, -0.04001116380095482, -0.04109128192067146, 0.05899738892912865, 0.0865548774600029, 0.1692301630973816, 0.2706372141838074, 0.13296948373317719, -0.015352842397987843, 0.031252335757017136, 0.02566841058433056, 0.011429503560066223, -0.00882694125175476, -0.002944956999272108, -0.016163120046257973, 0.010088743641972542, 0.22967490553855896, 0.2212502360343933, 0.2128424048423767, 0.22103142738342285, 0.20200268924236298, 0.22871850430965424, 0.04922475665807724, -0.29413843154907227, -0.5476418733596802, -0.5953336358070374, -0.42623651027679443, -0.2715136408805847, -0.06341361999511719, -0.001339899143204093, 0.006721123121678829, 0.08583391457796097, 0.10624641925096512, 0.15231479704380035, 0.1563539057970047, 0.04873376712203026, -0.04074590280652046, -0.004708920605480671, 0.029772209003567696, 0.010852780193090439, -0.03155509755015373, 0.018220653757452965, -0.020864330232143402, -0.016180796548724174, 0.16867847740650177, 0.24330976605415344, 0.17851248383522034, 0.16593806445598602, 0.2362205535173416, 0.27292871475219727, 0.029154639691114426, -0.26070618629455566, -0.512842059135437, -0.5049256086349487, -0.30580848455429077, -0.15381251275539398, 0.0485282763838768, 0.020881181582808495, 0.05210702866315842, 0.06867434829473495, 0.10227642953395844, 0.16643479466438293, 0.06349118053913116, 0.019832007586956024, -0.04412023350596428, 0.008371390402317047, -0.01081355381757021, -0.03418044000864029, 0.004179414827376604, -0.011996431276202202, -0.08466169983148575, -0.03471577912569046, 0.10587920993566513, 0.1430024802684784, 0.1743621975183487, 0.15580376982688904, 0.22111891210079193, 0.28247159719467163, 0.07513785362243652, -0.2354169338941574, -0.417921245098114, -0.34564289450645447, -0.16904550790786743, -0.08348996192216873, -0.022017138078808784, 0.0081791365519166, 0.007589278742671013, 0.008188210427761078, 0.03960580378770828, 0.12467596679925919, 0.04965098202228546, -0.04740199074149132, -0.015006085857748985, 0.02062809467315674, 0.005467257462441921, -0.021486813202500343, 0.011959225870668888, -0.0041180821135640144, -0.046840425580739975, -0.03017541766166687, 0.10669101029634476, 0.17395401000976562, 0.15119460225105286, 0.14076468348503113, 0.1958126723766327, 0.25712114572525024, 0.23146545886993408, 0.054763250052928925, -0.12436062097549438, -0.16202136874198914, -0.08688763529062271, -0.028447382152080536, -0.027302861213684082, -0.018541712313890457, -0.035509586334228516, 0.026411913335323334, 0.05305533856153488, 0.061252858489751816, -0.006177917588502169, 0.0001672956714173779, 0.003971091937273741, 0.026728641241788864, -0.03317245468497276, 0.02466535195708275, -0.029636718332767487, -0.00031836426933296025, -0.06391742080450058, -0.042716652154922485, 0.07551642507314682, 0.10322371125221252, 0.09849753975868225, 0.1653374284505844, 0.1658468246459961, 0.32802900671958923, 0.33630678057670593, 0.21064870059490204, 0.11721884459257126, -0.046705007553100586, -0.018987923860549927, -0.037754468619823456, -0.02905869483947754, -0.12964347004890442, -0.10496000200510025, -0.04466190189123154, -0.008004097267985344, 0.021969014778733253, -0.01457439549267292, -0.010269456543028355, -0.0403241403400898, -0.010441412217915058, -0.010627242736518383, -0.029883405193686485, -0.028152313083410263, -0.02344251610338688, -0.015525618568062782, -0.06260987371206284, 0.04587510600686073, 0.11696328222751617, 0.13305088877677917, 0.06384565681219101, 0.11032092571258545, 0.1857384890317917, 0.2684640884399414, 0.19214887917041779, 0.06435490399599075, 0.03807599097490311, 0.018594270572066307, -0.044594354927539825, -0.08752450346946716, -0.1228308156132698, -0.1006828024983406, -0.05401551350951195, -0.04296965152025223, -0.07059262692928314, -0.06437474489212036, 0.0021637631580233574, 0.011013982817530632, -0.009100201539695263, 0.0009255724144168198, 0.016703873872756958, 0.0006969980313442647, -0.0236666239798069, -0.007371845189481974, -0.06217968463897705, -0.0030814390629529953, 0.07007157802581787, 0.06923907995223999, 0.11953938752412796, 0.12532110512256622, 0.14517495036125183, 0.2158270925283432, 0.20811747014522552, 0.23589172959327698, 0.15788082778453827, 0.08998626470565796, 0.02853347361087799, -0.022751599550247192, -0.07258015125989914, -0.09332083910703659, -0.09184994548559189, -0.063898466527462, -0.029204603284597397, -0.04342584311962128, 0.0018835813971236348, 0.014811575412750244, 0.005289561115205288, 0.005766838788986206, 0.003299534320831299, 0.02971586212515831, 0.02823561243712902, 0.025081265717744827, -0.026080068200826645, -0.05753317475318909, -0.021770259365439415, 0.04969926178455353, 0.08422970771789551, 0.1311768740415573, 0.22936782240867615, 0.288205087184906, 0.26016372442245483, 0.2928183674812317, 0.1840917319059372, 0.0902678444981575, 0.024277200922369957, -0.06612493097782135, -0.16167563199996948, -0.17114630341529846, -0.1098187267780304, -0.08418815582990646, -0.0247351061552763, 0.0017178166890516877, -0.024003393948078156, 0.01257681380957365, 0.02874128893017769, 0.014245916157960892, -0.0006076358258724213, -0.0263763889670372, -0.032703302800655365, 0.02540694735944271, -0.012046183459460735, 0.011052791960537434, -0.07659975439310074, -0.07940276712179184, -0.03194449841976166, -0.0773080512881279, -0.05639128014445305, 0.021503480151295662, 0.05374961346387863, 0.04871384799480438, 0.015639500692486763, -0.03421282768249512, -0.07914532721042633, -0.0986553356051445, -0.16585230827331543, -0.1307719498872757, -0.11886891722679138, -0.08137677609920502, -0.017974717542529106, -0.042070385068655014, -0.0013349778018891811, 0.029896030202507973, -0.01901276968419552, 0.027237366884946823, -0.016905449330806732, -0.01572510600090027, -0.026867369189858437, 0.022471563890576363, -0.0062121073715388775, -0.043355390429496765, -0.047591786831617355, -0.07141875475645065, -0.09437840431928635, -0.12036341428756714, -0.1506759226322174, -0.16431383788585663, -0.1816280633211136, -0.16915318369865417, -0.18729224801063538, -0.12570108473300934, -0.12312696129083633, -0.11431549489498138, -0.11160349100828171, -0.06687548756599426, -0.05223967134952545, -0.023748386651277542, -0.014824973419308662, -0.03015335649251938, -0.028572237119078636, -0.013969238847494125, -0.011374439112842083, 0.012384623289108276, -0.023197196424007416, 0.031256962567567825, -0.001997392624616623, 0.032974593341350555, -0.024310991168022156, 0.029231125488877296, -0.027044646441936493, -0.02300434000790119, -0.03672634810209274, -0.04323328286409378, -0.019914863631129265, -0.043812815099954605, -0.009756786748766899, -0.0069555118680000305, -0.0458071306347847, -0.06912301480770111, -0.018114246428012848, -0.01143666822463274, -0.0308129470795393, -0.04355573281645775, -0.015124775469303131, -0.020329631865024567, 0.021409953013062477, -0.013648705556988716, 0.012172932736575603, 0.009171168319880962, -0.0216811690479517, -0.020664364099502563, -0.0044536590576171875, -0.008878329768776894, -0.013975424692034721, 0.02960638329386711, 0.024703219532966614, -0.003741506952792406, 0.007145763374865055, -0.011326833628118038, -0.012637496925890446, 0.028923582285642624, 0.023555045947432518, 0.00027618161402642727, 0.01320063229650259, -0.029384994879364967, 0.02808757871389389, 0.0014797104522585869, -0.029199503362178802, -0.023864787071943283, 0.018969781696796417, 0.0259617380797863, 0.01321889366954565, -0.015633253380656242, 0.011215591803193092, 0.0215475931763649, 0.0024681203067302704, -0.031305741518735886, 0.0237271748483181, 0.02338063344359398], [-0.0026010312139987946, 0.026065245270729065, -0.0214231014251709, 0.017078004777431488, 0.01196499913930893, -0.02462722733616829, 0.010553751140832901, -0.013477033004164696, 0.0018276646733283997, -0.002319011837244034, -0.00230538472533226, 0.03517109528183937, -0.026224296540021896, 0.02222844772040844, -0.021315395832061768, 0.01738000102341175, -0.010265879333019257, 0.026184074580669403, -0.018742471933364868, -0.028063511475920677, 0.00962478294968605, -0.0321589931845665, -0.014498613774776459, -0.03054570034146309, 0.01810271665453911, 0.00733044371008873, 0.00965224951505661, -0.00960698351264, 0.007547445595264435, -0.002249438315629959, -0.005304161459207535, -0.001561734825372696, -0.01977383904159069, -0.01341856550425291, 0.011347034946084023, -0.0075011663138866425, -0.027131034061312675, 0.020042624324560165, 0.01083692442625761, -0.0017512687481939793, 0.024632811546325684, -0.015610165894031525, 0.009118019603192806, -0.016558894887566566, -0.02125861495733261, 0.033679842948913574, 0.021223438903689384, -0.013340240344405174, -0.0272458977997303, -0.026438143104314804, 0.007678583730012178, 0.026755420491099358, -0.001528855413198471, 0.0245131216943264, -0.008455723524093628, 0.015383265912532806, -0.02455960586667061, 0.009317178279161453, 0.025864530354738235, 0.011634408496320248, -0.034255437552928925, -0.01956263929605484, 0.02894444204866886, 0.02521635591983795, -0.03277606517076492, -0.03056713007390499, 0.0009186819661408663, -0.022783061489462852, 0.024291452020406723, 0.05249246582388878, 0.02576247788965702, 0.07292761653661728, 0.0006807101890444756, 0.02716253325343132, 0.023244349285960197, -0.027477778494358063, -0.027855785563588142, -0.024129536002874374, 0.004877184052020311, -0.036322642117738724, 0.031294651329517365, 0.00779708381742239, -0.00945008359849453, 0.03435562923550606, 0.024450358003377914, 0.034913722425699234, -0.03546593710780144, 0.000337654520990327, 0.01021384634077549, 0.003447249298915267, -0.02214398793876171, 0.022327711805701256, -0.050232574343681335, -0.003709574230015278, -0.08282250165939331, -0.07077141106128693, -0.05739685520529747, -0.02263442985713482, -0.0017674877308309078, 0.044514250010252, -0.006370108108967543, -0.05957818031311035, -0.059385959059000015, -0.038280341774225235, -0.020574890077114105, -0.04570583626627922, -0.031874388456344604, -0.008074563927948475, 0.004609832540154457, 0.01696733571588993, -0.01205452810972929, -0.024589160457253456, -0.01963854394853115, -0.020758893340826035, 0.014003465883433819, -0.030840229243040085, 0.017458489164710045, -0.015613971278071404, 0.010475498624145985, 0.014864497818052769, -0.048036426305770874, -0.030104171484708786, -0.0703803226351738, -0.08843471109867096, -0.009459329769015312, 0.13734915852546692, 0.12423164397478104, 0.09471368044614792, 0.050286274403333664, 0.020216520875692368, 0.0036273261066526175, 0.04344621300697327, 0.10646922141313553, 0.1190529465675354, 0.027819836512207985, -0.006840859539806843, -0.000988994026556611, 0.00336882914416492, 0.00887223519384861, -0.0042917546816170216, -0.007839689031243324, 0.000263165682554245, 0.0264497809112072, 0.0016097138868644834, 0.024880506098270416, 0.014315113425254822, -0.01803208515048027, -0.06067153438925743, -0.14356471598148346, -0.13256195187568665, -0.10460438579320908, -0.1008480042219162, -0.008707623928785324, 0.057885974645614624, 0.08231906592845917, 0.12103541940450668, -0.028749125078320503, -0.06409439444541931, -0.02431504987180233, 0.06936951726675034, 0.13194675743579865, 0.2142285406589508, 0.1409236490726471, 0.09585210680961609, 0.03196714073419571, -0.04399736970663071, -0.010018684901297092, 0.008626786060631275, -0.011623984202742577, 0.0033045189920812845, -0.030332298949360847, 0.008668127469718456, 0.022861089557409286, -0.02218322642147541, -0.04854774847626686, -0.06842663139104843, -0.18657131493091583, -0.209565669298172, -0.1936604082584381, -0.08918030560016632, -0.08089718222618103, -0.08998014777898788, -0.10995234549045563, -0.16272170841693878, -0.19680087268352509, -0.17730002105236053, -0.07370858639478683, -0.029211271554231644, 0.11675366014242172, 0.07394932955503464, 0.09504695236682892, 0.009953562170267105, -0.0581221804022789, -0.004953500349074602, 0.02595415525138378, -0.037010226398706436, 0.00942299421876669, -0.006462397053837776, -0.007812121417373419, -0.02041788399219513, 0.015843570232391357, -0.060805052518844604, -0.11903791129589081, -0.11290090531110764, -0.20252789556980133, -0.23539817333221436, -0.24769309163093567, -0.2089836597442627, -0.11741099506616592, -0.132126122713089, -0.13615477085113525, -0.21834024786949158, -0.19643698632717133, -0.21785984933376312, -0.12350034713745117, 0.009647619910538197, 0.003661183640360832, -0.004678246099501848, -0.03667166084051132, -0.08048306405544281, -0.08336383104324341, -0.09413768351078033, -0.018311047926545143, -0.002681959420442581, -0.034988246858119965, 0.027440501376986504, -0.025823993608355522, 0.011825183406472206, -0.04133112356066704, -0.02055898681282997, -0.11808619648218155, -0.1700592041015625, -0.19576726853847504, -0.2481330931186676, -0.2341737449169159, -0.21517974138259888, -0.08841554820537567, -0.05816759914159775, -0.007696331478655338, 0.0025774165987968445, -0.1136096939444542, 0.010038383305072784, -0.04335178807377815, -0.06351632624864578, -0.11875090003013611, -0.14877758920192719, -0.15979750454425812, -0.22122181951999664, -0.1486939638853073, -0.07419835776090622, -0.03793664276599884, -0.0013914169976487756, 0.02426404505968094, -0.027315286919474602, -0.008918141946196556, 0.0265008844435215, -0.0007116995402611792, -0.08607838302850723, -0.06312379986047745, -0.14987222850322723, -0.20279265940189362, -0.24188296496868134, -0.2025936394929886, -0.10016541182994843, -0.04840873181819916, 0.05613641068339348, 0.20408809185028076, 0.3096131682395935, 0.09311772137880325, 0.017471149563789368, -0.0967608168721199, -0.1342751383781433, -0.21370917558670044, -0.22700855135917664, -0.2277374267578125, -0.21701373159885406, -0.13847896456718445, -0.0963616743683815, -0.04114577919244766, 0.021969957277178764, 0.012936888262629509, -0.022066963836550713, 0.02866418845951557, -0.022283470258116722, 0.0076988209038972855, -0.07114799320697784, -0.1113673597574234, -0.14385604858398438, -0.11302758008241653, -0.17804892361164093, -0.12404622882604599, -0.0831422433257103, -0.03959779813885689, 0.13682524859905243, 0.41353315114974976, 0.5323435068130493, 0.22162877023220062, 0.014784122817218304, -0.13925208151340485, -0.21025621891021729, -0.23821693658828735, -0.20377863943576813, -0.22987279295921326, -0.15988244116306305, -0.13172461092472076, -0.04713689163327217, -0.041741304099559784, 0.012571645900607109, -0.028800135478377342, -0.031215215101838112, 0.01882946491241455, 0.008680778555572033, -0.0014781801728531718, -0.06989233195781708, -0.08517466485500336, -0.1164843738079071, -0.13838063180446625, -0.15872813761234283, -0.17903050780296326, -0.1515887975692749, -0.057457566261291504, 0.1889815628528595, 0.604093074798584, 0.5772188305854797, 0.16182385385036469, -0.019403347745537758, -0.09405506402254105, -0.17805887758731842, -0.16435030102729797, -0.1698625236749649, -0.07738813757896423, -0.10097087919712067, -0.055502377450466156, -0.03767748922109604, -0.03781205788254738, 0.002345301443710923, -0.017064176499843597, -0.018124166876077652, 0.016539886593818665, -0.03158307448029518, 0.0018818110693246126, -0.015862777829170227, -0.021645834669470787, -0.08329034596681595, -0.12505903840065002, -0.17360326647758484, -0.2960529625415802, -0.3092632293701172, -0.11694822460412979, 0.2632557153701782, 0.6840347051620483, 0.498587965965271, 0.13951319456100464, -0.014015224762260914, -0.07448702305555344, -0.1695326417684555, -0.15845826268196106, -0.06598655134439468, -0.08372502774000168, -0.015839247032999992, -0.012957428582012653, -0.023887312039732933, 0.025891607627272606, 0.00232721702195704, 0.024984020739793777, 0.0012587985256686807, -0.021014181897044182, -0.018793754279613495, -0.031784918159246445, -0.0387628935277462, -0.016851257532835007, -0.032337673008441925, -0.07996346801519394, -0.1643793284893036, -0.36191028356552124, -0.4598006308078766, -0.1645546406507492, 0.32002583146095276, 0.6069668531417847, 0.4403257966041565, 0.09420568495988846, 0.0036574506666511297, -0.20152400434017181, -0.21454603970050812, -0.136353999376297, -0.1055731475353241, -0.052048686891794205, -0.024614237248897552, -0.0316443145275116, -0.03498762845993042, 0.026694701984524727, -0.02294122986495495, 0.02376231551170349, 0.010945356450974941, 0.023709340021014214, 0.005696202162653208, -0.014572618529200554, -0.048686858266592026, -0.051904670894145966, -0.10361896455287933, -0.0738757848739624, -0.21626967191696167, -0.398601770401001, -0.43293437361717224, -0.10151811689138412, 0.36760953068733215, 0.5729885101318359, 0.3623420000076294, 0.04883033409714699, -0.18510505557060242, -0.2760220170021057, -0.2221013754606247, -0.16342076659202576, -0.08320598304271698, -0.05531954765319824, -0.07547678053379059, -0.01596672274172306, 0.02210850454866886, 0.013517623767256737, 0.015767736360430717, 0.001350466744042933, -0.03201979398727417, 0.03174086660146713, 0.03140869736671448, 0.020514313131570816, -0.03346461057662964, -0.10019530355930328, -0.1063971072435379, -0.13303242623806, -0.2490927129983902, -0.3612483739852905, -0.21106497943401337, 0.04556998237967491, 0.3684653639793396, 0.5613642334938049, 0.21476003527641296, -0.05807758495211601, -0.3606436550617218, -0.30585387349128723, -0.23698559403419495, -0.16843359172344208, -0.1419086754322052, -0.06162695586681366, -0.07227358222007751, -0.020668288692831993, -0.0405295267701149, -0.0016060289926826954, -0.019607003778219223, -0.0015549580566585064, 0.02558969147503376, -0.005070935934782028, -0.013564623892307281, -0.011686169542372227, -0.056436166167259216, -0.1420954316854477, -0.20006230473518372, -0.1561911702156067, -0.1623193472623825, -0.17503578960895538, -0.11857618391513824, -0.00535516906529665, 0.39650702476501465, 0.5230129957199097, 0.029657570645213127, -0.17185534536838531, -0.4374566674232483, -0.3630555272102356, -0.2679712772369385, -0.18706880509853363, -0.12159620225429535, -0.0813981220126152, -0.05387304350733757, -0.0046312035992741585, -0.049168284982442856, 0.004270510282367468, 0.018918700516223907, -0.03264366462826729, -0.023380320519208908, -0.017276586964726448, -0.03635916858911514, -0.015455961227416992, -0.08989238739013672, -0.19299140572547913, -0.25785118341445923, -0.1855294108390808, -0.1356874704360962, -0.003309546271339059, -0.09965565800666809, 0.0983598530292511, 0.3478841483592987, 0.3916771113872528, -0.0125356987118721, -0.3031996190547943, -0.3599758446216583, -0.2843673527240753, -0.17951710522174835, -0.16074348986148834, -0.06513865292072296, -0.06496986746788025, -0.06261701136827469, -0.06990693509578705, -0.017726676538586617, 0.026975015178322792, 0.02050180733203888, -0.024560412392020226, -0.005640031304210424, -0.016677364706993103, 0.009828700684010983, -0.04080670326948166, -0.1578895002603531, -0.26156336069107056, -0.27173468470573425, -0.1224205493927002, -0.03824656456708908, -0.05234413221478462, -0.03111548162996769, 0.08613874763250351, 0.24778620898723602, 0.1694663017988205, -0.11317863315343857, -0.24658630788326263, -0.20876158773899078, -0.1142982766032219, -0.07336053997278214, -0.08757463842630386, -0.08698297291994095, -0.0666363313794136, -0.0705694705247879, -0.049429554492235184, -0.0006690563168376684, -0.018080497160553932, 0.035665519535541534, 0.025567157194018364, 0.009737713262438774, -0.028090383857488632, -0.025952106341719627, -0.014014434069395065, -0.14137114584445953, -0.18242450058460236, -0.16959165036678314, -0.0919327661395073, 0.015748949721455574, -0.03373972326517105, -0.004573937505483627, 0.0047846571542322636, 0.1390213519334793, 0.04825723171234131, 0.004408384207636118, -0.002510868012905121, -0.03436139598488808, 0.007611755281686783, -0.008494443260133266, 0.019821902737021446, -0.05089009553194046, -0.043942637741565704, -0.026688603684306145, -0.005334560293704271, 0.007363720331341028, 0.0170192401856184, 0.00574537692591548, -0.015616783872246742, -0.030865203589200974, 0.00683488417416811, -0.025910144671797752, -0.06185871735215187, -0.08040784299373627, -0.0707939937710762, -0.037454988807439804, 0.05128813162446022, 0.04146524891257286, 0.08447828143835068, 0.06128212809562683, -0.00021108932560309768, -0.015972409397363663, 0.008631780743598938, -0.013647114858031273, 0.07978672534227371, 0.15490169823169708, 0.17354607582092285, 0.06803742796182632, 0.05506788566708565, -0.04274649918079376, -0.0454927422106266, -0.005421211943030357, 0.002523657400161028, -0.007344298530369997, 0.009649364277720451, 0.018918050453066826, -0.0029525260906666517, -0.009575441479682922, -0.03236072137951851, -0.03197269141674042, 0.05403492599725723, 0.09928800910711288, 0.15400972962379456, 0.11348239332437515, 0.12230780720710754, 0.028542209416627884, 0.06930375099182129, -0.06742233783006668, -0.13839173316955566, -0.11032769083976746, -0.038347844034433365, 0.029029574245214462, 0.07230277359485626, 0.10924429446458817, 0.12999878823757172, 0.05944618210196495, 0.04134165495634079, -0.005022366996854544, -0.02759539522230625, -0.03901480510830879, 0.0032809763215482235, 0.013896984979510307, 0.007568594999611378, 0.013769213110208511, 0.026007339358329773, 0.01185507234185934, -0.03596445918083191, -0.02049046941101551, 0.08093824982643127, 0.19378742575645447, 0.19914177060127258, 0.13734738528728485, 0.1202603280544281, 0.03720424696803093, -0.03496287763118744, -0.19857698678970337, -0.2922196388244629, -0.2881659269332886, -0.07343283295631409, 0.004301372449845076, 0.10878787189722061, 0.19713535904884338, 0.1495174914598465, 0.07434355467557907, 0.01961788721382618, -0.025127604603767395, -0.035012271255254745, -0.028241541236639023, 0.022976234555244446, -0.013080929405987263, -0.01774916984140873, -0.03061048872768879, 0.02365446463227272, 0.003908507525920868, 0.021860862150788307, -0.023920666426420212, 0.01354988943785429, 0.1402372419834137, 0.21111664175987244, 0.10101132094860077, 0.015016430988907814, -0.0008491807384416461, -0.10904950648546219, -0.1725834161043167, -0.15043926239013672, -0.14132127165794373, -0.09044680744409561, 0.02645690366625786, 0.10525564849376678, 0.14197440445423126, 0.08256341516971588, 0.03170854598283768, -0.05031867325305939, -0.0349847637116909, -0.0068437871523201466, -0.047267522662878036, 0.006715069059282541, -0.023583272472023964, 0.006814706139266491, 0.018739216029644012, -0.014270931482315063, 0.014459934085607529, -0.0267145074903965, -0.0012969083618372679, -0.018702436238527298, -0.0008376874611712992, 0.033467166125774384, -0.036894213408231735, -0.12936164438724518, -0.12328721582889557, -0.20436768233776093, -0.24697019159793854, -0.19645267724990845, -0.26264750957489014, -0.2422739863395691, -0.18287821114063263, -0.1209789291024208, -0.034497831016778946, -0.021355358883738518, -0.030233435332775116, -0.042165979743003845, -0.028610263019800186, -0.02870998904109001, 0.023350320756435394, -0.03620951250195503, -0.009302102960646152, -0.021048566326498985, -0.005737271159887314, -0.0013593174517154694, 0.027527902275323868, -0.012468746863305569, 0.013801337219774723, -0.029651883989572525, 0.003337265457957983, -0.02629350684583187, -0.07343953847885132, -0.06711725145578384, -0.07595183700323105, -0.13646727800369263, -0.1785850077867508, -0.1278427094221115, -0.1793854981660843, -0.13144949078559875, -0.16959065198898315, -0.11206720769405365, -0.05092048645019531, -0.041844695806503296, -0.012934776954352856, -0.017944347113370895, 0.02366330288350582, -0.00432970654219389, -0.004398440942168236, -0.012646777555346489, 0.021978912875056267, 0.03540971502661705, -0.017159249633550644, -0.004582159221172333, 0.032546576112508774, 0.029182087630033493, -0.007488562725484371, -0.005099469795823097, -0.014935335144400597, -0.027202343568205833, -0.01847931556403637, -0.025526469573378563, -0.018281711265444756, -0.026415828615427017, -0.03676854074001312, -0.06152281165122986, -0.04740173742175102, -0.04457128420472145, -0.025873925536870956, -0.03391868248581886, -0.02527087926864624, -0.01745520904660225, 0.021094894036650658, 0.023005269467830658, 0.002810120116919279, -0.010759353637695312, 0.02958846464753151, 0.02802540734410286, 0.02428654581308365, -0.012343309819698334, -0.02234995923936367, -0.0033245794475078583, -0.03068256564438343, 0.014688614755868912, 0.017991803586483, 0.011777455918490887, 0.03086557798087597, -0.03197968378663063, 0.004882182460278273, 0.012902848422527313, 0.0031905733048915863, -0.001422200701199472, -0.0047212704084813595, 0.02670278586447239, -0.023838277906179428, -0.0008520269184373319, 0.004964514635503292, -0.033975690603256226, 0.017628507688641548, 0.0018600618932396173, 0.014692322351038456, -0.03061188943684101, 0.026593375951051712, 0.005075373686850071, 0.03171905130147934, 0.002077259123325348, -0.003015432506799698, 0.012896008789539337, -0.0014535225927829742], [-0.025942569598555565, 0.021065853536128998, -0.03404738008975983, -0.00764874555170536, -0.012458307668566704, -0.006656225770711899, 0.006493106484413147, -0.0011270157992839813, -0.0009668432176113129, 0.03568386659026146, 0.032649558037519455, -0.013826975598931313, 0.014337310567498207, 0.032895807176828384, 0.021784493699669838, -0.007150654215365648, -0.005080299451947212, 0.0035209469497203827, 0.025235284119844437, -0.02811400592327118, -0.012158667668700218, 0.01734447106719017, -0.009532643482089043, 0.034528981894254684, 0.03120345249772072, 0.033889610320329666, 0.03175884112715721, 0.028128456324338913, -0.034909285604953766, 0.005886819213628769, 0.02926071360707283, -0.0031189322471618652, 0.004338169936090708, 0.017067905515432358, 0.03142986446619034, 0.03044956922531128, -0.028380783274769783, -0.03369705751538277, -0.021876230835914612, -0.03803723305463791, -0.00896835420280695, 0.025715421885252, -0.021091297268867493, 0.023098062723875046, 0.044613830745220184, 0.020575914531946182, 0.01737227663397789, -0.025956686586141586, 0.010838482528924942, -0.0020891642197966576, -0.0004391182155814022, 0.010191305540502071, -0.0029769912362098694, 0.029216062277555466, -0.0027430690824985504, -0.023899227380752563, 0.008461732417345047, -0.029065942391753197, -0.025286158546805382, -0.008476302959024906, -0.005468025803565979, -0.01963127590715885, -0.009119514375925064, -0.030023718252778053, 0.0008034189813770354, -0.003768232883885503, 0.020750919356942177, -0.013344105333089828, 0.056618817150592804, 0.011267452500760555, 0.005533207673579454, 0.011370459571480751, 0.06709883362054825, 0.026801230385899544, 0.0013302285224199295, -0.05316707491874695, -0.020421698689460754, -0.02739780582487583, 0.00893792137503624, 0.024239910766482353, 0.01865796558558941, -0.0022145789116621017, -0.023125329986214638, 0.03017868474125862, -0.023818442597985268, -0.007139112800359726, 0.01669830083847046, 0.017488565295934677, -0.02841048315167427, -0.031789787113666534, 0.02118784189224243, -0.010082562454044819, 0.0462561771273613, 0.10753783583641052, 0.14371070265769958, 0.1972971111536026, 0.1932588368654251, 0.2595670223236084, 0.1401635855436325, 0.10583414137363434, 0.09613200277090073, 0.019474823027849197, -0.05545565113425255, -0.08744123578071594, -0.06860379874706268, -0.05595611035823822, -0.05828313156962395, -0.019086966291069984, -0.011300559155642986, 0.019396327435970306, -0.031205516308546066, 0.004690695554018021, -0.00628591887652874, -0.017848646268248558, 0.014456931501626968, 0.009299342520534992, -0.017437156289815903, -0.016957757994532585, 0.06340773403644562, 0.07524601370096207, 0.12972114980220795, 0.2138584852218628, 0.21520932018756866, 0.23207063972949982, 0.26941990852355957, 0.17899298667907715, 0.20006096363067627, 0.0999327078461647, 0.10968296229839325, 0.07824569195508957, 0.007707425858825445, -0.09518755972385406, -0.11774200946092606, -0.11791643500328064, -0.12195343524217606, -0.12904204428195953, -0.04081972688436508, -0.015177395194768906, 0.012989562004804611, -0.035448212176561356, -0.008508507162332535, 0.0006345771253108978, 0.028347739949822426, -0.023003533482551575, -0.017296677455306053, 0.05629698187112808, 0.07388990372419357, 0.10664596408605576, 0.2226281762123108, 0.2041192203760147, 0.24863550066947937, 0.24764347076416016, 0.25323861837387085, 0.21538743376731873, 0.2044408619403839, 0.2120303213596344, 0.26895442605018616, 0.22352087497711182, 0.15162278711795807, 0.000652967719361186, -0.020756425336003304, -0.043173082172870636, -0.12834423780441284, -0.14761288464069366, -0.08833601325750351, 0.008849481120705605, -0.0251091867685318, 0.03312334418296814, -0.01615733467042446, -0.005242251791059971, 0.0218158271163702, -0.008911723271012306, 0.03595229238271713, 0.07933095842599869, 0.08652257919311523, 0.14407594501972198, 0.1772071272134781, 0.1836831420660019, 0.13128329813480377, 0.038121432065963745, 0.03710893169045448, 0.06302458047866821, 0.0893702432513237, 0.1259254366159439, 0.07268230617046356, 0.032936401665210724, 0.011139369569718838, -0.011892706155776978, -0.08530531078577042, -0.06686139851808548, -0.13212352991104126, -0.19151203334331512, -0.13056698441505432, -0.06046685576438904, -0.016215309500694275, -0.0018516092095524073, 0.007882152684032917, 0.021687153726816177, -0.023020265623927116, -0.0038761768955737352, 0.08372532576322556, 0.1150563657283783, 0.15327520668506622, 0.1376306414604187, 0.14315135776996613, 0.03028629720211029, 0.03311152011156082, 0.0781487450003624, 0.045092687010765076, 0.07380694150924683, 0.07003901153802872, -0.02408461831510067, -0.03968023881316185, -0.1423512101173401, -0.07896502315998077, -0.06451660394668579, -0.08172272890806198, -0.0014743938809260726, -0.04532599449157715, -0.20045916736125946, -0.1489831805229187, -0.0737440437078476, 0.016526775434613228, -0.014388905838131905, 0.029948053881525993, -0.03094223327934742, -0.02655443549156189, -0.003953297156840563, 0.08193233609199524, 0.10619083046913147, 0.10938779264688492, 0.12932787835597992, 0.048629894852638245, 0.06660804897546768, 0.1808694750070572, 0.13415850698947906, 0.039125990122556686, 0.055756375193595886, 0.08981027454137802, 0.09557335078716278, -0.004580303095281124, -0.02550712414085865, -0.04826388135552406, 0.0619402751326561, -0.013905116356909275, -0.021788761019706726, -0.07021025568246841, -0.09980152547359467, -0.14991320669651031, -0.049443069845438004, -0.017245423048734665, 0.00603514676913619, -0.032993875443935394, -0.029630988836288452, -0.017626335844397545, 0.041737623512744904, 0.04560277983546257, 0.15628741681575775, 0.039750538766384125, -0.00552734499797225, -0.019151825457811356, 0.09185487031936646, 0.11278809607028961, 0.07256389409303665, 0.06340689957141876, 0.04684235155582428, 0.14341969788074493, 0.1522945910692215, 0.08193765580654144, 0.07717283815145493, 0.03631117194890976, 0.02497738040983677, -0.0021502452436834574, -0.030403848737478256, -0.051036957651376724, -0.12221629917621613, -0.1215597465634346, -0.0647774487733841, -0.023931676521897316, -0.0012357014929875731, 0.011170163750648499, 0.030841464176774025, -0.02420811727643013, 0.0042563932947814465, 0.0005698945024050772, 0.07460933923721313, -0.010852709412574768, -0.12692517042160034, -0.1148243322968483, -0.138474240899086, -0.12911902368068695, -0.14309723675251007, -0.1770949810743332, -0.2332548052072525, -0.09386973083019257, -0.07868983596563339, 0.025298401713371277, 0.03206182271242142, 0.05251767486333847, 0.019954325631260872, -0.02745426632463932, -0.04816063493490219, -0.06328403204679489, -0.11148831248283386, -0.06212741881608963, -0.053132064640522, 0.00793448742479086, 0.0063583627343177795, 0.0015414642402902246, -0.015903262421488762, 0.029051832854747772, -0.019423043355345726, -0.018716860562562943, -0.12335336208343506, -0.20817355811595917, -0.3398682177066803, -0.3684769570827484, -0.4224996268749237, -0.4708732068538666, -0.4988366961479187, -0.539990246295929, -0.5969829559326172, -0.4388647973537445, -0.27149248123168945, -0.12439358979463577, -0.1414361596107483, -0.09873317182064056, 0.047725461423397064, -0.04671524092555046, 0.001217234181240201, -0.06249469518661499, -0.08796095103025436, -0.0186169296503067, -0.010375573299825191, -0.02243402786552906, -0.03165065869688988, 0.0008247802034020424, 0.03392302989959717, 0.01171968411654234, -0.03163858503103256, -0.08157908171415329, -0.276807963848114, -0.47919097542762756, -0.5577915906906128, -0.4434422552585602, -0.4753308892250061, -0.4676002860069275, -0.44848909974098206, -0.4761369228363037, -0.44433748722076416, -0.35806915163993835, -0.3512323200702667, -0.2596277594566345, -0.2194787710905075, -0.11702534556388855, 0.034740690141916275, -0.009989309124648571, -0.01905265636742115, -0.0975516140460968, -0.15063904225826263, -0.015769753605127335, 0.055344775319099426, 0.006905452348291874, -0.013605769723653793, 0.012587363831698895, -0.006898248568177223, 0.027397580444812775, -0.03652200847864151, -0.13876567780971527, -0.35398146510124207, -0.5596846342086792, -0.4930518567562103, -0.35089966654777527, -0.24378694593906403, -0.19498685002326965, -0.08795633167028427, -0.10296384990215302, -0.05847465619444847, -0.10297353565692902, -0.21402454376220703, -0.20003382861614227, -0.12773948907852173, -0.11117099970579147, -0.048801813274621964, -0.025936473160982132, -0.07035200297832489, -0.07442983239889145, -0.12076780945062637, 0.0434114895761013, 0.1296783834695816, 0.048232875764369965, 0.014341069385409355, -0.006649477407336235, -0.021746652200818062, -0.034920722246170044, -0.04539859667420387, -0.09817191958427429, -0.32906439900398254, -0.3001266419887543, -0.17377179861068726, -0.06423904746770859, -0.06671611219644547, 0.012139024212956429, 0.04268437996506691, 0.07544481009244919, 0.17620280385017395, 0.04044068232178688, -0.07733885943889618, -0.11074671149253845, -0.12076177448034286, -0.050562601536512375, -0.08272390812635422, -0.06570135056972504, -0.12070373445749283, -0.11582396924495697, -0.03677664324641228, 0.12772290408611298, 0.18398545682430267, 0.10957717150449753, 0.016256388276815414, 0.018740614876151085, -0.018970245495438576, -0.03384190425276756, 0.027502957731485367, 0.039797767996788025, 0.030758380889892578, 0.02278965897858143, 0.04080972820520401, 0.06591607630252838, 0.04113924130797386, 0.0020872631575912237, 0.0486106276512146, 0.06378548592329025, 0.19740785658359528, 0.09161970764398575, 0.027284886687994003, 0.002479083603248, -0.06377791613340378, -0.08428466320037842, -0.05233846604824066, -0.13114604353904724, -0.09850006550550461, -0.12186266481876373, -0.010564969852566719, 0.20328035950660706, 0.2544197738170624, 0.1397033929824829, -0.019221827387809753, -0.010933857411146164, -0.03290679678320885, -0.038336072117090225, 0.08144893497228622, 0.1319582164287567, 0.1907329112291336, 0.18317171931266785, 0.08105864375829697, 0.01719350554049015, 0.10051683336496353, 0.0704241469502449, 0.15938442945480347, 0.25284361839294434, 0.2728584110736847, 0.1094798892736435, 0.04857126995921135, 0.08140330761671066, 0.07984238117933273, 0.0042431531473994255, -0.03601595759391785, -0.013116041198372841, 0.08427270501852036, 0.11063062399625778, 0.1290392279624939, 0.3044213354587555, 0.3280203938484192, 0.10933887213468552, -0.0018746182322502136, -0.022193824872374535, -0.022052807733416557, -0.01949019730091095, 0.11066912114620209, 0.20205678045749664, 0.24559679627418518, 0.22786961495876312, 0.13788992166519165, 0.0856315866112709, 0.12133019417524338, 0.22163811326026917, 0.2388334423303604, 0.31093868613243103, 0.2527875602245331, 0.05569255352020264, 0.06682493537664413, 0.09532766044139862, 0.030388616025447845, 0.028695525601506233, 0.06108257547020912, 0.05769718065857887, 0.11314383894205093, 0.17039433121681213, 0.16897520422935486, 0.3683067262172699, 0.3595072329044342, 0.12575392425060272, -0.017605585977435112, 0.004113534931093454, -0.010239354334771633, -0.020373700186610222, 0.09213519841432571, 0.21343740820884705, 0.29366323351860046, 0.21991068124771118, 0.26335757970809937, 0.11895547807216644, 0.15130148828029633, 0.2074790745973587, 0.22164775431156158, 0.27814429998397827, 0.23862408101558685, 0.13497179746627808, 0.018509389832615852, 0.11010214686393738, 0.11531008034944534, 0.09296615421772003, 0.03557481989264488, 0.0465233214199543, 0.12448744475841522, 0.19908122718334198, 0.36094656586647034, 0.42823562026023865, 0.2448631227016449, 0.024297866970300674, 0.025997763499617577, 0.00206927047111094, -0.02580372802913189, 0.025358865037560463, 0.03367021307349205, 0.2112804651260376, 0.24782827496528625, 0.17743079364299774, 0.2607914209365845, 0.22813084721565247, 0.19367122650146484, 0.2475138008594513, 0.2565557062625885, 0.23166893422603607, 0.24679124355316162, 0.14054514467716217, 0.054444584995508194, 0.0879720076918602, 0.09872286021709442, 0.07255765050649643, 0.02726631797850132, 0.08609209209680557, 0.1319011151790619, 0.27859485149383545, 0.28340664505958557, 0.2745824456214905, 0.1812543123960495, 0.037696659564971924, -0.018077995628118515, -0.011041373014450073, 0.028044771403074265, 0.02444823831319809, 0.0518173985183239, 0.14823122322559357, 0.18995285034179688, 0.22379980981349945, 0.3007737100124359, 0.2311067432165146, 0.23527970910072327, 0.15861240029335022, 0.2234712541103363, 0.1538904756307602, 0.046210985630750656, 0.024321651086211205, 0.06562919914722443, 0.05453839153051376, 0.020880989730358124, 0.11094106733798981, 0.18481718003749847, 0.1403784304857254, 0.19513951241970062, 0.2474941611289978, 0.2808201313018799, 0.20430520176887512, 0.08494259417057037, -0.010796362534165382, -0.01160341501235962, -0.011260773986577988, 0.029533416032791138, 0.004660445731133223, 0.03577757626771927, 0.0851716473698616, 0.14503605663776398, 0.1391124278306961, 0.11889201402664185, 0.09774850308895111, 0.18499474227428436, 0.13139398396015167, 0.12221048027276993, 0.056801602244377136, 0.031192084774374962, -0.00027663185028359294, -0.055369533598423004, 0.05862840265035629, 0.09049870073795319, 0.18015702068805695, 0.21717172861099243, 0.159847229719162, 0.1814417839050293, 0.22645869851112366, 0.2855991721153259, 0.17385058104991913, 0.08382096886634827, -0.014731851406395435, 0.027167383581399918, -0.021138856187462807, -0.017777279019355774, -0.012620845809578896, 0.002934511750936508, 0.07235442847013474, 0.07322923094034195, 0.1375640332698822, 0.15148140490055084, 0.196892648935318, 0.16036556661128998, 0.15289555490016937, 0.08658966422080994, 0.03433935344219208, -0.03914860263466835, -0.10582218319177628, -0.09431302547454834, -0.03068883717060089, 0.04736950621008873, 0.1792491227388382, 0.16182240843772888, 0.20158827304840088, 0.20603236556053162, 0.17450854182243347, 0.1686703860759735, 0.09381698071956635, 0.0371488481760025, 0.020830944180488586, 0.01845383085310459, 0.011480994522571564, 0.03450478985905647, -0.0030329932924360037, -0.03924291953444481, -0.03820596635341644, -0.03573235124349594, -0.010053390637040138, -0.017490794882178307, 0.010196404531598091, 0.01625794544816017, -0.02712768130004406, 0.010440254583954811, -0.004154307767748833, -0.10437682271003723, -0.06091267615556717, -0.10165049135684967, -0.058166563510894775, -0.014073748141527176, 0.13222725689411163, 0.17937640845775604, 0.11831951141357422, 0.1263166069984436, 0.1520627737045288, 0.07527446001768112, 0.008992377668619156, 0.04234684258699417, 0.011828678660094738, -0.021162409335374832, -0.007650090381503105, 0.004005163908004761, 0.029244374483823776, -0.03067815862596035, -0.04862890765070915, -0.1106838658452034, -0.14552393555641174, -0.16942323744297028, -0.14090950787067413, -0.15765127539634705, -0.18473197519779205, -0.13987334072589874, -0.03990175575017929, -0.06646405160427094, 0.012816298753023148, -0.03668801486492157, -0.01770579069852829, -0.01763766072690487, 0.014062448404729366, -0.04575984552502632, 0.02390855923295021, 0.040545932948589325, 0.04167509078979492, 0.015750138089060783, 0.07146488130092621, -0.0078533124178648, 0.034009888768196106, -0.030533429235219955, -0.026656046509742737, -0.018678031861782074, -0.004064660053700209, 0.024811604991555214, -0.007344705518335104, -0.061570215970277786, -0.031289223581552505, -0.09480369091033936, -0.16402864456176758, -0.14847394824028015, -0.11440650373697281, -0.1402561068534851, -0.08217013627290726, -0.07075965404510498, -0.04021454602479935, -0.03368760272860527, -0.08175274729728699, -0.04976508393883705, -0.03025992400944233, -0.09119036793708801, -0.06692423671483994, -0.04013483598828316, -0.059805482625961304, -0.024215668439865112, -0.017327675595879555, 0.03319406881928444, -0.03166517615318298, -0.01982114277780056, -0.017519287765026093, 0.025586571544408798, 0.013431843370199203, -0.019440585747361183, -0.022491076961159706, -0.03745478019118309, 0.018455658107995987, -0.016271797940135002, -0.005561782978475094, 0.0021531858947128057, 0.02056799829006195, -0.007631465792655945, -0.007886836305260658, -0.021144531667232513, -0.04162441939115524, -0.05444721505045891, -0.03817111626267433, -0.033350005745887756, -0.04808127135038376, -0.01331126969307661, -0.003550157882273197, -0.012814676389098167, 0.019457148388028145, -0.015420286916196346, 0.02269279770553112, 0.02905978262424469, -0.030332157388329506, -0.012238984927535057, 0.02928755059838295, -0.002573605626821518, 0.011349193751811981, 0.02190227434039116, 0.03398393467068672, -0.019049040973186493, -0.011806550435721874, -0.008692174218595028, 0.017978521063923836, 0.02044541761279106, 0.012904494069516659, -0.023374656215310097, 0.006017487961798906, -0.007605345454066992, -0.025074223056435585, 0.019305868074297905, -0.018138248473405838, -0.017677031457424164, 0.017513465136289597, -0.02129444107413292, -0.011743225157260895, 0.0032716989517211914, -0.0074524604715406895, -0.00115843559615314, 0.00505799800157547, -0.0258445106446743, 0.03206515684723854, 0.016771182417869568], [-0.01603604294359684, 0.005740799009799957, -0.0095281470566988, 0.021280016750097275, -0.013984378427267075, 0.01860744133591652, -0.031020166352391243, 0.005163814872503281, -0.006828198209404945, 0.0276869498193264, 0.003766510635614395, 0.009898588061332703, 0.005886034108698368, -0.006283142138272524, -0.014389417134225368, 0.01048835925757885, -0.0075692106038331985, -0.025023184716701508, 0.012217063456773758, -0.03391634672880173, -0.028271544724702835, 0.023067042231559753, 0.007179994136095047, -0.02398117631673813, 0.03017103299498558, 0.032545920461416245, -0.0005298629403114319, -0.024980759248137474, -0.02066919207572937, 0.02340789884328842, -0.018581442534923553, -0.02772873267531395, 0.026353947818279266, -0.009216583333909512, -0.03260877728462219, -0.01348339393734932, 0.022954648360610008, 0.03022119216620922, 0.034046974033117294, -0.0004083308740518987, -0.014596845023334026, -0.02878200076520443, 0.0005497694946825504, 0.016368089243769646, 0.009016930125653744, -0.0046593318693339825, 0.021037036553025246, 0.0005243844934739172, -0.01987822726368904, -0.009249108843505383, 0.02203836850821972, -0.018992716446518898, 0.021064992994070053, -0.0041878484189510345, 0.015174482017755508, -0.01895088516175747, 0.001972328871488571, 0.017495576292276382, 0.007034147158265114, -0.012862271629273891, -0.03009830415248871, -0.010844486765563488, -0.024850968271493912, 0.002318987622857094, -0.007979045622050762, 0.021269014105200768, -0.03412747010588646, 0.014176981523633003, 0.035691455006599426, 0.008221757598221302, 0.001444555353373289, 0.005080817732959986, 0.0034781310241669416, 0.018221626058220863, -0.03944554179906845, -0.03449370339512825, 0.0036805630661547184, -0.02170548029243946, 0.012262714095413685, 0.003116981592029333, 0.029817096889019012, -7.389649545075372e-05, -0.013810766860842705, -0.00033530592918395996, -0.02605198323726654, -0.010529497638344765, 0.007855777628719807, -0.033517975360155106, -0.00295239663682878, -0.01007258053869009, 0.038601696491241455, 0.005540688056498766, 0.0038046343252062798, -0.008903834037482738, 0.053103260695934296, 0.07623866945505142, 0.16809196770191193, 0.15795600414276123, 0.20541904866695404, 0.1695791333913803, 0.14262953400611877, 0.17783217132091522, 0.08108171820640564, 0.10268953442573547, 0.036006320267915726, -0.031159063801169395, -0.007654722314327955, -0.021347394213080406, 0.003833929542452097, 0.014883029274642467, 0.022561874240636826, -0.030853495001792908, 0.009649623185396194, 0.015176605433225632, 0.01777496002614498, 0.025490760803222656, 0.00019016096484847367, 0.0800156518816948, 0.10395137220621109, 0.1523662656545639, 0.1790909320116043, 0.21864572167396545, 0.2400788813829422, 0.2772601246833801, 0.27067360281944275, 0.32913026213645935, 0.2357373982667923, 0.21468429267406464, 0.21860267221927643, 0.10807345807552338, 0.1677447110414505, 0.025440175086259842, -0.06378482282161713, -0.10477704554796219, -0.060958970338106155, -0.07111233472824097, -0.038367193192243576, -0.004452780820429325, -0.01698375679552555, -0.0028315456584095955, 0.005540788173675537, 0.018828604370355606, 0.0013469485566020012, -0.008590885438024998, 0.04903486371040344, 0.1647617369890213, 0.199532151222229, 0.21714816987514496, 0.18141131103038788, 0.17524394392967224, 0.20826779305934906, 0.12930133938789368, 0.10404663532972336, 0.09757988899946213, 0.05578799545764923, 0.11387036740779877, 0.15330195426940918, 0.008821872062981129, 0.019911596551537514, 0.009194250218570232, -0.07991603761911392, -0.15543296933174133, -0.1787358671426773, -0.1521666944026947, -0.02377791330218315, -0.03342411667108536, -0.0161646269261837, 0.03510984778404236, 5.487352609634399e-06, 0.01797955110669136, 0.021454185247421265, 0.05894848704338074, 0.14305299520492554, 0.1892945021390915, 0.20196090638637543, 0.14292371273040771, 0.17419739067554474, 0.21124951541423798, 0.16135236620903015, 0.1439080536365509, 0.07545600831508636, 0.16231907904148102, 0.1369609832763672, 0.14075824618339539, 0.18619763851165771, 0.07430364936590195, 0.14415894448757172, -0.039408501237630844, -0.017506975680589676, -0.017151523381471634, -0.1413925141096115, -0.16845206916332245, -0.07152341306209564, -0.031017357483506203, 0.002398849232122302, 0.01981777884066105, -0.03369275480508804, 0.0008378513739444315, 0.024707147851586342, 0.06713630259037018, 0.14931677281856537, 0.24974091351032257, 0.1861511766910553, 0.10294461995363235, 0.06200568005442619, 0.09783879667520523, 0.04026404395699501, 0.05656227841973305, 0.15423093736171722, 0.11365143209695816, 0.19270505011081696, 0.1770116686820984, 0.05340380594134331, 0.08700753003358841, 0.06928730756044388, 0.0884617269039154, 0.0813600942492485, -0.05425388365983963, -0.07463640719652176, -0.19548429548740387, -0.10119082033634186, -0.01842312328517437, -0.010795899666845798, 0.03183332085609436, -0.00788122322410345, -0.02062503807246685, 0.013688871636986732, 0.04342621937394142, 0.20230117440223694, 0.20801573991775513, 0.1643449366092682, 0.04127071425318718, 0.03178362548351288, 0.018422849476337433, 0.03751196712255478, 0.002431211993098259, 0.05056740716099739, 0.09791019558906555, 0.14952287077903748, 0.2094479650259018, 0.08949071168899536, 0.11548956483602524, 0.14992690086364746, 0.12061882764101028, 0.17001737654209137, 0.09508964419364929, 0.019722970202565193, -0.22414575517177582, -0.138170525431633, -0.04662824422121048, -0.02263219654560089, -0.016264479607343674, 0.009626229293644428, 0.019030360504984856, 0.004524701740592718, 0.05114361271262169, 0.15805839002132416, 0.12542033195495605, 0.07291492819786072, 0.060481518507003784, -0.049624450504779816, -0.06731744110584259, -0.1589401215314865, -0.29212841391563416, -0.23993787169456482, -0.06850564479827881, 0.18419688940048218, 0.30646660923957825, 0.24435101449489594, 0.15119850635528564, 0.12285251915454865, 0.17939512431621552, 0.21142742037773132, 0.172235906124115, 0.08537687361240387, -0.11361506581306458, -0.15285198390483856, -0.05052294209599495, 0.006336879916489124, -0.020471706986427307, 0.004942937288433313, 0.030924616381525993, 0.007549019996076822, 0.03710101544857025, 0.060665883123874664, 0.025762030854821205, -0.039609525352716446, -0.1291620284318924, -0.2746785879135132, -0.3788315951824188, -0.4323987662792206, -0.4377686381340027, -0.38086268305778503, -0.01792335696518421, 0.19807679951190948, 0.21628990769386292, 0.2119598686695099, 0.18833039700984955, 0.14762400090694427, 0.18970836699008942, 0.21990695595741272, 0.12793760001659393, 0.019853463396430016, -0.07346207648515701, -0.056629687547683716, -0.009934990666806698, 0.025189096108078957, 0.022336075082421303, -0.029971931129693985, -0.033582210540771484, -0.007075844798237085, 0.027807585895061493, 0.04589100554585457, -0.1306193768978119, -0.2536967992782593, -0.34630757570266724, -0.3868460953235626, -0.3351753354072571, -0.299691766500473, -0.18023671209812164, -0.08685241639614105, 0.1010553315281868, 0.207866370677948, 0.18879404664039612, 0.11846014857292175, 0.1699775904417038, 0.18101677298545837, 0.17555883526802063, 0.14799366891384125, -0.054792169481515884, -0.09025885164737701, -0.0733208954334259, -0.05923917517066002, -0.0021321126259863377, -0.02519119530916214, -0.005382321309298277, 0.030112437903881073, -0.002375717042014003, 0.0005193501128815114, -0.025256456807255745, -0.049482278525829315, -0.15801943838596344, -0.3053834140300751, -0.3002987504005432, -0.3206380307674408, -0.1680070161819458, -0.03397690877318382, -0.05052686482667923, 0.06103234365582466, 0.17161543667316437, 0.2655605673789978, 0.12976038455963135, 0.10109280049800873, 0.08262098580598831, 0.14149314165115356, -0.0198056697845459, -0.0834120661020279, -0.2135944962501526, -0.1774478554725647, -0.11531949043273926, -0.041646938771009445, 0.01702394336462021, 0.008761715143918991, 0.03387993201613426, 0.014535428956151009, 0.02425340935587883, -0.03859801962971687, -0.015695959329605103, -0.08538620918989182, -0.18964475393295288, -0.28089553117752075, -0.2897002398967743, -0.20964135229587555, -0.09732039272785187, -0.10129225254058838, -0.12178975343704224, 0.06096230447292328, 0.21221104264259338, 0.20099231600761414, 0.012798577547073364, 0.07416582852602005, 0.11458351463079453, 0.11943264305591583, -0.09603050351142883, -0.20209895074367523, -0.2086959332227707, -0.19195756316184998, -0.09124382585287094, -0.048410747200250626, -0.029923198744654655, 0.01625480316579342, -0.019357597455382347, 0.005279940087348223, -0.012027635239064693, 0.01558640319854021, -0.01723630726337433, -0.006880004890263081, -0.14322461187839508, -0.23238760232925415, -0.2504401206970215, -0.1837509572505951, -0.09609296917915344, -0.16693881154060364, -0.1126701608300209, 0.0799691379070282, 0.12599773705005646, 0.06799861043691635, 0.039185844361782074, 0.018397487699985504, 0.036931369453668594, 0.07662660628557205, -0.046889208257198334, -0.10608676820993423, -0.0893510952591896, -0.11691706627607346, -0.07684388011693954, -0.04349515587091446, -0.01018473319709301, -0.01322706788778305, -0.01986607350409031, -0.0002481248520780355, -0.003829662222415209, 0.0008206111378967762, 0.0023655600380152464, 0.03898588940501213, -0.039263006299734116, -0.14334671199321747, -0.23812495172023773, -0.259814977645874, -0.2216203808784485, -0.1539393663406372, -0.04326976090669632, 0.07024778425693512, 0.16224536299705505, 0.1230287104845047, 0.046769287437200546, -0.055102985352277756, -0.023132797330617905, -0.0021536715794354677, 0.10281111299991608, 0.15058766305446625, 0.09897010028362274, 0.05247030779719353, 0.05346592143177986, -0.0178222693502903, -0.021934468299150467, -0.03441959246993065, 0.0015293392352759838, -0.015196328982710838, -0.006624228321015835, 0.045793257653713226, 0.07890474796295166, 0.10558385401964188, -0.017892736941576004, -0.09692074358463287, -0.20309731364250183, -0.2555188536643982, -0.22124174237251282, -0.2355097085237503, -0.12011994421482086, -0.008923374116420746, 0.11490809172391891, -0.03212112560868263, -0.13985802233219147, -0.12583352625370026, -0.013810716569423676, 0.14847028255462646, 0.21496371924877167, 0.15825167298316956, 0.177809476852417, 0.1871405839920044, 0.15146571397781372, 0.005499551538378, -0.050839800387620926, -0.04087209329009056, 0.016888296231627464, 0.014815621078014374, -0.023629343137145042, 0.018291033804416656, 0.12009454518556595, 0.1531168520450592, 0.0676310807466507, -0.03526586294174194, -0.07753077894449234, -0.21704043447971344, -0.38245120644569397, -0.4061673879623413, -0.3518452048301697, -0.27219319343566895, -0.22310468554496765, -0.2638934850692749, -0.17771406471729279, 0.00651354156434536, 0.12253806740045547, 0.12930339574813843, 0.22114768624305725, 0.0887676477432251, 0.21933594346046448, 0.24294839799404144, 0.11415982991456985, -0.061820439994335175, -0.07949048280715942, 0.02785487100481987, 0.019547423347830772, 0.03395184129476547, -0.032697923481464386, 0.020319249480962753, 0.17778225243091583, 0.20659027993679047, 0.18846695125102997, 0.02746526338160038, -0.07983485609292984, -0.1057804673910141, -0.31786048412323, -0.3912084698677063, -0.34158918261528015, -0.35898643732070923, -0.350431889295578, -0.23714058101177216, -0.0006617983453907073, 0.1890295445919037, 0.19363343715667725, 0.18011422455310822, 0.19432984292507172, 0.15632684528827667, 0.2560044229030609, 0.2874881327152252, 0.06060205399990082, -0.07944251596927643, -4.7771085519343615e-05, 0.004226159304380417, 0.009002633392810822, -0.016328368335962296, 0.005192412994801998, -0.008820843882858753, 0.20430822670459747, 0.27246302366256714, 0.3051336407661438, 0.15399757027626038, 0.0510706752538681, -0.0005268918466754258, -0.06089910864830017, -0.13652433454990387, -0.24550433456897736, -0.21889589726924896, -0.1631269007921219, -0.052228111773729324, 0.05982963740825653, 0.1504652202129364, 0.23650133609771729, 0.19975145161151886, 0.18509727716445923, 0.13321392238140106, 0.2619006633758545, 0.1361822783946991, -0.012492119334638119, -0.08556336909532547, -0.03665754199028015, -0.03980346396565437, -0.015863746404647827, 0.013054192066192627, 0.018600212410092354, 0.003191416384652257, 0.2073488086462021, 0.24948962032794952, 0.22861136496067047, 0.25701409578323364, 0.17547833919525146, 0.14449599385261536, 0.12320292741060257, -0.037579819560050964, -0.12181581556797028, -0.23031657934188843, -0.11085540056228638, 0.018351774662733078, 0.022241631522774696, 0.09183435142040253, 0.16781668365001678, 0.17142422497272491, 0.1573343276977539, 0.2216898649930954, 0.1606074571609497, 0.023929040879011154, -0.004909519571810961, -0.03636588528752327, -0.02509615570306778, -0.006582997739315033, 0.011277377605438232, 0.005959841888397932, 0.027059979736804962, 0.0056330179795622826, 0.16967734694480896, 0.19380179047584534, 0.14646077156066895, 0.14074042439460754, 0.10616142302751541, 0.10861408710479736, -0.0063875881023705006, -0.0703357383608818, -0.10977882891893387, -0.07221028953790665, -0.05824964866042137, -0.0526241697371006, 0.035184890031814575, 0.0766826793551445, 0.06137814372777939, 0.1807200014591217, 0.18501611053943634, 0.10339962691068649, -0.02571776509284973, -0.055702779442071915, -0.10252702981233597, -0.08288171887397766, -0.01564856432378292, 0.028137654066085815, 0.021306883543729782, 0.006910059601068497, 0.013955788686871529, 0.030151912942528725, 0.08984023332595825, 0.13405939936637878, 0.17372378706932068, 0.13858886063098907, 0.05737045034766197, -0.049733441323041916, 0.022016091272234917, 0.0535760261118412, 0.014351277612149715, -0.06566115468740463, -0.05640984699130058, -0.0379733107984066, 0.0033624693751335144, 0.014580604620277882, 0.09642744809389114, 0.10373296588659286, 0.10885810852050781, 0.057132866233587265, -0.031508877873420715, -0.0395219549536705, -0.02676021307706833, -0.02060636878013611, -0.010588103905320168, -0.010938754305243492, -0.005953595507889986, -0.03264351189136505, -0.005058063194155693, 0.0358654148876667, 0.04830052703619003, 0.15446427464485168, 0.16695915162563324, 0.231124147772789, 0.154211163520813, 0.06324494630098343, 0.05449074134230614, 0.054898668080568314, 0.07561434805393219, -0.04412645846605301, 0.03062857687473297, -0.029268011450767517, -0.004457805305719376, -0.045769501477479935, 0.020391039550304413, 0.10723111778497696, 0.007120148278772831, -0.04412964731454849, -0.08515501022338867, -0.0703904777765274, -0.05851057916879654, -0.042180776596069336, -0.03165539354085922, -0.0038941537495702505, -0.014151526615023613, -0.0308022890239954, -0.01802634820342064, -0.029889658093452454, 0.051704421639442444, 0.09173740446567535, 0.14997351169586182, 0.21795424818992615, 0.2563479542732239, 0.22942785918712616, 0.2270393669605255, 0.26806965470314026, 0.23309922218322754, 0.21165023744106293, 0.23041582107543945, 0.14559306204319, 0.0923452079296112, 0.08474217355251312, 0.03803843632340431, -0.042733922600746155, -0.08587515354156494, -0.07226094603538513, -0.04723580554127693, -0.03255447372794151, -0.007923630997538567, -0.01864701509475708, -0.02691717818379402, 0.005104026757180691, -0.028850914910435677, 0.028021294623613358, -0.009660398587584496, -0.019250277429819107, -0.007997115142643452, 0.02964862249791622, 0.0175028033554554, 0.10076659917831421, 0.1511833667755127, 0.23579098284244537, 0.24317795038223267, 0.29552727937698364, 0.2975975275039673, 0.34026455879211426, 0.2541871964931488, 0.1987195461988449, 0.053324609994888306, 0.03170417994260788, 0.020199911668896675, -0.003881372744217515, -0.0019119156058877707, -0.02599911019206047, 0.006155491340905428, -0.003413247875869274, -0.029318906366825104, -0.03428922966122627, 0.014279628172516823, 0.01963006518781185, -0.021918445825576782, -0.028563296422362328, -0.01932527869939804, -0.00014607980847358704, -0.022801844403147697, 0.012330506928265095, 0.008756051771342754, -0.015498467721045017, -0.004317471291869879, 0.031860895454883575, -0.0038653186056762934, 0.01809278316795826, -0.028396017849445343, -0.029398420825600624, -0.004509670659899712, -0.051291003823280334, -0.05111245438456535, 0.021236857399344444, -0.007410320453345776, -0.01475295890122652, -0.0019883320201188326, -0.032710544764995575, -0.004491719882935286, -0.008273474872112274, 0.0024632432032376528, -0.01933499611914158, 0.007196489721536636, 0.002797454595565796, -0.022608209401369095, -0.018408652395009995, 0.02233346924185753, 0.033040743321180344, 0.01920623704791069, -0.03158550336956978, 0.03350503370165825, 0.01336264330893755, -0.0032397920731455088, 0.028824154287576675, 0.02533002197742462, -0.011937443166971207, -0.011674118228256702, 0.0209062360227108, 0.01791696436703205, 0.030156640335917473, 0.003682454815134406, -0.002608345588669181, -0.00851459987461567, 0.025806086137890816, -0.027770472690463066, -0.010581130161881447, 0.011960248462855816, -0.02549244463443756, -0.018561145290732384, 0.027681466192007065, 0.0031146593391895294, -0.023162469267845154, -0.01979505643248558], [0.02217159792780876, 0.023708317428827286, -0.00102277472615242, 0.034397486597299576, 0.025851909071207047, -0.0057051219046115875, -0.0005773864686489105, 0.025750666856765747, 0.0020277835428714752, -0.025470729917287827, 0.0050070881843566895, 0.018109574913978577, 0.029571644961833954, 0.021858854219317436, -0.009654691442847252, 0.02105608768761158, -0.023912668228149414, -0.03250279277563095, -0.010309642180800438, 0.02368064969778061, -0.03345602750778198, 0.008108943700790405, -0.008268982172012329, -0.027717813849449158, -0.019961515441536903, -0.015345446765422821, 0.01535392552614212, -0.004418700933456421, 0.03331204131245613, -0.00762200728058815, -0.006514072418212891, -0.023250112310051918, -0.0056390464305877686, -0.034804899245500565, -0.03528239578008652, -0.04283824935555458, 0.0063120173290371895, -0.024492979049682617, -0.008173434063792229, -0.010731377638876438, -0.0330488495528698, 0.005753197707235813, 0.004075785167515278, -0.012885992415249348, -0.011627117171883583, 0.0010559289949014783, 0.02638942189514637, -0.013393808156251907, 0.013029264286160469, -0.03306994214653969, -0.03160577639937401, -0.007456121034920216, 0.011393632739782333, 0.029693443328142166, 0.02954014763236046, -0.010048339143395424, -0.029991231858730316, 0.0007518455386161804, -0.007012063171714544, -0.026624388992786407, -0.03011324256658554, 0.029116274788975716, -0.028924493119120598, 0.004598954692482948, -0.014066830277442932, -0.01701507903635502, -0.08500897139310837, -0.0734732374548912, -0.11573749780654907, -0.1233716830611229, -0.1061146929860115, -0.0835590586066246, -0.10109621286392212, -0.035131338983774185, -0.029477974399924278, -0.0153830386698246, -0.03769974038004875, -0.006820532027631998, 0.019958393648266792, 0.02386927418410778, -0.009594765491783619, -0.012139459140598774, -0.01229560375213623, -0.005580727010965347, 0.023742597550153732, 0.030581112951040268, -0.021354904398322105, -0.021899335086345673, -0.020162850618362427, 0.015536225400865078, 0.017148707062005997, -0.04247436672449112, -0.04359091818332672, -0.12278743833303452, -0.14259661734104156, -0.16238825023174286, -0.2380526214838028, -0.23899388313293457, -0.20953203737735748, -0.21899165213108063, -0.17519263923168182, -0.135142982006073, -0.0635763630270958, -0.0444319061934948, -0.025465399026870728, 0.026931092143058777, 0.025030171498656273, 0.0017923020059242845, 0.010316334664821625, -0.006402522791177034, -0.02583879604935646, 0.019802939146757126, -0.02057252824306488, 0.009812780655920506, 0.009381215088069439, 0.025598756968975067, -0.011858929879963398, 0.003795001655817032, -0.04180125519633293, -0.0016194430645555258, -0.08895038068294525, -0.12683063745498657, -0.158366397023201, -0.21359363198280334, -0.21921318769454956, -0.20527394115924835, -0.2663417458534241, -0.20672385394573212, -0.19400575757026672, -0.12742474675178528, -0.09051830321550369, -0.031755879521369934, 0.05790635943412781, 0.06521246582269669, 0.07351679354906082, 0.09372572600841522, 0.038716983050107956, -0.004401016049087048, 0.028368139639496803, -0.024606168270111084, -0.009118089452385902, -0.018802933394908905, 0.0003432092780712992, 0.012635961174964905, 0.012098349630832672, -0.0020074271596968174, 0.03753221780061722, 0.024503162130713463, -0.025495275855064392, -0.04553312435746193, -0.09372102469205856, -0.12142637372016907, -0.14807847142219543, -0.2066815197467804, -0.07199592888355255, -0.09795534610748291, 0.004272438120096922, -0.008088071830570698, 0.0600757971405983, 0.08207275718450546, 0.08907296508550644, 0.11728677898645401, 0.1827200949192047, 0.17170193791389465, 0.10856430232524872, 0.032429732382297516, 0.014482813887298107, 0.024191495031118393, -0.01983567327260971, -0.01666063815355301, 0.03047235682606697, -0.01373083796352148, -0.00943551491945982, 0.08283001184463501, 0.07921621948480606, 0.08097204566001892, 0.05289902165532112, 0.015158265829086304, -0.08757387101650238, -0.15240797400474548, -0.17345863580703735, -0.2748797833919525, -0.2796546518802643, -0.29260891675949097, -0.2215561866760254, -0.16112248599529266, -0.1663394272327423, -0.06610976159572601, 0.011332685127854347, 0.05370048061013222, 0.21663819253444672, 0.25943171977996826, 0.08198277652263641, 0.011726307682693005, 0.03283040598034859, 0.026451876387000084, -0.030748598277568817, -0.02943899855017662, 0.02826218493282795, -0.03305302560329437, 0.02090577594935894, 0.06735438108444214, 0.02119460143148899, 0.04050469025969505, -0.0383310541510582, -0.05612208694219589, -0.14600218832492828, -0.24045266211032867, -0.32333940267562866, -0.3065759539604187, -0.3940599858760834, -0.402860552072525, -0.41025906801223755, -0.27638277411460876, -0.19728459417819977, -0.1496087908744812, -0.10457724332809448, 0.011788006871938705, 0.17633648216724396, 0.19190554320812225, 0.07236551493406296, 0.03643038496375084, 0.02601023204624653, -0.014418278820812702, -0.0008572876686230302, -0.03169550746679306, 0.013353672809898853, -0.030623598024249077, 0.029993176460266113, 0.018414245918393135, 0.031620703637599945, -0.0022854036651551723, -0.1002638190984726, -0.04114394262433052, -0.14195463061332703, -0.13849052786827087, -0.2566368877887726, -0.2187369465827942, -0.4364357590675354, -0.4093168079853058, -0.3610179126262665, -0.1960761845111847, -0.10126500576734543, -0.07172219455242157, -0.062229566276073456, -0.029109826311469078, 0.0518474318087101, 0.06092914566397667, 0.02420019544661045, -0.02133881114423275, 0.008847120217978954, -0.0005697247688658535, -0.001984577625989914, 0.006408059969544411, 0.02124168537557125, -0.030634410679340363, -0.049518369138240814, -0.04383387789130211, -0.06056305393576622, -0.08589308708906174, -0.09121981263160706, -0.0421258807182312, -0.11299718171358109, -0.11508219689130783, -0.08403097093105316, -0.15574418008327484, -0.522658109664917, -0.3606707453727722, -0.07562705129384995, -0.05196060612797737, -0.014598156325519085, 0.0025588662829250097, -0.07690145075321198, -0.015308036468923092, -0.04213657230138779, -0.09550365805625916, -0.12398006021976471, -0.07636605948209763, -0.035016078501939774, -0.02472430095076561, 0.009415647946298122, -0.01432664692401886, 0.009486904367804527, -0.06548916548490524, -0.05039789155125618, -0.05358581617474556, -0.1343013197183609, -0.03533299267292023, -0.019491514191031456, 0.1184234693646431, 0.050077468156814575, 0.0611317940056324, 0.09816256165504456, -0.19587473571300507, -0.5664175152778625, -0.2181236892938614, 0.022825123742222786, 0.06643777340650558, -0.025727806612849236, -0.01928848586976528, -0.0867905542254448, -0.061003558337688446, -0.1279505044221878, -0.20529641211032867, -0.15998613834381104, -0.11795420199632645, -0.03088252618908882, -0.0006768787861801684, -0.02910294383764267, 0.007188668940216303, -0.04126651585102081, -0.029926463961601257, -0.06787455081939697, -0.0721207931637764, -0.021059248596429825, 0.05922450125217438, 0.11046883463859558, 0.2231670320034027, 0.2449028044939041, 0.25742170214653015, 0.23638683557510376, -0.32458260655403137, -0.5059089064598083, 0.0009019027929753065, 0.25045061111450195, 0.1251104176044464, -0.028707101941108704, -0.03157342970371246, -0.13961395621299744, -0.09136723726987839, -0.12396793812513351, -0.1926410049200058, -0.10580997169017792, -0.03472573310136795, -0.03019699640572071, -0.023567738011479378, -0.003970635589212179, 0.019368967041373253, -0.03733495995402336, -0.08403109014034271, -0.10498566180467606, -0.021621113643050194, 0.07630713284015656, 0.19144678115844727, 0.3102962374687195, 0.2505418062210083, 0.3870812952518463, 0.4577536880970001, 0.4211650490760803, -0.10312534123659134, -0.2766517102718353, 0.09634290635585785, 0.3193887174129486, 0.11022362858057022, 0.0034480225294828415, 0.045373473316431046, 0.01763431541621685, 0.056939512491226196, -0.033638983964920044, -0.07800838351249695, -0.034432120621204376, -0.027797730639576912, -0.03789826110005379, 0.016775842756032944, -0.014719575643539429, 0.020013190805912018, -0.03215061128139496, -0.04747238755226135, -0.032173771411180496, 0.1223149374127388, 0.25458237528800964, 0.2850569486618042, 0.3145340085029602, 0.268071711063385, 0.42686665058135986, 0.5662114024162292, 0.31204894185066223, -0.09316696971654892, -0.09095943719148636, 0.15582512319087982, 0.28729748725891113, 0.2525896430015564, 0.17994770407676697, 0.13598504662513733, 0.2071007490158081, 0.08901946246623993, 0.06931553781032562, -0.04807433858513832, -0.027906648814678192, -0.021963590756058693, -0.0016390655655413866, -0.011214529164135456, 0.010956306010484695, -0.018422648310661316, 0.0011082063429057598, -0.027057697996497154, 0.09444993734359741, 0.2026660442352295, 0.2569325566291809, 0.32581040263175964, 0.27448198199272156, 0.247759148478508, 0.27707913517951965, 0.36901742219924927, 0.20568065345287323, -0.10561219602823257, -0.061184704303741455, 0.12590190768241882, 0.35462653636932373, 0.3989315629005432, 0.2709665298461914, 0.3036162555217743, 0.17896509170532227, 0.05450168624520302, 0.06739462912082672, -0.024804243817925453, -0.059475306421518326, -0.022629834711551666, 0.00995513703674078, -0.030303245410323143, -0.025987867265939713, 0.02901838906109333, 0.01574709452688694, -0.01615045592188835, 0.09434104710817337, 0.14487643539905548, 0.22932279109954834, 0.3179582953453064, 0.3355371057987213, 0.25809136033058167, 0.1871146559715271, 0.20276445150375366, 0.14348140358924866, -0.039253391325473785, 0.019876893609762192, 0.26456671953201294, 0.419007807970047, 0.3538867235183716, 0.18309076130390167, 0.14632408320903778, 0.05602569133043289, -0.006013054866343737, 0.026692386716604233, -0.07605002075433731, -0.13063779473304749, -0.0387175977230072, -0.0008253147825598717, 0.005657232832163572, -0.03036346845328808, 0.02497711591422558, -0.004749308340251446, -0.04251297190785408, -0.035078391432762146, 0.021228395402431488, 0.12034951895475388, 0.2480391263961792, 0.3031148612499237, 0.20564864575862885, 0.028465865179896355, -7.395894499495625e-05, 0.036888059228658676, 0.05937342718243599, 0.2478601485490799, 0.4534398317337036, 0.3946908116340637, 0.2773784399032593, 0.18876229226589203, 0.07753901928663254, 0.07422586530447006, 0.022562025114893913, -0.06015186756849289, -0.09011191129684448, -0.11876825988292694, -0.07986526936292648, -0.05293864384293556, 0.013543693348765373, 0.01894044503569603, -0.033109601587057114, 0.032216474413871765, -0.05332516133785248, -0.0673658475279808, -0.0681939646601677, 0.030624907463788986, 0.17659464478492737, 0.2516186237335205, 0.10875479876995087, 0.002131788758561015, -0.026873871684074402, 0.08886107802391052, 0.2620316445827484, 0.39882606267929077, 0.39947760105133057, 0.298940509557724, 0.16069765388965607, 0.10704651474952698, -0.05010639876127243, 0.0004883313085883856, -0.03434315323829651, -0.08266814053058624, -0.12465359270572662, -0.11285734176635742, -0.08028358966112137, -0.003307238919660449, -0.008200067095458508, -0.03340151533484459, -0.02830120362341404, -0.008918080478906631, -0.08339136093854904, -0.06760670989751816, -0.11417102068662643, -0.07162722945213318, -0.00804794579744339, 0.0021986698266118765, -0.010301592759788036, -0.16701443493366241, -0.1105872094631195, 0.07478638738393784, 0.17786061763763428, 0.26187554001808167, 0.23750828206539154, 0.1371462345123291, -0.11115659773349762, -0.08708839118480682, -0.1163453459739685, -0.0917113795876503, -0.09525178372859955, -0.21143540740013123, -0.13798728585243225, -0.06595750153064728, -0.03841441869735718, -0.03528878092765808, 0.019530266523361206, 0.014691484160721302, -0.01719358004629612, 0.015735650435090065, -0.0007870483095757663, -0.1027136817574501, -0.08716767281293869, -0.17159365117549896, -0.22406858205795288, -0.27705255150794983, -0.29979121685028076, -0.3108149766921997, -0.22569189965724945, -0.2359084188938141, -0.08089368045330048, 0.03410347178578377, 0.03602796792984009, -0.041868265718221664, -0.1396031379699707, -0.13359126448631287, -0.14900656044483185, -0.10475174337625504, -0.09523745626211166, -0.1869889795780182, -0.16916780173778534, -0.08461654186248779, -0.014057825319468975, 0.01545865647494793, 0.026282457634806633, -0.009334765374660492, 0.0016152734169736505, -0.0029919918160885572, -0.04406842589378357, -0.06105426326394081, -0.11143815517425537, -0.19559964537620544, -0.2643541693687439, -0.3881709575653076, -0.3715694844722748, -0.37588611245155334, -0.2162705957889557, -0.19039137661457062, -0.2442687302827835, -0.08645468950271606, -0.053037311881780624, -0.017165301367640495, -0.03912984952330589, -0.125087708234787, -0.12942171096801758, -0.12005183845758438, -0.09371373802423477, -0.12261147052049637, -0.0663507804274559, -0.05147700384259224, -0.029774796217679977, 0.02452515810728073, 0.030670171603560448, 0.015018493868410587, 0.03134861961007118, 0.017704367637634277, -0.004693446680903435, -0.02201952040195465, -0.06732792407274246, -0.2217530459165573, -0.2888033986091614, -0.2540127635002136, -0.2157372534275055, -0.20150403678417206, -0.143217995762825, -0.1448652148246765, -0.2056763917207718, -0.12395358830690384, -0.017845137044787407, -0.024089233949780464, -0.0018446266185492277, -0.03153514862060547, -0.0023927532602101564, 0.03721093013882637, -0.028888098895549774, -0.03130940720438957, -0.03197900950908661, -0.009136113338172436, -0.005706966854631901, -0.02851773425936699, -0.016279349103569984, -0.004693818744271994, -0.018599722534418106, -0.03360642492771149, -0.009212260134518147, -0.05770762264728546, -0.036203134804964066, -0.12845398485660553, -0.18453069031238556, -0.15665686130523682, -0.1925634741783142, -0.11373214423656464, -0.0900307148694992, -0.10950113832950592, -0.12047358602285385, -0.09709789603948593, -0.061942651867866516, -0.051294974982738495, 0.006835774518549442, 0.04476814344525337, 0.1425066590309143, 0.10602190345525742, 0.097261942923069, -0.010176235809922218, 0.0015576547011733055, -0.006751561537384987, 0.0047459788620471954, 0.008017363026738167, -0.017997249960899353, 0.005444340407848358, -0.013581430539488792, -0.010413758456707, 0.003205907763913274, -0.02451171912252903, -0.05764887109398842, -0.026115288957953453, -0.0919627845287323, -0.056939560920000076, -0.04669263958930969, -0.03161961957812309, -0.00502993818372488, -0.0708225667476654, -0.05185947194695473, -0.03302899748086929, 0.003563821082934737, 0.02767852507531643, 0.10203950107097626, 0.17484968900680542, 0.15348361432552338, 0.15240857005119324, 0.10154121369123459, -0.02184879779815674, -0.0008593150996603072, -0.015057270415127277, -0.01313743181526661, 0.021367957815527916, 0.011161386966705322, -0.005914561450481415, 0.02461642026901245, 0.017104580998420715, -0.03651445731520653, -0.028664741665124893, -0.01323633547872305, -0.06532388180494308, -0.08028169721364975, -0.05112485960125923, 0.004420733079314232, -0.049536291509866714, -0.022705787792801857, -0.11063035577535629, -0.13094879686832428, -0.06383036822080612, -0.0724177211523056, -0.041677314788103104, -0.039449188858270645, -0.02159859612584114, 0.05549037829041481, 0.056819260120391846, 0.04579567909240723, -0.007986566983163357, 0.016485415399074554, 0.00037889889790676534, 0.027851177379488945, 0.01361205242574215, -0.0008140243589878082, 0.0032573267817497253, -0.035203881561756134, 0.024561291560530663, 0.015693504363298416, 0.02584211342036724, 0.01407016534358263, -0.05220123380422592, -0.06805895268917084, -0.1339372843503952, -0.15365061163902283, -0.14802958071231842, -0.2220253348350525, -0.26558101177215576, -0.2113347202539444, -0.19995640218257904, -0.217787504196167, -0.2302194982767105, -0.28276336193084717, -0.20768749713897705, -0.1624308079481125, -0.08541195094585419, -0.08909067511558533, 0.008251935243606567, 0.013989209197461605, 0.01353375893086195, 0.03534847870469093, -0.0021363955456763506, 0.0024100206792354584, -0.0075797997415065765, -0.00014177709817886353, -0.0025443024933338165, -0.021373877301812172, -0.028877053409814835, -0.008323182351887226, -0.017391791567206383, -0.014033232815563679, -0.09549223631620407, -0.14187926054000854, -0.12797845900058746, -0.14317354559898376, -0.18888145685195923, -0.20010067522525787, -0.2147921472787857, -0.19382339715957642, -0.16875770688056946, -0.15852771699428558, -0.11523202061653137, -0.13363008201122284, -0.03268616646528244, -0.0004430711269378662, -0.008526326157152653, -0.001741174259223044, -0.03194712847471237, 0.01146655809134245, 0.011137176305055618, 0.005355779081583023, -0.003275502473115921, -0.02498890832066536, 0.0013535544276237488, -0.014033854007720947, 0.026029564440250397, 0.017576390877366066, 0.004740718752145767, -0.018376849591732025, 0.006816631183028221, -0.004078603349626064, -0.015816858038306236, -0.015646925196051598, -0.002014090772718191, -0.044073231518268585, -0.003284838516265154, -0.019990485161542892, -0.016777798533439636, -0.04191049188375473, -0.023940622806549072, -0.005234161391854286, -0.01746859960258007, -0.003446498652920127, 0.011596010997891426, -0.01838764175772667, -0.0008369460701942444, -0.02276831865310669, -0.024259155616164207, 0.019230928272008896], [0.005283057689666748, -0.020697858184576035, -0.026170633733272552, -0.006331406533718109, 0.012654535472393036, -0.005955222994089127, -0.03551524132490158, -0.021172333508729935, 0.0011552684009075165, 0.032101791352033615, -0.034457698464393616, 0.016370564699172974, -0.013775049708783627, 0.034335944801568985, 0.027998287230730057, 0.02423601783812046, 0.021877408027648926, 0.03469608351588249, 0.02758875861763954, -0.033100396394729614, 0.01575622707605362, -0.003335479646921158, -0.0012151338160037994, -0.03251935541629791, 0.003863878548145294, 0.0334046445786953, 0.023258373141288757, -0.00013395771384239197, 0.03215736523270607, 0.015460915863513947, -0.029652239754796028, 0.013041563332080841, -0.029447907581925392, 0.0276254303753376, 0.03545445203781128, -0.03414890915155411, 0.028778916224837303, 0.009057475253939629, -0.013610419817268848, -0.02723207138478756, -0.02468460239470005, -0.000233653569011949, -0.017942147329449654, -0.021337097510695457, 0.03295318782329559, -0.013652966357767582, 0.012709063477814198, -0.01695619337260723, 0.022501057013869286, -0.0317545160651207, 0.0057134199887514114, 0.03162544593214989, 0.03456747159361839, -0.030609961599111557, 0.03139496222138405, 0.0008643977344036102, 0.021864760667085648, -0.029130885377526283, -0.03485410287976265, -0.023789504542946815, 0.02798519842326641, -0.013147525489330292, -0.009870734065771103, 0.03133063018321991, 0.011576242744922638, 0.02754208818078041, -0.014279680326581001, 0.015825068578124046, 0.004975061863660812, -0.02694747969508171, -0.029320141300559044, -0.04493498429656029, -0.025768976658582687, -0.011335313320159912, -0.021097661927342415, 0.016660822555422783, 0.0025809688959270716, 0.001416143961250782, -0.0023948552552610636, 0.002518253168091178, -0.007929407060146332, -0.01646304689347744, 0.022527527064085007, -0.024331923574209213, 0.014802694320678711, -0.0331469401717186, 0.01607527770102024, -0.019693966954946518, 0.022793522104620934, -0.010643980465829372, -0.0027034461963921785, -0.044798485934734344, -0.021189561113715172, -0.0072576929815113544, -0.04964962229132652, -0.08554733544588089, -0.048758748918771744, -0.07260860502719879, -0.04571063071489334, -0.00011507196904858574, -0.006238609552383423, 0.08042683452367783, 0.06302110850811005, 0.0665593072772026, 0.11008419096469879, 0.03166971355676651, 0.023474231362342834, -0.012174099683761597, 0.024657638743519783, -0.020811432972550392, 0.023321064189076424, 0.009091075509786606, 0.0197887122631073, -0.014854108914732933, -0.03381999582052231, 0.023729218170046806, -0.02322430908679962, -0.03718125820159912, -0.04380599409341812, -0.056134436279535294, -0.15498827397823334, -0.15252168476581573, -0.09350895881652832, -0.044354747980833054, -0.11502381414175034, -0.13867245614528656, -0.04991316795349121, 0.058819327503442764, 0.08456329256296158, 0.10915808379650116, 0.13854902982711792, 0.07581402361392975, -0.021999165415763855, 0.12387935817241669, 0.08805721998214722, 0.11389315873384476, 0.08673031628131866, 0.012187149375677109, -0.0033228304237127304, 0.021013524383306503, 0.004631809890270233, -0.0016297772526741028, 0.030457524582743645, -0.040060367435216904, -0.02459493838250637, -0.11607758700847626, -0.15315893292427063, -0.09746357053518295, -0.06478982418775558, -0.016458287835121155, 0.02845815382897854, 0.0031944066286087036, -0.009669048711657524, -0.07681623101234436, -0.08758760988712311, -0.06503085047006607, 0.03613989055156708, 0.0770048275589943, 0.12452071160078049, 0.032212402671575546, 0.09095001965761185, 0.12264017015695572, 0.1679166555404663, 0.22503876686096191, 0.19934003055095673, 0.09565416723489761, 0.02213982492685318, -0.004839071538299322, 0.010782625526189804, -0.02090057171881199, -0.003216296434402466, -0.018034156411886215, -0.07789279520511627, -0.08556399494409561, -0.09349065274000168, -0.04458970949053764, -0.0006833947263658047, 0.06566466391086578, 0.0730491504073143, 0.061726223677396774, 0.017418887466192245, 0.004990002606064081, 0.04747392237186432, -0.030572975054383278, -0.03184766694903374, 0.0065794456750154495, 0.06496138125658035, 0.10494165122509003, 0.09491151571273804, 0.10415608435869217, 0.15609008073806763, 0.27289971709251404, 0.36509275436401367, 0.18624429404735565, 0.03995702788233757, 0.027433769777417183, 0.009328074753284454, -0.0350675955414772, -0.021763218566775322, -0.07273793965578079, -0.13759535551071167, -0.1722625494003296, -0.12584011256694794, -0.02713698334991932, 0.11910939961671829, 0.09040746837854385, 0.10738500207662582, 0.14215187728405, 0.07034794241189957, -0.053311239928007126, 0.05448693409562111, -0.07949160784482956, 0.013650508597493172, 0.07912441343069077, 0.031443554908037186, 0.10001040250062943, 0.11035983264446259, 0.07187822461128235, 0.16904477775096893, 0.36264169216156006, 0.519712507724762, 0.33110594749450684, 0.08920861035585403, 0.0010989330476149917, -0.013715495355427265, -0.0013499017804861069, -0.009851979091763496, -0.08906613290309906, -0.18144173920154572, -0.1748056858778, -0.11157573014497757, -0.06048787757754326, 0.12621045112609863, 0.09289366006851196, 0.06163175031542778, 0.14678187668323517, 0.015429791063070297, -0.06353487074375153, -0.09904394298791885, -0.15386827290058136, -0.10466684401035309, -0.0639863982796669, -0.0052151549607515335, 0.05634342506527901, 0.12720119953155518, 0.13005463778972626, 0.17451535165309906, 0.47306832671165466, 0.6668028831481934, 0.47007426619529724, 0.10471497476100922, 0.00633841659873724, -0.02316189371049404, 0.006541172508150339, -0.013973331078886986, -0.0691719502210617, -0.16473567485809326, -0.12506404519081116, -0.0792679637670517, 0.021401233971118927, 0.13848000764846802, 0.08806298673152924, 0.13866473734378815, 0.2582605183124542, 0.16007250547409058, -0.017927154898643494, -0.1648532897233963, -0.2717288136482239, -0.2803044021129608, -0.1991758495569229, -0.07537432014942169, -0.08595898002386093, 0.05330735445022583, 0.16364680230617523, 0.2904835343360901, 0.49995699524879456, 0.8096874952316284, 0.533020555973053, 0.1413014531135559, 0.03965954855084419, 0.02384519763290882, 0.010203203186392784, -0.03195986896753311, -0.0141306696459651, -0.09417423605918884, -0.08679376542568207, 0.010551836341619492, 0.1363447606563568, 0.19538655877113342, 0.2613462805747986, 0.2609226703643799, 0.2544137239456177, 0.29585936665534973, 0.1867063343524933, 0.06895669549703598, -0.10224833339452744, -0.1971011608839035, -0.2631082236766815, -0.265419065952301, -0.1832757443189621, -0.13175396621227264, -0.01680002361536026, 0.0856974795460701, 0.3398638069629669, 0.6318902969360352, 0.5284144878387451, 0.1380307674407959, 0.002267043339088559, -0.019128043204545975, 0.0013596988283097744, -0.022123457863926888, -0.0774906575679779, -0.01994991861283779, 0.02502201870083809, 0.10481467843055725, 0.15699195861816406, 0.1707899421453476, 0.13701775670051575, 0.15032123029232025, 0.21131055057048798, 0.2839406430721283, 0.3243328928947449, 0.12462880462408066, -0.09397541731595993, -0.12746284902095795, -0.19507329165935516, -0.2215806543827057, -0.3728080987930298, -0.4427209198474884, -0.3768840432167053, -0.34978047013282776, -0.13327275216579437, 0.13894867897033691, 0.2584960460662842, 0.038198672235012054, 0.018858950585126877, 0.0062252227216959, 0.019953949376940727, 0.012319300323724747, -0.03286433219909668, 0.0263233445584774, 0.06770677864551544, 0.14323416352272034, 0.1538437306880951, 0.06477013230323792, 0.008311538957059383, 0.16682854294776917, 0.27485889196395874, 0.3348752558231354, 0.30578887462615967, 0.016497662290930748, -0.1148674339056015, -0.29189828038215637, -0.2905130386352539, -0.21259285509586334, -0.2875547409057617, -0.3802487850189209, -0.5055416822433472, -0.5600627064704895, -0.4431372880935669, -0.24551673233509064, 0.03908468410372734, -0.005073520354926586, -0.015141087584197521, 0.02085721306502819, -0.027028853073716164, 0.01348266750574112, 0.028595715761184692, -0.00995340384542942, 0.04427126422524452, 0.04771554470062256, 0.11710721999406815, 0.06571730971336365, 0.10631456226110458, 0.22050689160823822, 0.3008832335472107, 0.2852175533771515, 0.20672078430652618, -0.033414363861083984, -0.22285012900829315, -0.35512301325798035, -0.23404930531978607, -0.13461053371429443, -0.07064391672611237, -0.14542807638645172, -0.2622371315956116, -0.3460077941417694, -0.3978355824947357, -0.21901603043079376, -0.027167530730366707, -0.011312616057693958, -0.004143700934946537, -0.0010264156153425574, 0.02634948305785656, 0.0033645364455878735, -0.0005366148543544114, -0.021311942487955093, 0.005617424845695496, -0.001149856369011104, 0.008238941431045532, 0.04754652455449104, 0.18131685256958008, 0.26085972785949707, 0.10718835890293121, 0.152729332447052, 0.06702297180891037, -0.04289301112294197, -0.19908486306667328, -0.21955999732017517, -0.2110230028629303, -0.1416543573141098, -0.11452128738164902, -0.06132360175251961, -0.10624319314956665, -0.09627862274646759, -0.14949998259544373, -0.10934436321258545, -0.07805727422237396, 0.003960934933274984, 0.013094144873321056, -0.018506139516830444, -0.009291139431297779, -0.01710265316069126, -0.003953654784709215, -0.01440807618200779, -0.1350231021642685, -0.1331031173467636, -0.13299521803855896, -0.011868543922901154, 0.1132696121931076, 0.10968384146690369, 0.12098988145589828, 0.08795894682407379, -0.05003516748547554, -0.23162737488746643, -0.24134404957294464, -0.21765786409378052, -0.15183456242084503, 0.044962067157030106, -0.0766720399260521, -0.03525232523679733, -0.05078287422657013, -0.043357912451028824, -0.06974474340677261, -0.026033595204353333, -0.06864255666732788, 0.019574763253331184, 0.0021602523047477007, 0.010872566141188145, 0.008718902245163918, -0.008614011108875275, 0.019079891964793205, -0.04067666828632355, -0.08618967235088348, -0.16052792966365814, -0.2796439528465271, -0.2748311460018158, -0.2229064404964447, -0.1156650111079216, -0.11103472858667374, -0.07425610721111298, -0.11778675764799118, -0.21400611102581024, -0.15096008777618408, -0.17950236797332764, -0.07199692726135254, -0.037761252373456955, 0.001500507234595716, 0.03151075914502144, -0.0035081857349723577, 0.02008247561752796, 0.016042953357100487, -0.019421366974711418, -0.021616173908114433, -0.048351261764764786, 0.029655715450644493, 0.03292692080140114, 0.01810883730649948, -0.03597771003842354, 0.02770191617310047, 0.03286915272474289, 0.04939359426498413, 0.17410454154014587, -0.1413544863462448, -0.2642662823200226, -0.2791016399860382, -0.302004873752594, -0.23681257665157318, -0.28841760754585266, -0.3318049907684326, -0.2534087598323822, -0.11514771729707718, -0.02229100465774536, 0.044187918305397034, 0.07574433088302612, 0.030613398179411888, 0.09441719204187393, 0.06076236814260483, 0.0054840222001075745, 0.08829525113105774, 0.082693912088871, -0.00465047312900424, -0.03702355921268463, -0.01613360084593296, 0.01408944372087717, -0.03571297228336334, -0.0352216400206089, 0.00257052737288177, 0.07663226872682571, 0.1779126077890396, 0.3418973982334137, 0.1450766623020172, -0.033964332193136215, -0.14264728128910065, -0.1690879762172699, -0.1772809475660324, -0.1792566329240799, -0.041027676314115524, -0.014020716771483421, -0.01907179318368435, 0.018262498080730438, 0.050255440175533295, 0.04942626133561134, 0.0375327467918396, 0.06900673359632492, 0.018177855759859085, 0.06334491074085236, 0.08610334247350693, 0.08290097117424011, -0.04816071316599846, 0.0027369398158043623, -0.02920665219426155, -0.02330721728503704, -0.008435826748609543, -0.010263503529131413, -0.015014122240245342, 0.08226408064365387, 0.1449093073606491, 0.31841519474983215, 0.22846275568008423, 0.24695222079753876, 0.07370715588331223, 0.04661267623305321, 0.08146543055772781, 0.06349734216928482, 0.07856127619743347, 0.043656088411808014, 0.03379456698894501, -0.026131393387913704, 0.004413077142089605, 0.05030446872115135, 0.0631561130285263, 0.09884404391050339, 0.0760548934340477, 0.08902119845151901, 0.11359784007072449, 0.05972045287489891, -0.010066836141049862, -0.04233193024992943, -0.003650908125564456, -0.006482426077127457, -0.022010434418916702, -0.02917097508907318, 0.030333261936903, 0.048618316650390625, 0.16067738831043243, 0.1987541764974594, 0.11823412030935287, 0.23226462304592133, 0.21619321405887604, 0.10169526934623718, 0.1377185434103012, 0.05838444083929062, 0.06762002408504486, -0.0452096126973629, -0.01767939329147339, 0.033976148813962936, 0.10181982815265656, 0.037902601063251495, 0.07338277250528336, 0.030740953981876373, 0.06971893459558487, 0.1865716427564621, 0.12473297119140625, 0.0628269836306572, 0.024571973830461502, -0.001319867791607976, 0.0038392413407564163, 0.028306934982538223, 0.010556545108556747, -0.03172272816300392, -0.025291791185736656, 0.04053647443652153, 0.04446985200047493, 0.0990731418132782, 0.12200818210840225, 0.15991531312465668, 0.1451745182275772, 0.08354482054710388, 0.11223450303077698, 0.12193667143583298, 0.030981341376900673, 0.0898938775062561, 0.040174201130867004, 0.06730739027261734, 0.032645612955093384, -0.00586944492533803, -5.261736805550754e-05, 0.09600742161273956, 0.19690988957881927, 0.20234307646751404, 0.08072809129953384, 0.0463905893266201, 0.03627914562821388, -0.010610233061015606, -0.014298743568360806, 0.025107545778155327, 0.022961314767599106, -0.023364253342151642, 0.004403677769005299, 0.04826986789703369, -0.024570023640990257, -0.05727984011173248, 0.015127252787351608, 0.03469713404774666, 0.08632370829582214, -0.009011373855173588, 0.11170872300863266, 0.12833479046821594, 0.16797591745853424, 0.1198335736989975, 0.04692834988236427, 0.11068261414766312, 0.02274918369948864, 0.10186435282230377, 0.08137435466051102, 0.1017630323767662, 0.0901486799120903, 0.09978609532117844, 0.10514712333679199, 0.06394410878419876, -0.01566901057958603, 0.01844635233283043, -0.016361569985747337, 0.02829507365822792, -0.012073241174221039, 0.03296705707907677, 0.01651393063366413, 0.0417451336979866, 0.050460346043109894, -0.003427913412451744, -0.0754605308175087, 0.08121857792139053, 0.10994337499141693, 0.1603693813085556, 0.09988252818584442, 0.14117629826068878, 0.0680919736623764, 0.0839698538184166, 0.07519247382879257, 0.11283951252698898, 0.03681829944252968, -0.05601751431822777, 0.02083076722919941, 0.07368656247854233, 0.007210183423012495, 0.04383457452058792, 0.028528671711683273, 0.025876829400658607, 