{"linear.weight": [[-0.010693622753024101, 0.010294969193637371, -0.010563860647380352, -0.009582538157701492, 0.0058890581130981445, 0.01080403570085764, 0.014858701266348362, -0.016804441809654236, 0.014349916949868202, 0.012349198572337627, 0.008483446203172207, -0.017892099916934967, -0.010229253210127354, 0.004369406495243311, -0.01896859146654606, 0.012173597700893879, -0.005613288376480341, -0.021588416770100594, -0.015360137447714806, -0.00647861510515213, 0.0009987781522795558, 0.003062800271436572, 0.0015621818602085114, 0.004301459528505802, -0.01289726048707962, -0.0136393578723073, -0.018607789650559425, 0.0009314037160947919, 0.005897194147109985, -0.00693112425506115, -0.01366873737424612, 0.006723084487020969, -0.0085387472063303, 0.0019140067743137479, 0.01353306695818901, 0.004752247594296932, -0.0158807672560215, 0.007098881062120199, -0.009255383163690567, -0.008729521185159683, -0.006924370303750038, -0.006742130033671856, -0.016645999625325203, -0.00656263018026948, -0.009641265496611595, -0.017138322815299034, 0.0025182003155350685, -0.004274892155081034, -0.0010219111572951078, -0.01849246583878994, -0.007177502382546663, -0.02219083346426487, -0.009461915120482445, -0.003676233347505331, -0.020197391510009766, 0.00915285013616085, 0.010619367472827435, -0.01129553560167551, -0.0032743660267442465, -0.00011304650251986459, 0.01119975931942463, 0.00323037919588387, -0.014129715040326118, -0.007955368608236313, 0.006232187617570162, -0.01555922906845808, -0.0147042041644454, 0.0028095832094550133, -0.019947564229369164, 0.011399524286389351, -0.009477255865931511, 0.012919075787067413, 0.010644322261214256, -0.004415754694491625, -0.018445059657096863, -0.017807260155677795, 0.012565298937261105, -0.007168706972151995, -0.020520688965916634, -0.0008711009286344051, -0.0027438809629529715, -0.010416124947369099, -0.012152609415352345, 0.006789935287088156, 0.007967974059283733, -0.00910467840731144, -0.017608467489480972, 0.01052511390298605, -0.010209518484771252, 0.0016195453936234117, -0.020047252997756004, -0.00941117387264967, -0.01328127458691597, -0.01245671883225441, -0.005322825163602829, 0.012724568136036396, -0.015400093980133533, -0.009694725275039673, 0.002745254198089242, -0.014318152330815792, -0.017683664336800575, -0.006115713622421026, 0.0020478456281125546, 0.013762417249381542, -0.011063420213758945, -0.016652563586831093, 0.003270290559157729, 0.002317864680662751, -0.018472645431756973, -0.007761040236800909, 0.008244265802204609, -0.018130967393517494, -0.019092610105872154, -0.010252614505589008, -0.012763090431690216, 0.008691874332726002, 0.0046208929270505905, 0.007530716713517904, 0.0013467934913933277, 0.011693712323904037, -0.009227984584867954, 0.0032202426809817553, -0.02013765089213848, -0.003124512964859605, -0.0184888057410717, -0.018615365028381348, 0.002448529936373234, -0.018091494217514992, 0.0020605877507478, 0.002449238672852516, -0.0006015681428834796, -0.00923130102455616, -0.002878816332668066, -0.017737146466970444, -0.014732154086232185, -0.020339958369731903, -0.007170270197093487, -0.01752842590212822, -0.0015013194642961025, -0.02142181061208248, 0.00024307664716616273, 0.009941622614860535, -0.00024393566127400845, 0.011079267598688602, -0.005595660302788019, -0.013949676416814327, -0.01207475084811449, 0.0020886778365820646, -0.0028485639486461878, 0.006429024040699005, 0.008753363974392414, -0.02040424570441246, 0.0016538402996957302, -0.019942766055464745, -0.00932364072650671, -0.020075315609574318, 0.00042446955922059715, -0.014170443639159203, -0.006782499607652426, 0.008614045567810535, -0.011620240285992622, -0.007254403550177813, 0.005294783506542444, -0.00564961414784193, -0.002184397540986538, 0.00989348255097866, -0.004277531988918781, -0.014275206252932549, 0.006064477376639843, -0.006119327619671822, -0.01119221281260252, 0.0019952598959207535, -0.0046112556010484695, 0.004022233188152313, 0.004250220954418182, 0.004859418608248234, 0.008611403405666351, -0.016748923808336258, -0.010297744534909725, -0.019111482426524162, -0.013192667625844479, -0.001956247491762042, 0.002276039682328701, 0.0021154407877475023, 0.0014456959906965494, 0.001809989451430738, 0.010228408500552177, -0.01616262085735798, 0.007642523851245642, -0.014210453256964684, 0.0031465687789022923, -0.008194777183234692, 0.0010744669707491994, -0.00656298641115427, -0.001923245843499899, -0.0005192243261262774, -0.004317826125770807, -0.008782879449427128, 0.002247922122478485, 0.008242008276283741, -0.017992375418543816, -0.01620185375213623, -0.006734209135174751, 0.0005617703427560627, -0.005248780827969313, -0.003986992873251438, -0.010649151168763638, -0.013174441643059254, -0.007015530951321125, -0.018581891432404518, -0.006873522885143757, -0.008983236737549305, -0.02048949897289276, 0.009484035894274712, -0.011633167043328285, -0.008727774024009705, 0.010463260114192963, -0.021712450310587883, 0.002933561336249113, -0.0017085046274587512, 0.009916646406054497, -0.014583644457161427, -0.0030282342340797186, 0.012770034372806549, -0.01736477017402649, -0.013927496038377285, 0.009029771201312542, 0.0024924392346292734, -0.0040825000032782555, -0.0010183979757130146, 0.005676348228007555, -0.014603630639612675, 0.007365104276686907, -0.011727576144039631, -0.0077518499456346035, -0.011005482636392117, -0.00797257013618946, -0.0019763419404625893, -0.0021834776271134615, -0.015962406992912292, -0.0028493129648268223, -0.007239359896630049, 0.00576285133138299, 0.002227524993941188, -0.00456673838198185, -0.013268888927996159, 0.011734887957572937, -0.01799599453806877, 0.008771409280598164, 0.0006918704602867365, -0.003723968518897891, -0.017884107306599617, -0.0215569157153368, -0.013758493587374687, 0.0033133469987660646, 0.010965618304908276, 0.015450757928192616, -0.012979470193386078, -0.008227712474763393, -0.01167511660605669, -0.008427144959568977, 0.00042175076669082046, -0.021363941952586174, -0.019533004611730576, -0.006672823801636696, -0.0009058326832018793, -0.00551065057516098, -0.02022663690149784, -0.013007090426981449, -0.0008035918581299484, -0.024228477850556374, 0.00919328536838293, 0.0006757740629836917, -0.01990162394940853, 0.000538357300683856, 0.009490491822361946, -0.01772567629814148, 0.012358813546597958, -0.0033564353361725807, 0.0037198523059487343, -0.021123768761754036, 0.007632990833371878, 0.002614998258650303, 0.009167359210550785, 0.0018358695087954402, -0.0212324820458889, 0.0005126613541506231, 0.011139883659780025, -0.01546123530715704, -0.02126131020486355, 0.004427572246640921, 0.005084991920739412, -0.021886475384235382, -0.0006787599413655698, -0.003951371647417545, 0.007998239248991013, -0.007717909291386604, 0.009699475951492786, 0.002797322580590844, 0.0017921794205904007, 0.0012417826801538467, 0.0004195164074189961, -0.011733896099030972, 0.0023986883461475372, -0.01420142874121666, 0.005562357604503632, -0.023689555004239082, -0.007355830166488886, -0.015006916597485542, -0.02274431101977825, 0.007081741467118263, 0.011670372448861599, 5.295045775710605e-05, 0.0014483800623565912, 0.006290258374065161, -0.0019461159827187657, 0.0029538555536419153, 0.0012006595497950912, -0.01401367224752903, -0.014097505249083042, -0.000968551728874445, -0.012502133846282959, -0.018822213634848595, 0.011580022051930428, 0.0105332275852561, 0.0030233676079660654, -0.004765560384839773, 0.0034537825267761946, 0.009924722835421562, 0.000988723593764007, 0.006270227488130331, -0.011706814169883728, 0.0003905645862687379, -0.010646763257682323, 0.0027929707430303097, -0.002333245938643813, -0.017301755025982857, -0.019732056185603142, -0.02095029316842556, -0.017026731744408607, -0.02093815617263317, 0.006862297188490629, -0.001868151011876762, -0.010619645938277245, -0.003849377389997244, 0.003282767254859209, 0.001503137405961752, -0.012132246047258377, -0.020212572067975998, -0.02011077292263508, 0.009683665819466114, 0.008402117528021336, -0.016169054433703423, 0.008492063730955124, 0.010060601867735386, 0.002419794676825404, -0.01491718739271164, 0.0050082216039299965, 0.0004987981519661844, -0.009405459277331829, -0.003512967610731721, 0.010206763632595539, -0.014267428778111935, -0.0111518744379282, 0.005106426775455475, -0.01827501505613327, -0.009231340140104294, 0.007392403203994036, -0.016581488773226738, -0.007672499865293503, -0.0004910671850666404, -0.018675973638892174, -0.01260793674737215, -0.0060754562728106976, 0.01447345968335867, -0.009579922072589397, 0.0028831916861236095, -0.019397560507059097, -0.011070329695940018, -0.0025577181950211525, 0.012719674035906792, 0.008713035844266415, -0.00935337319970131, 0.017289774492383003, -0.00891837663948536, -0.0087323859333992, 0.008412403054535389, 0.001278409268707037, 0.008312521502375603, -0.005803004838526249, -0.013958843424916267, 0.007726927753537893, 0.0019979560747742653, 0.000669958651997149, -0.002313676057383418, -0.013114933855831623, -0.018082380294799805, -0.010550979524850845, 0.0009618247859179974, 0.008328958414494991, -0.008373575285077095, -0.015008834190666676, -0.007077994756400585, -0.01709749922156334, 0.013040619902312756, 0.008022739551961422, 0.00905556045472622, -0.008963807485997677, 0.012249646708369255, -0.00635491032153368, 0.008579106070101261, 0.012331230565905571, -0.009051359258592129, 0.0019781123846769333, -0.004273405764251947, -0.015014887787401676, -0.013309772126376629, 0.013049802742898464, -0.017228292301297188, -0.0002377861674176529, -0.003806027816608548, 0.012954027391970158, -0.008260891772806644, 0.0008610146469436586, -0.0010165487183257937, -0.0032956060022115707, -0.0003118954773526639, -0.01568480208516121, -0.004849802237004042, -0.02372116409242153, -0.008473822847008705, 0.004152700304985046, 0.012412836775183678, -0.0016287424368783832, -0.0038958669174462557, 0.009784161113202572, -0.01178730558604002, -0.015192984603345394, 0.014747525565326214, -0.002094800118356943, -0.014215786941349506, -0.014527167193591595, 0.009299085475504398, 0.01631215587258339, 0.013493713922798634, 0.0032834785524755716, 0.00550076924264431, -0.007103037089109421, -0.012438814155757427, -0.017595183104276657, -0.012441889382898808, 0.019085422158241272, -0.01519682351499796, 0.0008416040800511837, -0.003299158997833729, 0.017190242186188698, -0.013901809230446815, 0.007100324146449566, -0.0112965889275074, -0.015543650835752487, 0.00035726031637750566, -0.0009983867639675736, -0.02087976038455963, -0.0216099563986063, -0.01358815748244524, 0.01537830475717783, -0.0022153386380523443, 0.001713785226456821, -0.0038964017294347286, -0.01653943955898285, -0.0022019189782440662, 0.010623677633702755, 0.005178720690310001, -0.010886765085160732, -0.00942959077656269, -0.0068491785787045956, 0.011490958742797375, 0.012512021698057652, 0.006999642122536898, -0.015071628615260124, -0.004497101064771414, -0.008844565600156784, 0.006426871754229069, 0.009922287426888943, -0.005307841580361128, 0.007934775203466415, -0.0072255306877195835, -0.009655916132032871, 0.007622779347002506, -0.010118775069713593, -0.014933408237993717, -0.006173101253807545, -0.012980097904801369, -0.0029122207779437304, 0.010162406601011753, -0.007430988363921642, -0.005285700783133507, -0.007497680839151144, 0.0030483428854495287, 0.01634393259882927, 0.0050341724418103695, 0.007425317540764809, -0.004801476839929819, 0.0002789925201795995, -0.01651029847562313, -0.0022915222216397524, -0.009007316082715988, 0.007305617444217205, -0.014252197928726673, 0.009766892530024052, -0.00793936476111412, -0.0002368230780120939, -0.004724734928458929, -0.0037284772843122482, 0.011092975735664368, -0.006567560601979494, 0.011619019322097301, -0.012832246720790863, 0.004885541740804911, -0.010876473970711231, 0.009226118214428425, -0.007852891460061073, -0.00989535078406334, -0.009379618801176548, 0.00557691091671586, -0.019596433266997337, -0.018711237236857414, 0.00037115270970389247, -0.022129127755761147, 0.0005788365961052477, 0.005706709809601307, -0.014405135065317154, -0.011632798239588737, -0.011679173447191715, -0.017023462802171707, -0.011614843271672726, 0.004083981271833181, 0.014517552219331264, 0.0011551048373803496, 0.009220356121659279, -0.002198402537032962, 0.017186550423502922, 0.010998803190886974, -0.0018356185173615813, -0.003624476958066225, -0.0068077342584729195, -0.005917135626077652, 0.00935071799904108, 0.018193501979112625, -0.005557368975132704, 0.013473249971866608, 0.0069725848734378815, 0.012246361002326012, -0.01190296933054924, 0.0012195983435958624, -0.004717151168733835, -0.016929924488067627, 0.004835757426917553, -0.02414817363023758, -0.010596082545816898, -0.023377880454063416, -0.016260934993624687, 0.004032928962260485, 0.008860904723405838, 0.007224757689982653, -0.014258799143135548, 0.0014851194573566318, 0.007252341136336327, -0.012817894108593464, -0.004132580477744341, -0.008634889498353004, -0.005471166223287582, 0.009265863336622715, -0.011153360828757286, -0.017043624073266983, -0.0013923161895945668, 0.011052214540541172, -0.007266297936439514, 0.017186809331178665, -0.012369762174785137, 0.0004302799061406404, 0.00497689051553607, 0.015232407487928867, -0.0005738892941735685, -0.006348141469061375, -0.021625302731990814, 0.0015419779811054468, -0.014899607747793198, 0.007320835720747709, -0.01616988517343998, 0.005342336371541023, 0.003271301044151187, -0.004476455040276051, -0.028746357187628746, -0.021781861782073975, -0.012655345723032951, 0.0021361319813877344, -0.002959259320050478, -0.01038523018360138, 0.009366112761199474, -0.01031422521919012, -0.0030802448745816946, -0.011364241130650043, -0.0004772553511429578, -0.013536329381167889, 0.0008340409258380532, -0.01723463088274002, -0.0056012398563325405, 0.0005124254385009408, -0.017492590472102165, -0.006093685049563646, 0.009826313704252243, 0.008038456551730633, -0.015493336133658886, 0.0023231361992657185, -0.011768264696002007, -0.006467572413384914, -0.017276529222726822, -0.01685941405594349, -0.011217350140213966, -0.0007010087138041854, -0.007141176611185074, -0.015374517068266869, -0.015562420710921288, -0.004876208957284689, -0.020756758749485016, 0.0026643958408385515, -0.025646166875958443, 0.0010701643768697977, 0.0013106819242238998, -0.0118040069937706, 0.0020289598032832146, 0.008658349514007568, 0.009108475409448147, 0.011960141360759735, 0.007232330273836851, -0.010373813100159168, 0.0026796888560056686, -0.0034578796476125717, -0.008517900481820107, -0.021778961643576622, -0.004938693251460791, -0.01280901487916708, -0.006623693276196718, 0.004326780326664448, 0.014968836680054665, 0.005294064525514841, -0.004715988878160715, 0.009283007122576237, -0.005093470215797424, -0.005765976849943399, -0.011490467004477978, -0.023035505786538124, -0.005071443971246481, -0.017358023673295975, -0.006573600694537163, -0.03191562741994858, -0.028420301154255867, -0.022316845133900642, -0.0013917277101427317, 0.0027228728868067265, -0.023153116926550865, -0.005196393467485905, 0.0013639489188790321, -0.01261976920068264, -0.01035796944051981, -0.005958886351436377, 0.015156140550971031, 0.015626441687345505, 0.002143709920346737, -0.0031566445250064135, -0.006515868008136749, 0.011473560705780983, 0.007838099263608456, 0.015363144688308239, 0.017721084877848625, 0.010420750826597214, 0.013680937699973583, 0.007062134332954884, 0.0035267765633761883, -0.014259349554777145, 0.00357074080966413, -0.020132318139076233, 0.009084929712116718, -0.011131412349641323, 0.0009402997675351799, -0.009635644033551216, -0.026287415996193886, -0.03118393011391163, -0.0034327059984207153, -0.02489185705780983, -0.010288852266967297, -0.01114892028272152, -0.022031014785170555, -0.0030616873409599066, 0.007740715052932501, -0.0066649639047682285, -0.008757069706916809, 0.005466155707836151, 0.017145073041319847, 0.0036724875681102276, -0.007462442386895418, -0.019162634387612343, -0.004519776441156864, 0.01055887807160616, -0.018201762810349464, 0.01510185282677412, -0.009318660013377666, 0.007765502668917179, 0.016451839357614517, 0.003925292752683163, -0.013725556433200836, -0.004568637348711491, -0.007388838101178408, -0.0054990993812680244, 0.006242333445698023, -0.017285354435443878, -0.011695104651153088, -0.012408849783241749, -0.01599179208278656, -0.0002031860640272498, 0.0006454839603975415, 0.002437193412333727, -0.0034330193884670734, 0.0021061848383396864, -0.022258147597312927, -0.01190368551760912, -0.016183771193027496, -0.002121104160323739, -0.00991439912468195, 0.002452561631798744, -0.0004989751032553613, -0.014358737505972385, -0.0022807156201452017, 0.012241167016327381, -0.0010068434057757258, 0.00012035516556352377, -0.006801297888159752, 0.0055764163844287395, -0.010246246121823788, -0.010943511500954628, 0.013490202836692333, 0.011134747415781021, -0.01711069419980049, -0.020343713462352753, 0.003913437016308308, -0.009015779010951519, -0.0027868400793522596, 0.003005795180797577, -0.02103208750486374, 0.0009714796906337142, -0.017940327525138855, -0.018440306186676025, -0.0010315488325431943, -0.004392521921545267, -0.019116012379527092, -0.019099432975053787, -0.021512266248464584, -0.016109870746731758, -0.017642617225646973, -0.01166561245918274, 0.00878327339887619, 0.010564264841377735, 0.01715789921581745, 0.006945339497178793, -0.00971514917910099, 0.009485731832683086, -0.002818434964865446, 0.010455498471856117, -0.008555249311029911, -0.007960074581205845, 0.014490686357021332, 0.011203517206013203, 0.009415517561137676, -0.0096360445022583, -0.00886654295027256, -0.017581598833203316, 0.012386966496706009, -0.013737605884671211, -0.016758006066083908, -0.013896418735384941, -0.02243320271372795, -0.002171267056837678, -0.005656511057168245, 0.003374375868588686, -0.0046071941033005714, 0.0022273932117968798, -0.012431561015546322, -0.01579933427274227, 0.00029961869586259127, -0.011628251522779465, 0.013455324806272984, -0.01038988959044218, -0.013595404103398323, 0.007448255084455013, -0.006945861503481865, 0.006356957368552685, 0.015493998304009438, -0.010832829400897026, -0.0011310225818306208, -0.022620942443609238, -0.0008989190100692213, 0.00829059723764658, 0.0048174732364714146, 0.0023710550740361214, 0.014502833597362041, 0.0065201399847865105, -0.002069653943181038, -0.016139719635248184, -0.009680323302745819, -0.008982675150036812, -0.003597893752157688, -0.006685703061521053, 0.0072494857013225555, 0.012174123898148537, -0.019145719707012177, -0.0011515604564920068, 0.001286168466322124, 0.0005478766397573054, -0.014380109496414661, -0.0038774742279201746, 3.9471884520025924e-05, 0.00893157348036766, -0.0030372259207069874, 0.015482570044696331, 0.007941392250359058, -0.006929183844476938, 0.01692904904484749, 0.013442274183034897, -0.003876387607306242, -0.0023526293225586414, 0.00954112596809864, -0.007654509041458368, 0.009451371617615223, -0.015780718997120857, -0.01086350716650486, -0.0015255678445100784, 0.0025715124793350697, -0.0035606813617050648, 0.0010064534144476056, -0.009731778874993324, 0.015589367598295212, 0.014475297182798386, -0.009096645750105381, -0.01865755394101143, -0.008200325071811676, 0.01058785617351532, 0.009247275069355965, -0.006530734244734049, 0.0008711895789019763, -0.02203025296330452, -0.018604464828968048, -0.006039458326995373, 0.007378622889518738, 0.008036389015614986, 0.0018525405321270227, 0.015630993992090225, -0.016136333346366882, 0.0025466568768024445, -0.00313194771297276, -0.0008901739493012428, -0.011572985909879208, -0.018779512494802475, 0.004228383768349886, -0.007549161557108164, -0.019281037151813507, -0.01658027432858944, 0.014428445138037205, -0.010652763769030571, 0.009707332588732243, 0.012413225136697292, -0.0077149393036961555, 0.01413758285343647, -0.014880954287946224, -0.015643322840332985, 0.004848980810493231, 0.001137573504820466, 0.01197090558707714, 0.014082899317145348, 0.012650134973227978, -0.014755104668438435, -0.01352657750248909, -0.016712164506316185, -0.004704537335783243, -0.005430359859019518, 0.005051406566053629, 0.014512668363749981, -0.0183720625936985, -0.006523355841636658, 0.0001122182366088964, -0.005582243669778109, 0.017181381583213806, 0.005933735519647598, -0.014571434818208218, -0.007017453201115131, 0.0064559136517345905, 0.002241239883005619, 0.003757599974051118, 0.00837656669318676, 0.001269826083444059, 0.0027547276113182306, -0.012548381462693214, 0.008191730827093124, 0.014068006537854671, 0.007363166660070419, 0.012536522932350636, 0.007278584875166416, 0.014563255943357944, -0.007940790615975857, 0.01855812780559063, 0.014933444559574127, -0.0050854249857366085, -0.011563713662326336, -0.0038079144433140755, 0.0063144308514893055, -0.0064982641488313675, -0.01173065323382616, -0.01042925100773573, -0.017179058864712715, -0.013204468414187431, 0.015691423788666725, -0.006507072597742081, 0.004383487161248922, 0.009356500580906868, -0.021118754521012306, 0.012469010427594185, 0.0037635094486176968, 0.0026047287974506617, -0.009398626163601875, -0.016340143978595734, -0.01372150145471096, 0.006329858209937811, 0.016405265778303146, 0.006838374771177769, -0.0064607406966388226, 0.00605133967474103, 0.007186322472989559, -0.0031221562530845404, 0.017331477254629135, -0.012443115934729576, -0.01466972567141056, 0.01214571762830019, -0.003740641288459301, -0.0018773045158013701, -0.008621584624052048, -0.008202387019991875, -0.010567964054644108, -0.013509026728570461, 0.012401401996612549, 0.006147512700408697, -0.00033644403447397053, 0.015336382202804089, -0.012634566985070705, -0.008452762849628925, -0.002428339794278145, 0.0019908067770302296, 0.00610577967017889, 0.010589251294732094, -0.019801488146185875, -0.017019713297486305, 0.0037994347512722015, -0.00503692589700222, 0.0044304439797997475, -0.005344446282833815, -0.007238559424877167, -0.004109323024749756, -0.013402920216321945, 0.0029377725441008806, -0.014576476998627186, 0.0030130036175251007, 0.005130403209477663, 0.007509839721024036, -0.013190122321248055, -0.0141687523573637, 0.010869156569242477, 0.018833251670002937, 0.01772008277475834, 0.009640520438551903, -0.004796587862074375, 0.010660408064723015, -0.012914085760712624, -0.014714149758219719, 0.005140155088156462, -0.0005561318248510361, -0.005753165576606989, -0.009010101668536663, -0.008551843464374542, -0.015063859522342682, -0.016916604712605476, 0.0032551658805459738, 0.004475280176848173, 0.0033794580958783627, -0.0009744929848238826, 0.001688143820501864, 0.010158823803067207, 0.008898572064936161, -0.00732472212985158, -0.01478985883295536, -0.012121753767132759, 0.01053327415138483, -0.004560685250908136, 0.010301562957465649, -0.009400544688105583, -0.019046859815716743, 0.0017755095614120364, -0.0017486066790297627, -0.010898633860051632, 0.015373890288174152, 0.01119993906468153, -0.01147845946252346, 0.015620827674865723, 0.008049598895013332, 0.002020349958911538, -0.005709152203053236, -0.0008580245194025338, 0.008093155920505524, -0.0010741986334323883, -0.01083824411034584, -0.015375856310129166, 0.01239771954715252, 0.0023204213939607143, -0.007534573785960674, -0.01913459040224552, -0.013924035243690014, -0.010087485425174236, -0.012289443984627724, -0.004321451298892498, -0.002896089805290103, 0.017423225566744804, 0.00893449317663908, -0.013120676390826702, -0.00902430061250925, -0.015919726341962814, -0.005251597613096237, 0.008302341215312481, 0.009122549556195736, -0.0013768391218036413, 0.004885334987193346, -0.01606748066842556, -0.00944011565297842, -0.008196200244128704, -0.011671890504658222, -0.01751873642206192, -0.005982790142297745, 0.00513033801689744, -0.012151586823165417, 0.008942046202719212, 0.006171915680170059, 0.003650361206382513, -0.0007315006805583835, -0.005683338735252619, -0.0041381847113370895, -0.0038685170002281666, 0.008261941373348236, -0.015228508971631527, 0.01433822512626648, -0.006744786165654659, 0.005496188998222351, 0.0028802654705941677, -0.004337574355304241, -0.00022435447317548096, -0.011616779491305351, -0.0035430151037871838, -0.006567023228853941, -0.013192035257816315, -0.010842830874025822, -0.0023975875228643417, 0.004667566157877445, 0.01026065181940794, -0.011484824120998383, 0.015771662816405296, -0.0035820957273244858, -0.006549384444952011, 0.001447563641704619, -0.0013030286645516753, 0.012162328697741032, 0.011568264104425907, 0.003685419447720051, 0.004892474971711636, 0.0004705163009930402, -0.014291908591985703, -2.0536168449325487e-05, 0.00991552509367466, 0.008312772959470749, 0.013783261179924011, 0.0024520952720195055, -0.011888831853866577, -0.005503078922629356, -0.006554720923304558, 0.010097872465848923, -0.015902234241366386, -0.015062877908349037, 0.0044775367714464664, 0.013105050660669804, -0.008124756626784801, 0.011072901077568531, 0.0020934036001563072, 0.01869989186525345, 0.008966362103819847, -0.013326428830623627, 0.0005705825169570744, -0.012777535244822502, -0.01577444188296795, -0.017358582466840744, -0.015966976061463356, 0.0003381539136171341, 0.00577058270573616, 0.00778986606746912, 0.013662990182638168, 0.007572760805487633, -0.0038434136658906937, -0.012629752047359943, 0.01074974611401558, 0.0031900652684271336, 0.0016350497025996447, -0.0031594466418027878, 0.014786670915782452, 0.008480042219161987, 0.002157429698854685, 0.003163236891850829, 0.009142942726612091, 0.012643824331462383, 0.0068542929366230965, -0.004741140175610781, -0.00046849544742144644, -0.001134991180151701, -0.012211780995130539, 0.0010645703878253698, -0.01338203251361847, -0.013829714618623257, -0.014131518080830574, 0.0055565545335412025, 0.0004825209325645119, 0.015876149758696556, -0.008531337603926659, -0.013126611709594727, 0.006778787821531296, -0.01191682182252407, -0.01312519796192646, -0.007643463090062141, -0.0017074438510462642, 0.01110564824193716, -0.01867426186800003, 0.009759795852005482, 0.005756177939474583, 0.013335366733372211, -0.01078930962830782, -0.017469793558120728, 0.001529165543615818, 0.012599647045135498, -0.007619688753038645, -0.013618141412734985, 0.008963978849351406, -0.007950902916491032, 0.009656610898673534, 0.0028214198537170887, 0.0073797996155917645, 0.0026393758598715067, -0.007548635825514793, -0.01241608988493681, 0.014474091120064259, -0.0013192378683015704, 0.001604472636245191, -0.00045573568786494434, 0.0018651882419362664, -0.0070532141253352165, 0.013181179761886597, 0.000884024950210005, 0.016561903059482574, 0.015450235456228256, 0.010017605498433113, 0.016730958595871925, -0.011742059141397476, 0.0098722530528903, 0.0006057994323782623, -0.0005340910865925252, -0.016669124364852905, -0.00011112227366538718, -0.006459984462708235, -0.018410002812743187, -0.0050354693084955215, -0.0057654730044305325, -0.0024431648198515177, -0.006147097330540419, -0.0014938832027837634, 0.0064429035410285, -0.01978941448032856, -0.01037343218922615, -0.012409444898366928, -0.009188391268253326, -0.013963964767754078, -0.00907214730978012, 0.008814596571028233, -0.0007974921027198434, 0.0026783773209899664, 0.0007821303443051875, -0.01143160555511713, -0.00386243499815464, 0.010701427236199379, -0.00038980768295004964, 0.018632229417562485, -0.002929240930825472, 0.010269178077578545, -0.01415338460355997, 0.007311554159969091, -0.004502858500927687, -0.0008645234629511833, -0.0054851011373102665, -0.004110798239707947, 0.008074743673205376, 0.01480243168771267, -0.004263417329639196, 0.010431100614368916, -0.002907322021201253, -0.0051761772483587265, -0.0001803923660190776, 0.017094695940613747, -0.002114148112013936, -0.0016619306989014149, -0.015759697183966637, 0.008131438866257668, 0.015508192591369152, -0.0029930141754448414, -0.011642989702522755, -0.01502301450818777, 0.015063229016959667, 0.013620312325656414, -0.010772851295769215, 0.006624331697821617, -0.005608513951301575, -0.006350740324705839, 0.007447692099958658, 0.0016856684815138578, 0.01271029096096754, 0.0014239754527807236, -0.015439121052622795, -0.000626948254648596, 0.017475176602602005, -0.0028399182483553886, -0.013022325001657009, 0.004577626008540392, 0.010805375874042511, -0.0029966591391712427, 0.005619426723569632, -0.002592074451968074, 0.007457938976585865, -0.0016516785835847259, -0.007048420142382383, 0.008204072713851929, 0.004925165791064501, -0.017541123554110527, 0.006405641324818134, -0.01609746925532818, 0.011256004683673382, 0.014663221314549446, 0.014689577743411064, -0.009861533530056477, -0.0028313605580478907, 0.01555478572845459, 0.01624542661011219, 0.005740454886108637, -0.014041229151189327, 0.008917427621781826, -0.0009560667676851153, -0.008966507390141487, 0.007148075848817825, -0.0018563168123364449, 0.0013389138039201498, -0.0017677596770226955, -0.014786764979362488, -0.0006307776784524322, -0.007875367999076843, 0.01316122617572546, -0.004939170088618994, 0.0038569506723433733, 0.0007848964305594563, 0.012649108655750751, -0.009407324716448784, -0.016857484355568886, 0.011744909919798374, -0.010234004817903042, 0.008614038117229939, 0.0019114518072456121, -0.012414119206368923, -0.020992448553442955, 0.012775755487382412, -0.018672045320272446, -0.0011108189355581999, -0.009188513271510601, 0.010472334921360016, -0.010572689585387707, 0.018994854763150215, 0.0013027304084971547, 0.004563219379633665, 0.017685336992144585, -0.008661708794534206, -0.012801478616893291, 0.012486607767641544, -0.0005139664281159639, -0.008058419451117516, 0.0118930134922266, -0.01617410033941269, -0.01755882427096367, -0.009787424467504025, 0.015418917872011662, -0.013774171471595764, 0.00029384042136371136, 0.008420523256063461, -0.019280720502138138, 0.012180250138044357, 0.008289290592074394, 0.0037259324453771114, -0.0032821320928633213, -0.017605215311050415, -0.005724295508116484, -0.007592899724841118, -0.001098412903957069, 0.011608869768679142, -0.022232860326766968, 0.014645041897892952, -0.016310695558786392, -0.00033177732257172465, 0.009994236752390862, -0.01564685069024563, 0.01847853511571884, 0.01171089056879282, -0.001598464441485703, 0.0015383660793304443, 0.018353518098592758, 0.017852503806352615, 0.01717594638466835, 0.004943812731653452, -0.00540592847391963, -0.014369278214871883, 0.009264625608921051, -0.014818491414189339, 0.008290856145322323, 0.0139921260997653, -0.017285168170928955, 0.009138860739767551, 0.012057969346642494, -0.016050957143306732, -0.01471424475312233, 0.01901027001440525, -0.01205411646515131, 0.009987599216401577, 0.00811030063778162, -0.0052799745462834835, -0.0015103804180398583, -0.01674116589128971, -0.002220960333943367, 0.013180424459278584, 0.0023163859732449055, 0.017915870994329453, 0.003166824346408248, -0.014731120318174362, 0.013059156015515327, 0.0063467067666351795, 0.019278310239315033, -0.008433126844465733, 0.020371178165078163, -0.010215398855507374, 0.0019740676507353783, -0.0038201974239200354, -0.010297986678779125, -0.0060240416787564754, -0.005774922203272581, 0.0056917122565209866, 0.0039487252943217754, 0.0036474098451435566, 0.004098506644368172, -0.009916100651025772, -0.01676822267472744, -0.006186226848512888, 0.005657585337758064, -0.00435803784057498, 0.00941123254597187, 0.00680767884477973, 0.0012342084664851427, 0.0068657007068395615, -0.012013494037091732, -0.004203340969979763, -0.011261758394539356, -0.0019757470581680536, 0.008008910343050957, -0.0013283751904964447, -0.002927652094513178, -0.013100175186991692, 0.008322322741150856, -0.007929796352982521, 0.0006070149829611182, -0.0017932236660271883, 0.01465649250894785, -0.006945786997675896, -0.00116915930993855, 0.001206284505315125, 0.015677163377404213, 0.005053395871073008, 0.016754159703850746, -0.006077887490391731, 0.019250646233558655, 0.014224800281226635, -0.015542919747531414, 0.009601856581866741, -0.004661275073885918, -0.006757869850844145, -0.0023653593380004168, -0.010574963875114918, 0.010609252378344536, 0.0015947178471833467, 0.006888651754707098, 0.011073156259953976, 0.01055571436882019, -0.006259411573410034, -0.017598873004317284, -0.002438885159790516, 0.00287162815220654, 0.010196945630013943, 0.015006650239229202, 0.017420483753085136, -0.006711806636303663, -0.010872314684092999, -0.007337676826864481, 0.011135422624647617, -1.7974956790567376e-05, -0.002404333557933569, 0.014515887014567852, 0.02070583775639534, -0.0017584763700142503, 0.007912881672382355, 0.022043276578187943, 0.01714445650577545, -0.015444086864590645, -0.009668025188148022, -0.01201704889535904, -0.015071860514581203, 0.005666889250278473, -0.007800785358995199, -0.01691182516515255, -0.006526955869048834, -0.0038136220537126064, -0.00043872068636119366, -0.0013913873117417097, 0.011582406237721443, -0.018906397745013237, -0.010632054880261421, -0.007350162602961063, -0.004892170894891024, 0.003902134485542774, 0.011026165448129177, -0.004913607146590948, 0.006287815049290657, 0.013100416399538517, -0.013015398755669594, -0.006373872049152851, -0.012174682691693306, 0.020437190309166908, 0.002938858699053526, 0.014605116099119186, -0.004389139357954264, 0.015848925337195396, -0.015110370703041553, -0.0007365743513219059, 0.001405096030794084, -0.016331225633621216, 0.009028573520481586, -0.006504762917757034, 0.005849243141710758, -0.014928586781024933, 0.01004870142787695, -0.007621409837156534, 0.015350090339779854, 0.01980610005557537, 0.018076851963996887, 0.006574190687388182, -0.009500928223133087, 0.0004905208479613066, -0.00433442322537303, -0.009093014523386955, 0.0075193895027041435, -0.013591989874839783, 0.014788581989705563, -0.00015119279851205647, -0.012202439829707146, 0.0015282528474926949, 0.01698099821805954, 0.02351696603000164, -0.01191852055490017, -0.0006793364882469177, -0.007385597098618746, -0.00103409041184932, 0.007446902804076672, 0.000674692913889885, 0.009606203064322472, 0.013432351872324944, 0.014884642325341702, 0.015041734091937542, 0.0087436493486166, -0.017192641273140907, -0.019990799948573112, 0.007332566659897566, 0.009330708533525467, -0.018358109518885612, -0.00040667952271178365, -0.013530245050787926, -0.014904283918440342, -0.01191389374434948, -0.019039563834667206, -0.0019584745168685913, 0.009633580222725868, -0.0023363467771559954, 0.011360506527125835, 0.009050528518855572, 0.0028768994379788637, 0.003201060928404331, 0.014535977505147457, 0.00529342470690608, 0.008785799145698547, -0.011226058937609196, 0.009363443590700626, 0.004404032602906227, 0.017464404925704002, -0.007771044038236141, 0.016893958672881126, -0.003974339924752712, 0.004506987985223532, -0.0027401179540902376, 0.013368410989642143, -0.012341876514256, 0.0040930770337581635, -0.016904054209589958, 0.009140937589108944, 0.010668821632862091, -0.0189084280282259, -0.0013373128604143858, 0.008808357641100883, -0.005188978277146816, -0.00010889756958931684, -0.014980676583945751, 0.01281147450208664, -0.006225144490599632, 0.007359972223639488, -0.011262779124081135, -0.004358293954282999, 0.010204451158642769, -0.012517668306827545, 0.016199178993701935, 0.014232676476240158, 0.00455479184165597, -0.01307712309062481, -0.014284309931099415, 0.008843732066452503, 0.016746098175644875, 0.015198600478470325, -0.01507112942636013, -0.0081162229180336, -0.006764002609997988, -0.0010215037036687136, 0.0032231949735432863, 0.007471902295947075, 0.004597174469381571, 0.009706860408186913, -0.009433000348508358, 0.015201536007225513, -0.009712330996990204, 0.017952335998415947, 0.00310226040892303, 0.006391026079654694, -0.0039569237269461155, -0.0076757920905947685, -0.006192635279148817, 0.013358295895159245, -0.013238117098808289, 0.005523126572370529, -0.014397631399333477, 0.016419434919953346, 0.007683641742914915, -0.015054777264595032, 0.01592985726892948, -0.008980616927146912, 0.0016438387101516128, 0.009891845285892487, 0.014323758892714977, 0.0006699912482872605, -0.013330086134374142, -0.018655002117156982, -0.013054097071290016, -0.008290156722068787, 0.0059149242006242275, 0.005177335813641548, -0.012928216718137264, 0.0014697975711897016, -0.0009406870813108981, 0.01274894643574953, -0.00373456091620028, -0.004137896932661533, 0.0013491024728864431, 0.010226371698081493, -0.018791131675243378, -0.015383478254079819, -0.007554725743830204, 0.01384365651756525, 0.0022827174980193377, 0.0037410862278193235, 0.005057999864220619, 0.008233234286308289, 0.013139942660927773, -0.0073953596875071526, -0.011788069270551205, -8.668458758620545e-05, 0.01657741703093052, -0.00607228372246027, -0.004260233137756586, 0.012566116638481617, -0.009827597066760063, -0.002299162093549967, -0.01368505135178566, 0.000868006085511297, -0.006102818064391613, 0.009886411018669605, 0.007754953112453222, -0.006291247438639402, -0.003703473834320903, -0.015684951096773148, 7.946261030156165e-05, 0.015464864671230316, -0.013570096343755722, 0.0030429495964199305, 0.008243256248533726, -0.0008869615849107504, 0.014705520123243332, -0.0005449290038086474, 0.0006986485095694661, -0.007467833813279867, 0.004722180776298046, 0.008866934105753899, 0.0019301744177937508, 0.008179647848010063, -0.0023096418008208275, -0.002259705914184451, 0.015293835662305355, 0.010310458019375801, 0.011186771094799042, 0.001096605439670384, 0.016005219891667366, -0.011998552829027176, -0.004628824070096016, -0.006504494231194258, -0.01825120486319065, -0.016162144020199776, 2.096997923217714e-05, -0.005769776180386543, -0.01689411699771881, -0.01404122356325388, 0.005373017862439156, -0.010093755088746548, 0.00882746186107397, -0.015122671611607075, 0.009327003732323647, 0.017654187977313995, 0.00666952645406127, 0.005448967218399048, 0.0032528075389564037, 0.00915544107556343, 0.008459674194455147, 0.011760231107473373, 0.018511848524212837, 0.0002304522058693692, -0.0012602832866832614, 0.009761529974639416, 0.013386325910687447, -0.013968061655759811, -0.01825486682355404, 0.00903416145592928, 0.00048310725833289325, -0.002406521700322628, 0.00468524731695652, -0.013688920997083187, 0.010480256751179695, 0.007986455224454403, -0.021456671878695488, -0.004156647715717554, 0.00245187571272254, -0.002012606943026185, 0.014177991077303886, -0.004177766386419535, 0.016224592924118042, 0.002316726604476571, 0.016512271016836166, -0.0032015610486268997, 0.017638742923736572, 0.01777484267950058, 0.007736583705991507, -0.004616596736013889, 0.0017946817679330707, -0.016550639644265175, -0.01667599193751812, 0.01698874495923519, 0.010472504422068596, 0.003000267781317234, -0.0024867753963917494, -0.0060858530923724174, -0.0009564042557030916, -0.004356671124696732, -0.00821477547287941, -0.009127035737037659, 0.0006732913316227496, -0.010518502444028854, 0.011288889683783054, -0.0029574923682957888, 0.005820068065077066, -0.001396605628542602, -0.009825000539422035, -0.01946726068854332, 0.00972044374793768, 0.004792547784745693, -0.011110929772257805, 0.01451505720615387, 0.015532176941633224, 0.004320115316659212, 0.010836916975677013, 0.0038292028475552797, 0.01918206363916397, 0.008431130088865757, 0.021824834868311882, -0.004690962377935648, -0.011368260718882084, 0.006347041577100754, -0.0071027930825948715, 0.00746565219014883, -0.00883934274315834, 0.0027219238691031933, 0.006475204136222601, -0.0026489945594221354, 0.010598593391478062, -0.0034937183372676373, 0.011793174780905247, 0.013797936961054802, -0.017020098865032196, 0.016963239759206772, -0.006534185726195574, -0.012228148989379406, -0.014279481954872608, 0.013563476502895355, -0.017710896208882332, 0.013296385295689106, -0.01509846467524767, 0.0073196860030293465, -0.006586154457181692, 0.01497313566505909, 0.012307185679674149, 0.01882617361843586, 0.009383141063153744, 0.001604372402653098, -0.008878774009644985, 0.02243814431130886, 0.011199723929166794, -0.005049155093729496, 0.002873030724003911, 0.01200600154697895, 0.007001802325248718, 0.005395224783569574, 0.009480548091232777, -0.0006419562851078808, 0.01282166875898838, 0.0031656427308917046, 0.011657503433525562, 0.0062310644425451756, 0.012098531238734722, -0.018340691924095154, 0.009982817806303501, 0.015745479613542557, 0.0032614751253277063, -0.0035147112794220448, -0.0037670654710382223, 0.00548867741599679, 0.006023231893777847, 0.004074815660715103, 0.015796935185790062, 0.0010305901523679495, 0.012302382849156857, 0.007783987559378147, 0.008530166931450367, 0.018762480467557907, 0.0008947717142291367, 0.02039272151887417, 0.01811775006353855, 0.002224516589194536, -0.012143841944634914, -0.006515585817396641, 0.002566963667050004, -0.016422931104898453, -0.016197843477129936, -0.010245125740766525, 0.002696201903745532, 0.01522181648761034, -0.015975715592503548, 0.00980609655380249, -0.0030953597743064165, 0.018521148711442947, -0.010347501374781132, -0.0033988102804869413, 7.431938138324767e-05, 0.0012181377969682217, -0.007868019863963127, -0.001492192386649549, -0.00731468154117465, -0.002877399092540145, -0.001123021706007421, 0.012612615711987019, -0.010560292750597, 0.0014447645517066121, 0.0038707605563104153, -0.005413276143372059, 0.015207950957119465, -0.0013088869163766503, 0.01541360653936863, 0.0069838170893490314, 0.020682765170931816, 0.0030202269554138184, 0.003366593038663268, 0.015222657471895218, 0.014157328754663467, -0.0002809098514262587, -0.0024718628264963627, -0.0019305582391098142, 0.00991351343691349, -0.007955525070428848, -0.004717470146715641, 0.008835631422698498, -0.012530101463198662, -0.003771033603698015, -0.011630122549831867, 0.0065812463872134686, 0.01070171408355236, -0.0034374890383332968, -0.010125532746315002, -0.005564717575907707, -0.0008455641800537705, 0.004181905649602413, -0.011538352817296982, 0.01362108625471592, -0.004363321233540773, -0.014268159866333008, 0.013929490931332111, 0.018439872190356255, 0.007263296749442816, -0.009032840840518475, -0.013787285424768925, 0.0032024162355810404, 0.011156423948705196, -0.0018770468886941671, 0.015920791774988174, -0.0009589670225977898, -0.01278332993388176, -0.00133079057559371, -0.009569693356752396, -0.016360759735107422, -0.012678327038884163, -0.0053986720740795135, 0.018294522538781166, 0.0038377929013222456, 0.0018285370897501707, 0.010040283203125, 0.011696252040565014, 0.0159361120313406, -0.010730414651334286, -0.010282089933753014, -0.010939923115074635, -0.00023065254208631814, -0.0042086998000741005, 0.009318238124251366, 0.017988769337534904, 0.018359463661909103, 0.011798937804996967, -0.016567431390285492, 0.018242478370666504, -0.01570388861000538, -0.006061261054128408, 0.011118286289274693, -0.000640260346699506, -0.013922009617090225, -0.003531476715579629, -0.006209951359778643, -0.01196723710745573, 0.010522281751036644, -0.011741667054593563, -0.005082953721284866, -0.006331983488053083, 0.0031104045920073986, 0.016110975295305252, -0.01634308136999607, 0.013717498630285263, -0.007227064110338688, -0.002647847170010209, 0.016092613339424133, -0.0020786894019693136, 0.0051190475933253765, 0.000978129799477756, -0.005031102802604437, -0.002348551293835044, 0.017699813470244408, 0.016452981159090996, 0.006916714832186699, 0.00950728077441454, 0.010688986629247665, -0.004052116069942713, -0.01184338890016079, 0.004730192944407463, -0.0026380610652267933, -0.009779101237654686, 0.005809126887470484, 0.007998133078217506, 0.008618747815489769, 0.0032278236467391253, 0.01673014834523201, 0.012684421613812447, 0.011984706856310368, -0.0064205629751086235, -0.017213011160492897, -0.005698963534086943, -0.023530853912234306, -0.009155163541436195, 0.007875461131334305, 0.006882221903651953, -0.007743483409285545, -0.005008365958929062, -0.0025353108067065477, 0.018324168398976326, 0.017632754519581795, 0.01873036101460457, 0.0068433815613389015, -0.0058251493610441685, 0.015439107082784176, 0.021024202927947044, -0.0035676518455147743, 0.012968315742909908, -0.0003377488465048373, -0.0015991439577192068, 0.0218918826431036, 0.010296574793756008, -0.015002160333096981, -0.005227628629654646, 0.0020673766266554594, -0.01689150556921959, 0.009434349834918976, 0.00873639341443777, -0.015231290832161903, 0.011720648035407066, -0.014207935892045498, -0.019350726157426834, -0.019580326974391937, -0.018083883449435234, 0.004496064502745867, -0.011561527848243713, 0.0027067558839917183, -0.00389951653778553, 0.011729263700544834, -0.017348187044262886, -0.0034374569077044725, 0.008363108150660992, -0.0013521630316972733, -0.011311152018606663, 0.006542050279676914, -0.005127900280058384, -0.005301633384078741, 0.0124086057767272, 0.002354862866923213, -0.009513846598565578, 0.014092408120632172, 0.017702702432870865, 0.010447278618812561, 0.01143582072108984, -0.011737422086298466, -0.008484232239425182, -0.0013255337253212929, 0.019327210262417793, -0.0017165096942335367, -0.017032764852046967, 0.006105691660195589, 0.004191477317363024, -0.0029778655152767897, -0.015491293743252754, -0.015555196441709995, -0.014094936661422253, -0.004268369171768427, 0.0008547394536435604, -0.013721578754484653, 0.005833673290908337, -0.005339024588465691, -0.0034769445192068815, 0.016594545915722847, 0.007984085008502007, 0.016382696107029915, -0.0030370382592082024, 0.016768796369433403, 0.0031772167421877384, 0.004372518975287676, -0.007364402990788221, -0.007053737062960863, -0.004803017247468233, -0.00047819156316109, -0.0033363131806254387, 0.0026889003347605467, 0.019784877076745033, -0.010805802419781685, 0.004484643694013357, -0.0007591752801090479, -0.0071151903830468655, -0.017829356715083122, -0.015713540837168694, 0.0038249429780989885, 0.010909635573625565, -0.017057005316019058, 0.002013710094615817, -0.021320464089512825, -0.008908004499971867, -0.0017877717036753893, -0.02237563207745552, 0.005951146595180035, -0.007526493165642023, 0.0032307514920830727, -0.0075142341665923595, -0.011410590261220932, 0.0014027354773133993, 0.015742776915431023, -0.008356517180800438, -0.010038454085588455, 0.0013605753192678094, 0.015467661432921886, 0.008150083012878895, -0.0021434857044368982, -0.011408939957618713, -0.008028252050280571, 0.01137798186391592, 0.015363913029432297, -0.017120864242315292, 0.006106362212449312, 0.01552524883300066, -0.008152305148541927, -0.002812932478263974, 0.0003509941743686795, -0.02231341041624546, -0.011130555532872677, -0.00788448192179203, -0.01912890374660492, -0.008798748254776001, 0.006758668925613165, 0.006987943314015865, 0.0027782442048192024, 0.025394579395651817, 0.021463237702846527, 0.006355090998113155, 0.0048347353003919125, 0.01590939611196518, 0.02695431001484394, 0.011809800751507282, 0.02102038450539112, -0.0014799823984503746, 0.012244594283401966, 0.003805439919233322, 0.024684883654117584, 0.019615748897194862, 0.022487103939056396, -0.0020882997196167707, 0.020780829712748528, 0.0012229663552716374, 0.02111664041876793, 0.005362564232200384, 0.020781641826033592, 0.004215389024466276, 0.008070549927651882, -0.0002733209985308349, 0.013229027390480042, 0.008859113790094852, 0.026639103889465332, 0.0009521347237750888, -0.007262214552611113, 0.009456817992031574, 0.00256596808321774, -0.0032865693792700768, 0.003306429600343108, 0.006548739969730377, -0.003073315368965268, -0.004487195052206516, 0.025828300043940544, 0.0012538982555270195, 0.001110118580982089, -0.0032964961137622595, -0.003490892704576254, 0.012563157826662064, -0.005064682569354773, 0.0018472246592864394, 0.025397006422281265, 0.02527664043009281, 0.0028750321362167597, -0.006743939593434334, -0.003547276370227337, 0.02648092433810234, 0.006511436775326729, 0.007717633154243231, 0.017805416136980057, 0.02407793514430523, 0.004416350275278091, 0.009730316698551178, -0.004734172485768795, 0.018615324050188065, -0.008518745191395283, -0.0031151145230978727, 0.02034256048500538, 0.022157447412610054, 0.013318493962287903, 0.0014307035598903894, 0.0014348746044561267, 0.015170431695878506, -0.007875136099755764, 0.008003768511116505, 0.01469523273408413, 0.022611580789089203, -0.001442839507944882, 0.006401397753506899, -0.003435209160670638, 0.026498930528759956, 0.005027558654546738, 0.0018506586784496903, 0.016367163509130478, 0.007910216227173805, 0.002255571074783802, 0.026691094040870667, 0.018047161400318146, 0.0062473854050040245, 0.017264142632484436, -0.0029773544520139694, -0.003973964601755142, 0.02348584681749344, 0.00800955668091774, 4.746391641674563e-05, 0.0012164647923782468, -0.006333858240395784, 0.0198830533772707, 0.00259209331125021, 0.00729325320571661, 0.005187406204640865, 0.001456051366403699, 0.022000202909111977, 0.02555740438401699, 0.0009561568149365485, 0.003496775636449456, 0.016553970053792, 0.013838281854987144, 0.008254985325038433, 0.004714530427008867, 0.019217679277062416, -0.00037114249425940216, 0.013646646402776241, 0.026550747454166412, 0.02594875916838646, 0.014981105923652649, 0.017734358087182045, -0.0064931451342999935, 0.0032376479357481003, 0.010867568664252758, -0.0068452320992946625, 0.014142531901597977, -0.000711550994310528, -0.007075054105371237, 0.015759171918034554, 0.016361607238650322, 0.016706028953194618, 0.005251159891486168, 0.021806251257658005, 0.023682259023189545, -0.006457614712417126, 0.012718744575977325, 0.009068342857062817, 0.003373226383700967, 0.013155768625438213, -0.0050885905511677265, 0.023020068183541298, 0.00774510158225894, 0.007798103149980307, 0.02053328976035118, 0.02693428099155426, -0.0052453139796853065, 0.001403233502060175, -0.0021699056960642338, 0.011033357121050358, -0.006674793548882008, 0.007937728427350521, 0.0040346235036849976, 0.002728175139054656, 0.014102542772889137, 0.022542811930179596, 0.014907026663422585, 0.0214083194732666, 0.010920248925685883, -0.00013540177315007895, 0.008191783912479877, -0.0023761875927448273, 0.019719064235687256, 0.01304658129811287, 0.002907366259023547, 0.009364929050207138, 0.007533546537160873, 0.019367489963769913, 0.006392051465809345, 0.005228041671216488, 0.010682325810194016, -0.0008167247287929058, 0.00994089711457491, -0.00646967301145196, -0.00685223750770092, 0.005272742826491594, 0.010970627889037132, 0.02619960904121399, 0.015425164252519608, 0.002594251185655594, 0.019877228885889053, 0.0005931815248914063, 0.024616774171590805, 0.019296549260616302, 0.018327413126826286, 0.013611998409032822, -0.0015983801567927003, -0.00314540509134531, 0.001153734978288412, 0.008905907161533833, 0.018411386758089066, 0.026409806683659554, 0.0263991542160511, 0.021530181169509888, 0.01759447529911995, 0.013375964015722275, 0.005515843164175749, 0.023116154596209526, 0.015446004457771778, 0.0036480191629379988, 0.015810588374733925, -0.005181250162422657, 0.002909700619056821, 0.013448726385831833, 0.02631407603621483, 0.014928319491446018, -0.002850242890417576, -0.0006953377742320299, 0.025279207155108452, -0.0007395796128548682, -0.0011090032057836652, 0.007202194072306156, 0.005711080972105265, 0.020628374069929123, 0.02767782099545002, 0.0032369669061154127, 0.030200641602277756, 0.006881996523588896, 0.006768669933080673, 0.023891953751444817, 0.015350761823356152, 0.019894514232873917, 0.00298486091196537, 0.016451803967356682, 0.012394635006785393, 0.01778021641075611, 0.015158775262534618, -0.002920437604188919, 0.019309107214212418, 0.017507502809166908, 0.0058334022760391235, -0.007884874008595943, 0.013047645799815655, -0.007785501424223185, 0.024976616725325584, 0.02134784683585167, 0.002310392213985324, -0.0045117600820958614, 0.006313101388514042, 0.011325081810355186, -0.002752544591203332, 0.0007105394615791738, -0.0002862237743102014, -0.0021743865218013525, 0.008840974420309067, 0.014224682934582233, 0.009580283425748348, 0.0030625127255916595, 0.00900905393064022, 0.006493032444268465, 0.0024185581132769585, 0.009382716380059719, 0.009755711071193218, 0.017370428889989853, 0.009109703823924065, 0.01620081067085266, 0.018870403990149498, 0.00566034484654665, 0.007678029593080282, 0.022109564393758774, 0.0028476205188781023, 0.00013392219261731952, 0.012558942660689354, 0.011186335235834122, 0.0029989350587129593, 0.004233488347381353, 0.010828187689185143, -0.00380602665245533, -0.009906312450766563, 0.02232414484024048, 0.02141397073864937, -0.013996163383126259, 0.010775482282042503, -0.009743519127368927, 0.02198535017669201, 0.018876725807785988, -0.0020965500734746456, 0.024515142664313316, 0.02684692293405533, 0.019672555848956108, 0.021503744646906853, 0.008743733167648315, 0.0034098252654075623, 0.020885193720459938, 0.0018417041283100843, 0.007759201806038618, 0.013960911892354488, 0.019207194447517395, 0.011247191578149796, -0.008025932125747204, 0.0009630502900108695, 0.010975800454616547, -0.001940145273692906, 0.02190345898270607, 0.020658796653151512, 0.017369115725159645, 0.010021097026765347, -0.007064878940582275, 0.02933547832071781, 0.016329830512404442, 0.004833784885704517, 0.0030278670601546764, -0.010073663666844368, -0.00536762923002243, 0.013592544011771679, 0.012954870238900185, 0.015212868340313435, -0.010302872397005558, 0.024451296776533127, 0.012191264890134335, 0.0285255815833807, 0.013664500787854195, 0.00129126594401896, 0.023898594081401825, 0.017685119062662125, 0.0038374701980501413, 0.016894860193133354, 0.026711473241448402, -0.0020450714509934187, 0.017241640016436577, 0.010638323612511158, 0.006718555931001902, 0.014294520951807499, -0.0007394092390313745, -0.0019954738672822714, 0.021027324721217155, -0.0023811061400920153, 0.013893187046051025, -0.004354891367256641, 0.0004444016085471958, 0.0071960510686039925, -0.000601731997448951, 0.013931823894381523, -0.01005439180880785, -0.011822003871202469, -0.012646890245378017, -0.01123623363673687, 0.012204395607113838, 0.011874380521476269, -0.0053936499170959, 0.005565198604017496, 0.015997014939785004, 0.007071011234074831, -0.00159702287055552, 0.03175673633813858, 0.0163610577583313, 0.009505740366876125, -0.003195028053596616, 0.023294571787118912, 0.014310729689896107, 0.02841329202055931, 0.01238998118788004, -0.0012661457294598222, 0.02588525228202343, 0.026146750897169113, -0.0019200877286493778, 0.005589121021330357, -0.009955918416380882, -0.0058859363198280334, 0.0006979478639550507, -0.013039405457675457, -0.011227123439311981, 0.013670484535396099, -0.005751531105488539, 0.001182349631562829, 0.012926525436341763, 0.01688235066831112, 0.009733489714562893, -0.009543372318148613, 0.013979442417621613, 0.013872455805540085, 0.000682787096593529, 0.022335641086101532, 0.020041324198246002, 0.0002572846133261919, -0.007429319899529219, 0.016077235341072083, 0.018790073692798615, 0.004171876236796379, 0.018583456054329872, 0.01178822759538889, 0.006048028822988272, 0.011199614964425564, 0.019852586090564728, -0.0021302441600710154, 0.0018611702835187316, 0.003920023795217276, 0.015912747010588646, -0.011420485563576221, 0.011477820575237274, -0.013117269612848759, -0.00024327219580300152, 0.00831934716552496, 0.0023021120578050613, 0.0007932820590212941, 0.01531266886740923, 0.013595485128462315, 0.012885825708508492, -0.0017812398727983236, -0.006967316847294569, 0.0007153422920964658, -0.01318711880594492, -0.008821847848594189, -0.010267207399010658, -0.007974102161824703, 0.01066011656075716, 0.0010706856846809387, 0.027259884402155876, 0.01510626170784235, 0.014005884528160095, 0.014600290916860104, 0.012043580412864685, 0.001811955007724464, 0.0075575560331344604, -0.00470278225839138, -0.0036010444164276123, -0.00380389834754169, -0.007817567326128483, -0.0008917661034502089, -0.012073507532477379, -0.011271525174379349, -0.011978588066995144, -0.0075099412351846695, 0.015284704975783825, 0.01772986352443695, 0.007930637337267399, 0.006711404304951429, 0.022552097216248512, -0.004918704740703106, -0.001225168234668672, 0.01114662829786539, -0.00974420364946127, -0.008787039667367935, -0.005505003966391087, 0.010352966375648975, 0.014395279809832573, 0.020282335579395294, 0.0005085001466795802, -0.005082111340016127, 0.004475061781704426, -0.0036885743029415607, -7.39133101888001e-05, 0.008238877169787884, 0.019128186628222466, 0.010624769143760204, 0.008100461214780807, 0.01979411579668522, 0.020646540448069572, 0.0046347868628799915, -0.011197191663086414, 0.014276137575507164, -0.008102386258542538, 0.0042316848412156105, 0.0009827053872868419, -0.006599339656531811, -0.0035124102141708136, 0.01641266420483589, 0.021841423586010933, 0.014997179619967937, 0.025134459137916565, 0.00666859420016408, 0.01634853333234787, 0.014342201873660088, 0.009573834016919136, 0.0048234048299491405, -0.0019307128386572003, 0.00794990360736847, 0.01364937424659729, -0.012087356299161911, 0.010500706732273102, 0.013055171817541122, 0.026304392144083977, 0.01950800232589245, 0.017882028594613075, 0.01633317582309246, 0.028253328055143356, -0.004805462900549173, 0.006470569409430027, 0.011587335728108883, 0.017514711245894432, 0.017551559954881668, -0.0030705989338457584, 0.008447802625596523, 0.0002087681059492752, 0.017884094268083572, 0.011787579394876957, -0.018060382455587387, 0.01251987461000681, -0.000508705445099622, -0.013121547177433968, 0.009667099453508854, 0.024570850655436516, 0.010728463530540466, -0.004141552373766899, 0.0026884854305535555, 0.007266839034855366, -0.015766607597470284, -0.012603756040334702, -0.013678591698408127, 0.01644083298742771, -0.007833763025701046, 0.008744635619223118, 0.0182353388518095, -0.0085403211414814, -0.006557766813784838, 0.021421005949378014, 0.017646118998527527, 0.004289692267775536, 0.002743818797171116, 0.022802958264946938, 0.022126322612166405, 0.0037471246905624866, -0.01041231956332922, 0.01705518551170826, -0.006855803541839123, 1.3320406651473604e-05, 0.007589506451040506, 0.009674700908362865, 0.007776781916618347, -0.01088534202426672, -0.012994467280805111, 0.009757811203598976, -0.0046342965215444565, 0.018679583445191383, 0.0022190033923834562, 0.003583416575565934, 0.002373667433857918, -0.0012633732985705137, 0.007047190330922604, 0.009925436228513718, -0.009801862761378288, -0.0005817572236992419, -0.0016700401902198792, 0.009948885068297386, -0.0004788348451256752, -0.009585361927747726, 0.02385375089943409, 0.016030611470341682, -0.01479217316955328, -0.0016300618881359696, 0.005972628481686115, 0.0038186698220670223, 0.02026340179145336, 0.004774011205881834, 0.012822256423532963, 0.011113242246210575, 0.01825820282101631, 0.00289501016959548, -0.00445490563288331, -0.0030658829491585493, -0.014129364863038063, 0.00406939210370183, 0.013383996672928333, -0.009399418719112873, 0.020823899656534195, 0.005941703449934721, 0.007484564557671547, -0.009402863681316376, -0.0012679038336500525, 0.011509944684803486, 0.018474165350198746, 0.012787910178303719, -0.00013577820209320635, 0.0006919187726452947, 0.01844986341893673, 0.015605801716446877, -0.005411617457866669, 0.007694942411035299, -0.0026321408804506063, 0.017911534756422043, -0.004931865260004997, 0.01027048472315073, -0.0033654463477432728, 0.004386322107166052, -0.007862275466322899, 0.009556498378515244, -0.006449800916016102, 0.003221960039809346, -0.015946315601468086, 0.002837951760739088, 0.0015611483249813318, 0.017175331711769104, -0.008149617351591587, 0.0200678538531065, 0.007754834834486246, 0.02086237259209156, 0.006846390664577484, -0.009772144258022308, 0.021740054711699486, -0.00785532221198082, 0.00787907000631094, -0.0031501506455242634, 0.012736639939248562, -0.014690712094306946, -0.008551354520022869, 0.0067933411337435246, -0.005200600251555443, 0.011542292311787605, -0.00778855150565505, 0.004427170846611261, -0.00528324581682682, -0.00615114439278841, -0.0035025200340896845, 0.0010288445046171546, 0.012999016791582108, -0.012542447075247765, 0.011817069724202156, 0.0011980703566223383, 0.016017014160752296, 0.012277303263545036, -0.013220793567597866, -0.0004988337168470025, -0.01439284160733223, -0.009478168562054634, 0.020914552733302116, -0.011718105524778366, 0.009858647361397743, 0.017373472452163696, -0.010811976157128811, 0.017420347779989243, 0.008657008409500122, -0.0004465382662601769, -0.006242583505809307, -0.01216242928057909, 0.014345475472509861, -0.0065235854126513, 4.154846828896552e-05, 0.004524229094386101, -0.0016860455507412553, -0.010034204460680485, -0.009586185216903687, 0.0006405721069313586, -0.007637836039066315, 0.0016285565216094255, 0.013348785229027271, 0.0011868826113641262, -0.004793873056769371, -0.013782278634607792, 0.0011567937908694148, -0.005985465366393328, 0.01120528019964695, -0.01255651656538248, 0.007718885783106089, 0.00596654275432229, 0.017632847651839256, -0.0007956353365443647, 0.020478036254644394, 0.008741757832467556, 0.008581727743148804, 0.005752155091613531, -0.009599361568689346, 0.008425060659646988, 0.0076918634586036205, 0.0021393520291894674, 0.013926093466579914, -0.014927533455193043, 0.011523275636136532, 0.01761912927031517, 0.007428627926856279, 0.017277119681239128, -0.008356040343642235, 0.011259722523391247, -0.011381193995475769, -0.0009320335811935365, 0.00014652273966930807, -0.006012976635247469, -0.0028413364198058844, 0.008988786488771439, 0.015306324698030949, 0.0005992455990053713, -0.01660796068608761, 0.005791785195469856, 0.00014001668023411185, -0.012976077385246754, -0.002435074420645833, 0.003843294456601143, -0.0058505036868155, 0.0024988504592329264, -0.0065656425431370735, 0.006854766979813576, -0.010297979228198528, 0.0069154552184045315, 0.0002999240532517433, -0.01931157149374485, 0.013672681525349617, 0.003794705495238304, -0.006784329190850258, 0.0016669968608766794, 0.019328266382217407, 0.019851889461278915, 0.011507093906402588, 0.01934402994811535, 0.015972895547747612, -0.002661274978891015, -0.0013812024844810367, -0.010138355195522308, 0.0048776897601783276, 0.005519448313862085, 0.0003253174072597176, -0.0033899948466569185, 0.002861544955521822, -0.01751301996409893, -0.006956603843718767, 0.012679096311330795, -0.0038719740696251392, -0.007343690376728773, 0.011739790439605713, -0.0011021352838724852, 0.018092604354023933, -0.0026748564559966326, -0.00755059951916337, 0.01954326592385769, 0.0027763580437749624, 0.009284504689276218, -0.0023899823427200317, -0.002552171004936099, 0.004509670659899712, 5.154065729584545e-05, 0.008228262886404991, -0.004003461450338364, 0.01449680607765913, 0.011147086508572102, -0.012007024139165878, 0.012347175739705563, 0.0033180098980665207, 0.00651028286665678, 0.00965167861431837, -0.00584438955411315, 0.0004738480783998966, -0.012331552803516388, 0.018167218193411827, 0.011698657646775246, -0.001126352814026177, 0.007419372908771038, -0.010029519908130169, -0.0012027567718178034, -0.007860141806304455, -0.0035639952402561903, -0.006651212926954031, -0.0020115398801863194, 0.015458807349205017, 0.017465990036725998, 0.01778794638812542, 0.0036994609981775284, -0.007955934852361679, 2.4572813345002942e-05, 0.014354823157191277, 0.005989817902445793, -0.0022745917085558176, -0.0014896991197019815, -0.009997904300689697, 0.024518534541130066, 0.007138071581721306, 0.014792005531489849, 0.016622263938188553, 0.003214164637029171, 0.01121336780488491, 0.01780436560511589, -0.006845824420452118, 0.0158980805426836, -0.013328852131962776, -0.0017160072457045317, 0.016122903674840927, 0.015048181638121605, 0.02096511237323284, -0.00623725913465023, 0.019468603655695915, 0.009641356766223907, -0.003106944262981415, 0.006225024349987507, 0.017656978219747543, -0.0037218285724520683, 0.019034922122955322, 0.010778565891087055, 0.012036815285682678, 0.004525561351329088, 0.021045781672000885, 0.015486898832023144, -0.009047755040228367, -0.007330335211008787, 0.0076865204609930515, -0.014272237196564674, -0.0027086951304227114, 0.002400612225756049, 0.015013876371085644, 0.01607285439968109, -0.00640167435631156, 0.007931542582809925, -0.00960284098982811, 0.011538859456777573, 0.01582188718020916, -0.0019860691390931606, 0.011780891567468643, 0.0225355364382267, 0.014410768635571003, -0.002882139291614294, 0.012811354361474514, 0.01963634416460991, 0.0036635405849665403, -0.0013425273355096579, 0.017000634223222733, -0.0010794870322570205, 0.002884566318243742, -0.010693342424929142, 0.02378639206290245, 0.005869827698916197, 0.00040533687570132315, 0.017295105382800102, 0.01959807798266411, -0.009487523697316647, -0.007161379791796207, -0.01606339029967785, 0.008742506615817547, -0.0019965525716543198, -0.0025070069823414087, 0.014861460775136948, 0.005746850278228521, 0.007908722385764122, -0.0006592849968001246, 0.023177500814199448, -0.004077338147908449, 0.003615244757384062, 0.008276400156319141, 0.0012806170852854848, 0.014363208785653114, 0.020046476274728775, 0.007143440190702677, 0.021632103249430656, 0.015075473114848137, 0.0010979082435369492, 0.005357302259653807, -0.011582902632653713, -0.002434343099594116, 0.016449254006147385, -0.003987843636423349, -0.0034767978359013796, -0.010558444075286388, 0.017867209389805794, 0.0004575995553750545, 0.018459143117070198, -0.01539992168545723, 0.0025050118565559387, -0.018694795668125153, 0.001351970131509006, -0.005251537077128887, 0.005680171772837639, -0.0045573292300105095, 0.01109494362026453, -0.010858883149921894, 0.01503255870193243, 0.01490501593798399, 0.014179620891809464, 0.018574614077806473, -0.00715947151184082, -0.009667295962572098, 0.009997050277888775, 0.013179714791476727, 0.016865799203515053, 0.0038864256348460913, 0.019814375787973404, 0.014927718788385391, 0.013918875716626644, 0.003991077188402414, 0.00147310143802315, 0.006826347205787897, 0.00705537386238575, 0.0005929830949753523, 0.0057801674120128155, 0.011233653873205185, -0.012111218646168709, -0.0026666629128158092, -0.004370582289993763, -0.006826368626207113, -0.012079083360731602, -0.018371211364865303, -0.012834475375711918, 0.0028321517165750265, 0.006356139667332172, -0.0035713668912649155, -0.016048505902290344, 0.011104322969913483, 0.011764883063733578, -0.012305151671171188, -0.008930893614888191, 0.003513862146064639, 0.018192386254668236, -0.011281590908765793, 0.015748169273138046, 0.0033862986601889133, 0.018760085105895996, 0.010170197114348412, 0.001095309853553772, 0.004454887937754393, 0.006446228362619877, 0.0027982930187135935, 0.007752734702080488, -0.007250464521348476, 0.007207275368273258, -0.004299637395888567, 0.010392957367002964, 0.019086914137005806, 0.015066660940647125, -0.0037351353093981743, 0.009941862896084785, -0.01634093001484871, -0.0012124791974201798, -0.019260523840785027, 0.010295185260474682, 0.007712559774518013, 0.009603593498468399, 0.0038695542607456446, -0.012015288695693016, -0.011511964723467827, -0.007560248952358961, -0.012662921100854874, 0.010065525770187378, -0.010970867238938808, -0.010242939926683903, -0.004953168798238039, 0.0011076335795223713, 0.01586969941854477, 0.006085322238504887, 0.01466147881001234, 0.02074994519352913, 0.017451560124754906, -0.005438372027128935, -0.0007638578535988927, 0.02113848738372326, 0.016488051041960716, -0.007671072613447905, 0.018518386408686638, 0.01265332754701376, 0.003858803305774927, -0.004770693834871054, 0.008144626393914223, 0.007982950657606125, -0.01947217807173729, -0.013298447243869305, 0.009365926496684551, 0.0029353671707212925, -0.01859515719115734, 0.0003342205018270761, 0.0007206502486951649, -0.008552709594368935, -0.010468143038451672, -0.003117774613201618, 0.012964088469743729, 0.003605079371482134, 0.01220356859266758, -0.01266499888151884, -0.006592981517314911, 0.014809329062700272, 0.024741243571043015, 0.023200837895274162, -0.004642595537006855, 0.00696019921451807, 0.014034892432391644, 0.006284933537244797, 0.0010760921286419034, -0.004844809416681528, 0.0018784913700073957, 0.01722751557826996, 0.004234212450683117, 0.0037239508237689734, -0.002828765194863081, -0.017863212153315544, 0.0046745240688323975, -0.010598383843898773, -0.022462962195277214, 0.00487130181863904, 0.00929215271025896, -0.013387838378548622, -0.02205302007496357, 0.009340392425656319, 0.004553821869194508, 0.008431840687990189, -0.00762174092233181, -0.015537464059889317, -0.011763116344809532, -0.007738382089883089, -0.012300257571041584, -0.0023202039301395416, 0.02146989293396473, 0.008088227361440659, -0.012434553354978561, 0.006511244922876358, 0.005621329881250858, -0.0026262090541422367, 0.005476095248013735, -0.006085490342229605, -0.009945821017026901, 0.006989986170083284, -0.006144172511994839, -0.008938739076256752, -0.010277193039655685, 0.018337545916438103, 0.015593990683555603, 0.011435835622251034, 0.0029810615815222263, -0.0135102653875947, -0.00883234478533268, 0.005893498659133911, -0.008863995783030987, -0.014551819302141666, -0.022695740684866905, -0.007056534755975008, -0.019145075231790543, 0.007733646780252457, -0.0021414838265627623, 0.015247330069541931, -0.01376928947865963, -0.014649513177573681, 0.0028493329882621765, -0.016539135947823524, -0.014149214141070843, -0.0010984960244968534, 0.007668287958949804, 0.01784786768257618, 0.018905898556113243, 0.016122573986649513, 0.005735128186643124, -0.01057707704603672, -0.017077989876270294, 0.009867212735116482, -0.003392290323972702, 0.00859760120511055, 0.011053315363824368, -0.006047495175153017, 0.010475101880729198, -0.01819625124335289, 0.013729591853916645, -0.0058429054915905, 0.01162557490170002, -0.02024603821337223, 0.009862679988145828], [-0.00934424065053463, -0.0002687092637643218, 0.017337029799818993, 0.01810993067920208, 0.013219568878412247, 0.017016543075442314, -0.005569972563534975, -0.009985525161027908, 0.010063815861940384, 0.02016516961157322, 0.01511212345212698, -0.00499498238787055, 0.01862403191626072, -0.01026185043156147, 0.012228069826960564, 0.014339045621454716, 0.015553971752524376, 0.013001949526369572, -0.007645132020115852, -0.00639211805537343, -0.0063756187446415424, -0.0034677130170166492, -0.011396142654120922, 0.020866069942712784, -0.00733130844309926, 0.023488231003284454, -0.001964267110452056, 0.018489714711904526, 0.01412450522184372, 0.0002865079150069505, -0.006452455185353756, 0.014551582746207714, 0.018790079280734062, -0.00025043528876267374, 0.0034248598385602236, -0.0018348093144595623, 0.02034156210720539, 0.015346143394708633, 0.005346070975065231, -0.0002930450136773288, -0.003914728295058012, 0.021246228367090225, 0.02445051074028015, -0.00290484051220119, 0.003996734507381916, 0.0092019597068429, 0.01635659672319889, 0.004338287748396397, 0.018836667761206627, -0.009230976924300194, -0.003062704810872674, -0.0052479468286037445, -0.007526426110416651, 0.0038484663236886263, 0.019533568993210793, -0.0010801543248817325, -0.0061416421085596085, 0.011987521313130856, 0.01780695654451847, 0.019149569794535637, -0.004568901378661394, 0.007459798827767372, -0.01017397828400135, 0.0042220489121973515, -0.0006477186689153314, -0.01223809365183115, 0.012547241523861885, 0.02076669968664646, -0.008049655705690384, -0.004514727741479874, 0.0022445684298872948, 0.016818325966596603, -0.003614424029365182, 0.02270643040537834, 0.015697937458753586, 0.0009623998194001615, 0.01903817057609558, -0.0028389485087245703, 0.0006503264885395765, -0.00016181691898964345, 0.0010522787924855947, -0.007259911857545376, 0.012204266153275967, -0.001006224425509572, 0.011356407776474953, -0.007477040868252516, 0.016339896246790886, -0.002956073498353362, 0.023722825571894646, 0.006942735519260168, 0.012793405912816525, -0.0069784196093678474, 0.00458277715370059, -0.009762173518538475, 0.00044974213233217597, 0.0053783562034368515, 0.010253272950649261, 0.00963576789945364, 0.0006942292675375938, -0.008897162973880768, 0.02007315121591091, -0.007797618396580219, -0.008185270242393017, -0.005310021806508303, 0.008325076662003994, 0.014662805944681168, -0.0018307450227439404, -0.0022989839781075716, -0.01055074017494917, -0.011610242538154125, 0.006856066640466452, 0.00654258206486702, -0.0179392509162426, -0.003964013885706663, 0.0013830846874043345, 0.00634815264493227, 0.013371039181947708, 0.012127820402383804, 0.004282093141227961, 0.020412219688296318, -0.011858314275741577, -0.008169234730303288, 0.01981213316321373, 0.004530512727797031, 0.013756719417870045, 0.007944909855723381, 0.014017093926668167, -0.01765286922454834, -0.011044750921428204, -0.0031210414599627256, 0.008610918186604977, 0.01585998199880123, 0.01260985154658556, 0.021111974492669106, 0.002975019160658121, -0.002160696079954505, -0.011698568239808083, 0.023173527792096138, -0.00975909922271967, -0.0014526135055348277, 0.008606654591858387, -0.00760131748393178, -0.004345737863332033, -0.00688565568998456, 0.009524693712592125, -0.015334195457398891, -0.0024067433550953865, 0.01617397367954254, -0.004717138130217791, 0.01995973289012909, 0.008928426541388035, -0.008104096166789532, -0.006006320472806692, 0.02042827568948269, 0.0009553177515044808, -0.008474446833133698, 0.018328942358493805, 0.02044083923101425, -0.009716864675283432, 0.0018546551000326872, -0.01013235654681921, 0.002362494822591543, -0.0018169626127928495, 0.00921877846121788, 0.007392775733023882, 0.0010439686011523008, 0.001023110351525247, 0.01799199916422367, 0.014156561344861984, 0.002957138465717435, 0.013123304583132267, 0.011961017735302448, -0.014774664305150509, 0.011131376959383488, -0.005608110688626766, 0.0033440575934946537, 0.012019678950309753, -0.008647915907204151, -0.010095699690282345, -0.012903964146971703, -0.007639074698090553, 0.006041028071194887, -0.006904512643814087, -0.012623609974980354, -0.0012409815099090338, -0.00526829669252038, 0.0077169667929410934, 0.02047085575759411, -0.006928132381290197, 0.013454947620630264, -0.014342187903821468, 0.0011403695680201054, 0.0078009553253650665, 0.00637835543602705, -0.004234470427036285, 0.0020199164282530546, -0.011296592652797699, -0.0004688394838012755, 0.004119744058698416, 0.00742405466735363, -0.0072222622111439705, -0.00887480191886425, -0.010976573452353477, 0.002876506419852376, -0.017777660861611366, -0.023813625797629356, -0.01011055801063776, -0.021654309704899788, -0.01794467680156231, -0.0032870538998395205, -0.004539662040770054, -0.024139346554875374, -0.009563261643052101, -0.0018143681809306145, 0.004425256047397852, -0.005263317842036486, -0.0005540417623706162, 0.006229530554264784, -0.0071351183578372, -0.0024714856408536434, 0.013258388265967369, -3.284930426161736e-05, 0.012570710852742195, -0.016668017953634262, -0.003308108076453209, -0.0015931128291413188, 0.02587607502937317, 0.016570406034588814, 0.007975508458912373, 0.01270724181085825, -0.005413142032921314, -0.008148381486535072, -0.0030063011217862368, 0.011267249472439289, -0.01582704298198223, -0.012864640913903713, 0.005190271884202957, -0.0015923179453238845, -0.018892979249358177, -0.019226321950554848, -0.022102946415543556, -0.02312963455915451, -0.006018547341227531, -0.0024590243119746447, -0.0033782226964831352, 0.006172701716423035, -0.018882745876908302, -0.004702940583229065, 0.007630936801433563, 0.0010161255486309528, 0.0018599487375468016, -0.002493683947250247, 0.009000744670629501, 0.022989260032773018, -0.002917985897511244, 0.00018694093159865588, -0.015692176297307014, 0.019322119653224945, 0.0013136952184140682, 0.00204854947514832, 0.019254127517342567, 0.00975564680993557, -0.004520385526120663, 0.01101703755557537, -0.001563763595186174, -0.010425634682178497, -0.008097407408058643, -0.009326855652034283, -0.018586503341794014, -0.016367638483643532, -0.009573126211762428, -0.021486764773726463, -0.011643249541521072, -0.015096021816134453, -0.014947169460356236, 0.0010385655332356691, -0.013815108686685562, 0.004508609883487225, -0.020548466593027115, -0.02044455148279667, 0.012191932648420334, 0.008154578506946564, -0.010220159776508808, 0.0036342605017125607, -0.0007612271001562476, -0.008804040029644966, 0.016553061082959175, -0.007945097051560879, -0.015849146991968155, 0.0062884557992219925, 0.020809616893529892, 0.021362589672207832, 0.00018918616115115583, 0.016021443530917168, -0.0044977664947509766, -0.004742740653455257, -0.0025169646833091974, -0.015614664182066917, -0.02703617699444294, -0.013451138511300087, -0.020425941795110703, -0.013403739780187607, -0.004266874399036169, -0.023554014042019844, -0.008931916207075119, -0.01679901033639908, -0.025442073121666908, -0.03060196153819561, -0.02541065774857998, -0.01813698001205921, -0.021502869203686714, -0.019488029181957245, -0.0007307541673071682, -0.00899492111057043, -0.007090454455465078, 0.009038935415446758, 0.007149059325456619, -0.000802192313130945, -0.008502958342432976, 0.012029526755213737, -0.006161325145512819, -0.009194199927151203, 0.012102387845516205, 0.01805553212761879, 0.016963660717010498, -0.0014621843583881855, 0.013957913033664227, 0.0016938010230660439, -0.011228227987885475, 0.006320891436189413, -0.02094215340912342, -0.02326354943215847, -0.03225128725171089, -0.03324044495820999, -0.03393987938761711, -0.017607277259230614, -0.01908242516219616, -0.023661507293581963, -0.012913089245557785, -0.0006559065077453852, -0.005383115727454424, -0.0038485031109303236, -0.01183123979717493, -0.015546421520411968, -0.021381840109825134, 0.001201153383590281, 0.0019418756710365415, 0.022763406857848167, 0.015616021119058132, 0.0175206009298563, 0.005705550778657198, 0.009623575024306774, 0.018521863967180252, 0.01645425334572792, 0.0162070132791996, 0.020142311230301857, 0.0045416527427732944, 0.019864065572619438, -0.013654246926307678, -0.007870977744460106, -0.0027549266815185547, -0.00822905357927084, 0.008115990087389946, -0.02546941302716732, -0.012654772028326988, -0.022407788783311844, -0.03507847711443901, -0.0043980516493320465, -0.030535053461790085, -0.007538875099271536, -0.0018038677517324686, -0.014492063783109188, -0.006372020114213228, 0.0016133850440382957, 0.004576672334223986, -0.010759630240499973, -0.015505990944802761, 0.0005532455397769809, 0.013120106421411037, -0.0069336784072220325, 0.013781921938061714, -0.0007790930685587227, 0.009339173324406147, -0.00856774765998125, -0.00041603963472880423, 0.009300027042627335, -0.0005317062023095787, 0.008123601786792278, 0.007157996296882629, -0.0010179243981838226, 0.013424907810986042, 0.017068710178136826, -0.014907561242580414, 0.0002078943798551336, -0.018631119281053543, 0.0024369896855205297, -0.005702246446162462, 0.002246476709842682, -0.0037445910274982452, -0.008621002547442913, -0.0029898574575781822, -0.007869982160627842, -0.026219340041279793, -0.013912910595536232, -0.009837562218308449, -0.008826316334307194, -0.01012304425239563, 0.006111178547143936, 0.017875535413622856, 0.0005169006763026118, 0.009229413233697414, 0.006931097246706486, -0.003229611786082387, -0.008573954924941063, 0.01646082103252411, 0.008663762360811234, 0.007444289978593588, 0.00498547637835145, 0.01308081392198801, -0.0028932886198163033, 0.009219836443662643, 0.007720883470028639, 0.020030304789543152, 0.019318703562021255, 0.009611357003450394, 0.004773844964802265, -0.005901705473661423, 0.0033323776442557573, -0.008601711131632328, -0.0033673718571662903, -0.008644536137580872, 0.006056761834770441, -0.02196936495602131, -0.002090486465021968, -0.022323239594697952, -0.0004918554332107306, 0.0015260892687365413, -0.011147954501211643, -0.01157446950674057, 0.012065262533724308, 0.014766222797334194, -0.0062583256512880325, 0.025666503235697746, 0.025266030803322792, 0.007616378832608461, 0.0072785839438438416, 0.005390311125665903, -0.015702378004789352, 0.006050871219485998, 0.004878233186900616, -0.013812013901770115, -0.00867315474897623, 0.0017844195244833827, 0.010225005447864532, 0.010549847967922688, 0.01636972837150097, 0.023322319611907005, 0.016602300107479095, -0.004413310904055834, 0.01415694784373045, 0.001521037076599896, -0.00046674019540660083, 0.01697361283004284, -0.013416098430752754, 8.740611519897357e-05, 0.010791901499032974, -0.006650212686508894, 0.016733454540371895, 0.013454867526888847, 0.0054968311451375484, 0.01966027170419693, 0.009723684750497341, 0.01824238710105419, 0.017742784693837166, 0.006876669824123383, 0.02664894051849842, 0.015517112798988819, 0.013011467643082142, 0.010285873897373676, 0.0031243774574249983, 0.013002480380237103, 0.012389322742819786, 0.00326483859680593, 0.018122771754860878, 0.0029307659715414047, 0.000745600089430809, 0.015668779611587524, 0.015284485183656216, 0.0025672835763543844, 0.020859742537140846, -0.007248891983181238, -0.003428946016356349, 0.015951426699757576, 0.01965528540313244, -0.0015889593632891774, 0.009144244715571404, 0.018240250647068024, -0.0011553600197657943, 0.02556394785642624, -0.004927511792629957, 0.0033147649373859167, 0.02404574677348137, 0.019738920032978058, 0.00714865792542696, 0.011151180602610111, 0.024460699409246445, 0.01715553179383278, 0.02111058309674263, 0.014193962328135967, -0.007321860641241074, 0.004715601447969675, 0.009863336570560932, 0.01996713876724243, -0.010671480558812618, 0.013500083237886429, 0.0175724308937788, -0.0010439138859510422, -0.0053364248014986515, 0.01316364947706461, 0.011521429754793644, 0.006048868410289288, -0.0040274327620863914, 0.021469201892614365, 0.01914108544588089, 0.023447193205356598, 0.02083553560078144, 0.01068384200334549, -0.010376827791333199, 0.01319202221930027, -0.00246845418587327, 0.010611495934426785, 0.016176732257008553, 0.001293647801503539, -0.0047490233555436134, -0.007960677146911621, 0.005751952063292265, 0.014735840260982513, 0.013326311483979225, 0.007612281478941441, 0.019988201558589935, -0.007093825377523899, -0.004938840866088867, 0.017224611714482307, 0.012137499637901783, 0.0081411674618721, 0.009483245201408863, 0.017276862636208534, 0.020283441990613937, 0.021528739482164383, -0.010053240694105625, 0.021449925377964973, -0.003954691346734762, 0.023511052131652832, -0.0019570039585232735, 0.01637876220047474, -0.011180106550455093, 0.014178848825395107, 0.015543073415756226, -0.0016313333762809634, 0.012601342052221298, 0.004873234312981367, 0.002151248510926962, 0.006005401723086834, -0.0009108330705203116, 0.004147116094827652, -0.003396339016035199, 0.01840762421488762, -0.0024967154022306204, 0.01931433379650116, -0.006850904785096645, -0.008780146948993206, 0.007805959787219763, 0.015424924902617931, 0.004595175385475159, -0.00222814385779202, 0.0005503763677552342, 0.004901327658444643, 0.022481177002191544, -5.285286533762701e-05, -0.0027873911894857883, -0.01485866867005825, -0.004841722548007965, 0.009082678705453873, 0.023008424788713455, 0.012579243630170822, 0.015003412961959839, 0.00363211240619421, 0.020912686362862587, 0.018767409026622772, 0.016326934099197388, -0.009039650671184063, 5.9857888118131086e-05, 0.015900347381830215, 0.018830636516213417, 0.0016385739436373115, 0.00012976548168808222, 0.006524527445435524, 0.01766807772219181, 0.009845771826803684, 0.021306607872247696, 0.01526042353361845, -0.008555648848414421, -0.0012143135536462069, -0.00011256467405473813, -0.007500200066715479, -0.013167100958526134, 0.016812333837151527, 0.007112773135304451, 0.025817425921559334, 0.008096112869679928, 0.006269844248890877, -0.015042069368064404, 0.002394432434812188, -0.0004982134560123086, -0.007613156456500292, -0.008358565159142017, -0.010331344790756702, -0.0010651599150151014, -0.004677392076700926, 0.011803856119513512, 0.003299388336017728, 0.02242353744804859, 0.0019490780541673303, 0.005759026389569044, 0.020714329555630684, 0.021962344646453857, 0.011705411598086357, -0.008790742605924606, 0.013550855219364166, 0.015533371828496456, 0.006552212871611118, -0.007626952137798071, 0.007415265776216984, 0.004780280403792858, 0.005090381950139999, -0.015887128189206123, -0.004907879512757063, -0.007525316439568996, -0.01301538199186325, -0.004226840566843748, -0.006808956153690815, -0.003440671134740114, -0.0026434841565787792, -0.009498875588178635, 0.01200872752815485, 0.008300727233290672, 0.008740200661122799, 0.01430209819227457, 0.00515214167535305, 0.011632493697106838, 0.0037550022825598717, 0.010768258944153786, 0.01580946333706379, 0.01597127504646778, 0.0038246309850364923, -0.008410404436290264, 0.01673833839595318, 0.018774742260575294, 0.017359165474772453, 0.003911274950951338, 0.009002367034554482, -0.0045350342988967896, 0.009256364777684212, -0.000617436075117439, -0.01454699132591486, -0.00952801201492548, 0.010458461008965969, -0.015985628589987755, -0.0008369043935090303, 0.0033360912930220366, 0.02151494100689888, 0.019569534808397293, -0.00040980620542541146, 0.006327800452709198, 0.010798181407153606, 0.011482068337500095, -0.01981617510318756, -0.008584978058934212, 0.010687173344194889, -0.01220675278455019, 0.012190550565719604, -0.0069557782262563705, 0.01006330270320177, 0.009426867589354515, -0.010147993452847004, -0.007097375579178333, -0.016146844252943993, -0.006489135790616274, -0.002188362879678607, 0.0003908028011210263, 0.004323215689510107, -0.004368702415376902, -0.002344384090974927, 0.013278276659548283, -0.0038851501885801554, 0.003254943760111928, -0.016405140981078148, 0.015193993225693703, -0.006597856990993023, 0.007053450681269169, -0.0018513560062274337, 0.0018347481964156032, 0.007295805495232344, 0.014798911288380623, 0.0081002376973629, -0.009129376150667667, 0.006224098615348339, -0.0016080772038549185, -0.013640003278851509, -0.019226308912038803, -0.005346943624317646, -0.0036402868572622538, -0.010540395975112915, -0.0062570893205702305, -0.011093965731561184, 0.01601201295852661, -0.012158164754509926, 0.008054648526012897, -0.0058432891964912415, 0.011981657706201077, 0.00547834113240242, 0.011813867837190628, 0.017246074974536896, 0.01577906496822834, -0.010271340608596802, 0.012828052043914795, -0.019066832959651947, -0.0037990971468389034, -0.017247386276721954, -0.0032395769376307726, 0.010929140262305737, -0.01567072793841362, -0.01447894424200058, -0.015771565958857536, 0.007174932863563299, 0.012459705583751202, 0.0036257863976061344, 0.022947188466787338, -0.010682962834835052, -0.020444825291633606, 0.001953001250512898, -0.001931543811224401, -0.01665489748120308, 0.0032857509795576334, -0.013370146974921227, -0.018075598403811455, -0.012268969789147377, 0.011505618691444397, 0.0026525191497057676, -0.014524395577609539, -0.020208097994327545, -0.006667150184512138, 0.011047787964344025, -0.011960559524595737, 0.011467412114143372, -0.014323539100587368, -0.002471368294209242, -0.004520981572568417, -0.00016139174113050103, 0.0066679916344583035, -0.006943355314433575, -0.006427444983273745, -0.007879650220274925, -0.011214645579457283, -0.0037894274573773146, 0.004179892595857382, 0.019804565235972404, 0.0010354813421145082, 0.03001442179083824, 0.011667189188301563, 0.0014975117519497871, -0.0005696058506146073, -0.008318761363625526, -0.005789557471871376, 0.01017233170568943, -0.000864828412886709, -0.0013034529983997345, -0.017357883974909782, -0.009580777026712894, -0.0014950430486351252, -0.012727711349725723, -0.018700888380408287, -0.016121430322527885, -0.018079141154885292, 0.012043668888509274, -0.020542101934552193, -0.007680134382098913, 0.01326496060937643, -0.020914988592267036, -0.024031542241573334, -0.017171498388051987, 0.002984439954161644, 0.00651453947648406, -0.013764133676886559, -0.021396443247795105, -0.020261775702238083, -0.009864378720521927, 0.004326561465859413, 0.02455911971628666, 0.029305249452590942, 0.024524595588445663, 0.012512780725955963, 0.016451582312583923, -0.023946236819028854, 0.003006149549037218, -0.01639525219798088, 0.000429687526775524, 0.0078234001994133, -0.0004282111767679453, -0.013505620881915092, -0.013857901096343994, -0.007319626398384571, 0.003964575938880444, -0.01575188897550106, -0.01594444550573826, -0.0199176836758852, -0.010898645967245102, -0.010334803722798824, -0.008165410719811916, -0.025114960968494415, -0.005791862960904837, -0.01931137964129448, 0.003445443231612444, -0.008143248967826366, -0.022558089345693588, -0.010621065273880959, -0.023358214646577835, 0.0028200766537338495, -0.0036907647736370564, 0.00865513738244772, 0.014551299624145031, 0.0322161540389061, 0.016244258731603622, -0.0038073421455919743, 0.00631754519417882, -0.003983697388321161, -0.011894075199961662, -0.012194463983178139, -0.019177524372935295, 0.009272843599319458, -0.004650540184229612, -0.016786104068160057, -0.00790967047214508, -0.0004661580314859748, 0.0017624897882342339, 0.0022846644278615713, -0.017160486429929733, -0.017544882372021675, -0.0008724528597667813, -0.005324209108948708, -0.014735143631696701, -0.0017889180453494191, 0.001488130772486329, 0.001726689049974084, -0.006338526960462332, -0.01836293749511242, -0.00171088264323771, 0.005285123363137245, -0.023004241287708282, -0.014960186555981636, -0.012346693314611912, -0.0036391778849065304, 0.01508206408470869, 0.003738103900104761, 0.022816790267825127, 0.029643265530467033, -0.013291404582560062, -0.00721241207793355, 0.006406222935765982, 0.0013657663948833942, 0.006340237334370613, -0.01609918847680092, 0.0035208261106163263, -0.007005768362432718, 0.006099001970142126, -0.013116826303303242, -0.026057111099362373, -0.0004409011162351817, -0.007727404590696096, -0.025469843298196793, -0.004863759037107229, -0.017625775188207626, -0.0030178187880665064, -8.195300324587151e-05, -0.012210959568619728, 0.007710346486419439, -0.017954176291823387, -0.003700028173625469, 0.0010601943358778954, 0.009568099863827229, -0.016452370211482048, 0.0026073004119098186, -0.008968467824161053, 0.011020379140973091, 0.0033692659344524145, 0.024814818054437637, 0.01605599746108055, 0.007680613547563553, 0.010535928420722485, 0.008055473677814007, 0.0018035786924883723, 0.010573779232800007, -0.008848393335938454, 0.003650990314781666, -0.012107216753065586, -0.020238669589161873, -0.01695287972688675, -0.010786294937133789, -0.009271953254938126, 0.0007635850342921913, -4.330999217927456e-05, 0.0007875423179939389, -0.016083410009741783, 0.006374593824148178, -0.022417869418859482, -0.007452369201928377, 0.009464958682656288, -0.0013442637864500284, 0.005311313085258007, -0.010311586782336235, -0.008753404952585697, 0.016019854694604874, -0.01029316708445549, -0.016785848885774612, -0.009940864518284798, 0.008033483289182186, 0.023017458617687225, -0.00037054080166853964, -0.0022636086214333773, 0.021465802565217018, 0.0014813384041190147, -0.008982500061392784, -0.0014682136243209243, -0.018733574077486992, -0.0038041877560317516, 0.01315957959741354, -0.013921526260674, -0.006172511260956526, -0.01584400236606598, -0.0057586547918617725, 0.005528770387172699, -0.004572785459458828, -0.007887625135481358, -0.009042095392942429, -0.014006503857672215, 0.009170150384306908, -0.003078003181144595, -0.01886405237019062, 0.0016252330970019102, 0.01056959480047226, -0.0018158993916586041, 0.017350060865283012, -0.007396786008030176, 0.009437605738639832, 0.001925932359881699, -0.0031925607472658157, 0.02118506468832493, -0.008003526367247105, 0.018775926902890205, 0.009044358506798744, 0.01911379210650921, 0.002062583575025201, -0.003482208587229252, 0.011769820936024189, 0.01593216322362423, -0.013547802343964577, 0.010084565728902817, -0.0014405862893909216, 0.011015226133167744, -0.014427815563976765, -0.007331890054047108, -0.009645535610616207, 0.009433882310986519, -0.007396463304758072, 0.006292194128036499, 0.00944758765399456, -0.007623848505318165, -0.01796712540090084, 0.0004364844353403896, -0.01268666423857212, -0.001292496221140027, -0.0038110995665192604, 0.0017639042343944311, -0.013105771504342556, 0.01714235357940197, -0.0014253120170906186, -0.010812151245772839, -0.009093833155930042, 0.010840545408427715, 0.005259419325739145, 0.02085253968834877, 0.01184912957251072, 0.02121344767510891, 0.0007491671713069081, 0.0009990273974835873, 0.014380387961864471, 0.0031148476991802454, -0.012591294012963772, 0.012093834578990936, -0.00018025838653557003, 7.054350135149434e-06, -0.010857767425477505, -0.008746517822146416, 0.00527222640812397, 0.0035431121941655874, -0.01083715632557869, 0.014604147523641586, -0.005757561884820461, 0.009102746844291687, 0.005501350853592157, -0.014263669028878212, 0.0023403114173561335, 0.005654278211295605, 0.018608633428812027, 0.0023232707753777504, -0.00354451360180974, -0.012571541592478752, 0.005449318792670965, 0.017397606745362282, 0.0036648735404014587, 0.021288687363266945, -0.012463239952921867, 0.00015832966892048717, 0.01733643189072609, -0.015440632589161396, 0.0023209552746266127, -0.00037273866473697126, 0.012227438390254974, 0.0022512960713356733, -0.004261533729732037, -0.014041256159543991, 0.00892817322164774, 0.004973185248672962, -0.009634326212108135, 0.012026800774037838, 0.013667317107319832, 0.00714868912473321, 0.00118195207323879, -0.00605166656896472, -0.004251697566360235, 0.010901577770709991, -0.01278474647551775, -0.016027340665459633, 0.008792014792561531, 0.0005618356517516077, 0.006202563643455505, -0.0004613729252014309, -0.015361659228801727, -0.012358256615698338, -0.0021882527507841587, 0.0156693197786808, -0.005927480291575193, 0.00891200453042984, -0.019731424748897552, -0.012915972620248795, -0.02145490050315857, -0.017753440886735916, -0.011795595288276672, 0.005064705852419138, -0.007986362092196941, 0.0013433980057016015, -0.0008825223194435239, -0.012216015718877316, -0.006907633505761623, 0.009426362812519073, -0.0015834597870707512, -0.008374073542654514, 0.01297807041555643, -0.006759150419384241, -0.015095262788236141, -0.006050943862646818, -0.0039003470446914434, 0.009227519854903221, 0.0002277557214256376, 0.006190738640725613, 0.0072412085719406605, 0.0009146503871306777, 0.019082743674516678, 0.011420084163546562, -0.007776947226375341, 0.017923863604664803, 0.01884731836616993, 0.01844545640051365, -0.005602855700999498, 0.012050955556333065, -0.007112741004675627, -0.020758286118507385, -0.017203234136104584, -0.006447214633226395, -0.01360170915722847, -0.015913663432002068, -0.004331349860876799, -0.01636510156095028, 0.009515929035842419, -0.009252233430743217, -0.010185705497860909, 0.01444031298160553, 0.01877642422914505, -0.00877588614821434, 0.011927131563425064, -0.010779420845210552, -0.015378995798528194, -0.0018638623878359795, 0.0010008309036493301, 0.0034091153647750616, -0.006706109270453453, -0.0007702810689806938, 0.01255012210458517, 0.001367534976452589, 0.016702234745025635, -0.003351805731654167, 0.010525863617658615, 0.014053067192435265, -0.005676595959812403, -0.015100875869393349, 0.014487514272332191, 0.00851278007030487, -0.011144466698169708, -0.005365322344005108, 0.0011514017824083567, 0.004894586279988289, -0.01043995562940836, 0.007073043379932642, -0.016910143196582794, -0.004116264637559652, -0.017704704776406288, 0.0012153786374256015, -0.006503941956907511, 0.006131220608949661, -0.00013674036017619073, 0.017273224890232086, 0.018155377358198166, -0.0002787945559248328, -0.015307458117604256, 0.007968763820827007, 0.008853359147906303, 0.015363731421530247, -0.016913319006562233, 0.01622341386973858, 0.003013746580109, -0.005314182490110397, 0.013891330920159817, -0.01271635852754116, 0.012355269864201546, 0.013200527988374233, -0.012965738773345947, -0.009420386515557766, 2.3430589862982742e-05, -0.01327818538993597, -0.017349043861031532, 0.014402898959815502, -0.02415364421904087, -0.013995129615068436, 0.0027978145517408848, 0.008178473450243473, -0.00286134984344244, 0.014961114153265953, 0.002710578730329871, 0.017135733738541603, -0.0029762452468276024, 0.013294612057507038, -0.014437336474657059, -0.006732096429914236, -0.01155564934015274, 0.009004654362797737, 0.013155768625438213, -0.002728190738707781, 0.005614318884909153, -0.014840567484498024, -0.004214984830468893, 0.00413203751668334, 0.018876468762755394, 0.010606199502944946, 0.014220804907381535, 0.007477186620235443, 0.01469222642481327, 0.006038673222064972, -0.00044052681187167764, -0.007958917878568172, -0.00207699928432703, 0.009531490504741669, -0.012878531590104103, 0.009982102550566196, 0.0006608948460780084, -0.02039012871682644, 0.01127273216843605, 0.002768387319520116, -0.014316711574792862, -0.010580375790596008, -0.016461841762065887, 0.0023214039392769337, 0.010679515078663826, -0.004793210886418819, -0.012628019787371159, 0.013221312314271927, 0.0004047307593282312, -0.00731845386326313, 0.009255866520106792, -0.003117581130936742, -0.013144729658961296, -0.005993382073938847, -0.012888545170426369, -0.01079490315169096, 0.0019351928494870663, 0.01818709261715412, -0.012911144644021988, 0.013022211380302906, 0.0032130584586411715, 0.0024160444736480713, 0.014748536981642246, 0.008398991078138351, -0.006800886709243059, -0.0054358490742743015, 0.003974256105720997, 0.010373170487582684, -0.01386332418769598, -0.0006745070568285882, -0.01153375394642353, 0.0018808008171617985, 0.017869479954242706, 0.008490491658449173, -0.007355954963713884, 0.0007926218095235527, -0.0036660705227404833, 0.010522744618356228, 0.0034965628292411566, 0.014105826616287231, 0.0055079651065170765, 0.008983321487903595, -0.003253060858696699, -0.013066423125565052, 0.0041542453691363335, 0.001133724581450224, 0.01067869272083044, -0.011523500084877014, 0.013349304907023907, -0.0049658240750432014, -0.003341137431561947, -0.009620150551199913, -0.01551580149680376, -0.00970209389925003, 0.010791592299938202, 0.00014552300854120404, -0.007874750532209873, -0.0011841722298413515, 0.01181880384683609, -0.007483979221433401, -0.021440943703055382, -0.006815012544393539, -0.0021962241735309362, -0.012179667130112648, -0.012774238362908363, -0.003996442072093487, -0.005092619452625513, -0.01405476126819849, -0.013923765160143375, 0.0039569661021232605, -0.020783672109246254, -0.008217941969633102, 0.007985786534845829, 0.015134291723370552, -0.0174697432667017, -0.007177223451435566, -0.016171284019947052, 0.01387515664100647, -0.003953519277274609, 0.013484048657119274, 0.014277733862400055, -0.01091322023421526, -0.0008212392567656934, 0.008635145612061024, 0.00435996288433671, 0.010924329981207848, 0.009646102786064148, 0.012074656784534454, -0.004577005747705698, -0.011049479246139526, -0.016468089073896408, -0.018208779394626617, 0.010690436698496342, -0.007476838305592537, -0.003144592512398958, -0.008407206274569035, 0.01956433802843094, -0.016573259606957436, -0.0008429299341514707, -0.0091469157487154, 0.012797826901078224, -0.021582629531621933, 0.0007004922372289002, -0.006675029173493385, 0.008528919890522957, -0.010546178556978703, -0.016846053302288055, 0.00045583234168589115, -0.003194823395460844, 0.00014500792894978076, -0.009850041940808296, -0.018777724355459213, -0.0011312902206555009, 0.004181885160505772, -0.002469128929078579, -0.010897858068346977, 0.00900794006884098, -0.008921811357140541, -0.006390878465026617, -0.01531981024891138, -0.016380131244659424, 0.0112804239615798, 0.009322930127382278, -0.008643819019198418, -0.004150752443820238, -0.023952731862664223, -0.00027693950687535107, 0.002045300556346774, -0.013174564577639103, 0.005050999112427235, 0.006025273352861404, -0.003576037473976612, -0.019762543961405754, 0.011042982339859009, -0.013194681145250797, 0.010664761066436768, -0.0020878089126199484, -0.00919951219111681, -0.016760146245360374, -0.00014867867866996676, -0.010746022686362267, -0.01649397425353527, -0.006725648418068886, -6.116624717833474e-05, 0.007955040782690048, -0.002453770022839308, 0.010826414451003075, -0.015313686802983284, 0.0003861621371470392, -0.019530897960066795, 0.006164729129523039, -0.006265110336244106, -0.0063169291242957115, -0.004733962006866932, -0.009140271693468094, 0.009051592089235783, -0.018467893823981285, -0.00447920523583889, -0.0060897707007825375, 0.0024950969964265823, 0.012036370113492012, -0.02003290317952633, -0.0181526280939579, 0.003724754089489579, 0.006423373240977526, -0.0058043901808559895, 0.007473621051758528, -0.006881698966026306, -0.009153307415544987, 0.00954779889434576, 0.004103435203433037, -0.0065468596294522285, -0.000261185021372512, -0.022113079205155373, 0.00245100911706686, 0.005242133513092995, -0.022335531190037727, -0.023935601115226746, -0.02033224143087864, -0.021895447745919228, 0.0064898463897407055, 