{"linear.weight": [[0.014863535761833191, -0.02497021295130253, 0.025844339281320572, 0.0195862278342247, -0.017493240535259247, 0.006980270147323608, 0.031337495893239975, 0.02999119833111763, -0.012526227161288261, -0.033763911575078964, -0.035618435591459274, -0.004542320966720581, 0.03133847564458847, -0.018122822046279907, -0.011558453552424908, -0.021539147943258286, -0.005780527368187904, -0.02647746540606022, -0.028019603341817856, -0.001608777791261673, 0.029345598071813583, -0.03433753550052643, 0.007342204451560974, -0.0030846484005451202, -0.006551716476678848, -0.011552972719073296, 0.030515041202306747, 0.0031534098088741302, 0.03516924008727074, -0.026055172085762024, 0.005801890045404434, -0.029977377504110336, -0.012494968250393867, 0.023830104619264603, 0.02851777710020542, 0.004124343395233154, 0.0070052617229521275, 0.027781976386904716, -0.03507132828235626, -0.02415640652179718, 0.01598661206662655, -0.02429507113993168, 0.031106451526284218, -0.031232798472046852, 0.009686589241027832, 0.029637916013598442, -0.007713192608207464, -0.015338311903178692, 0.02734864130616188, -0.02038320153951645, -0.01836012303829193, -0.0043732523918151855, -0.006465418264269829, 0.03540406748652458, 0.016736213117837906, -0.0212247371673584, -0.012004133313894272, -0.0015832260251045227, 0.007900513708591461, -0.022200273349881172, 0.03192479908466339, -0.0006866379990242422, 0.009467996656894684, -0.014998338185250759, -0.02931501343846321, -0.013329709880053997, -0.024906402453780174, -0.01289503276348114, 0.00502097187563777, -0.05373426526784897, -0.028080815449357033, -0.04275718331336975, -0.027866749092936516, -0.05813299119472504, -0.05078912898898125, -0.03616555780172348, -0.003943254239857197, -0.010287592187523842, 0.008412142284214497, -0.02715441584587097, 0.012403804808855057, 0.0331377275288105, 0.014471635222434998, 0.02859509363770485, 0.027016032487154007, 0.021756544709205627, 0.02358117699623108, -0.02933165803551674, 0.025509066879749298, 0.005615973845124245, 0.019569188356399536, -0.04334903880953789, 0.013822946697473526, -0.027812477201223373, -0.020022930577397346, -0.05056365951895714, -0.05933155491948128, -0.047295186668634415, -0.04352230206131935, -0.032970257103443146, -0.022867707535624504, -0.067286916077137, -0.08513393253087997, -0.08612450212240219, -0.09065452218055725, -0.04099944606423378, -0.013828503899276257, -0.014614157378673553, -0.0004242827999405563, -0.010388359427452087, -0.03318680822849274, -0.021421561017632484, -0.022362906485795975, 0.019787011668086052, -0.0290201585739851, 0.029388710856437683, -0.019242219626903534, -0.005744548514485359, -0.0009840271668508649, 0.0031237027142196894, -0.04889099672436714, -0.043014731258153915, -0.0131144467741251, -0.014383401721715927, -0.02187804877758026, -0.012527651153504848, -0.014864945784211159, 0.02090095356106758, -0.045147381722927094, 0.0005623503238894045, -0.06832865625619888, -0.06663648039102554, -0.08475939184427261, -0.04670598357915878, -0.028459317982196808, -0.0318533293902874, -0.04230910539627075, -0.004489518236368895, 0.02524511143565178, -0.0028270166367292404, 0.0034812986850738525, -0.013519428670406342, -0.022341759875416756, 0.024639423936605453, 0.021781694144010544, -0.029251599684357643, -0.06548387557268143, -0.053712740540504456, -0.024661138653755188, -0.04513443633913994, 0.005583816207945347, 0.02807626686990261, 0.04353614151477814, 0.09533200412988663, 0.1716087907552719, 0.14896194636821747, 0.1249481588602066, 0.18411646783351898, 0.14407487213611603, 0.06809380650520325, -0.005531493108719587, 0.016907496377825737, -0.003790923859924078, -0.07386251538991928, -0.051281511783599854, -0.03429119661450386, 0.018672892823815346, 0.011621084995567799, 0.0022819042205810547, 0.004551407881081104, 0.013269171118736267, -0.01624271832406521, 0.0024399503599852324, -0.04116864874958992, -0.04012639448046684, -0.04612444341182709, -0.04255356267094612, -0.10959464311599731, 0.013693182729184628, -0.0012052804231643677, 0.038187190890312195, 0.11883179843425751, 0.11233124881982803, 0.09765052050352097, 0.1582581251859665, 0.16728536784648895, 0.19896171987056732, 0.1298915445804596, 0.07526803016662598, 0.10764975100755692, 0.1040135845541954, -0.03949512168765068, -0.09817919135093689, -0.10625580698251724, -0.03040510229766369, 0.006096877157688141, -0.02769378200173378, 0.01095737237483263, -0.0008447380969300866, 0.0027373558841645718, 0.005348244681954384, -0.0658305361866951, -0.04025087133049965, -0.07028863579034805, -0.11054134368896484, -0.05331789702177048, 0.023812219500541687, 0.0274466872215271, 0.017363492399454117, 0.08929555118083954, 0.07207097113132477, 0.09951009601354599, 0.14733251929283142, 0.2330007404088974, 0.1753854602575302, 0.14677345752716064, 0.049407150596380234, 0.09396517276763916, 0.115278460085392, 0.050419338047504425, -0.06109537556767464, -0.09559683501720428, -0.013019423000514507, -0.014320836402475834, -0.013552152551710606, -0.021811310201883316, 0.023492058739066124, -0.0061743916012346745, -0.04445904865860939, -0.03968396782875061, -0.04116831719875336, -0.06955179572105408, -0.07161390036344528, 0.02950679138302803, 0.026103252544999123, 0.016797702759504318, 0.0392468087375164, 0.025814255699515343, 0.13188329339027405, 0.13998457789421082, 0.24010996520519257, 0.252501517534256, 0.17907339334487915, 0.11270106583833694, 0.04629220440983772, 0.06690479815006256, 0.18323643505573273, 0.16566602885723114, -0.030871093273162842, -0.12046157568693161, -0.011342493817210197, -0.016524022445082664, 0.018115121871232986, 0.031581055372953415, 0.0094619020819664, -0.02089988999068737, -0.07602448761463165, -0.06657122820615768, -0.03859294205904007, -0.08596793562173843, -0.04897977039217949, -0.02530978061258793, 0.05645158141851425, -0.01348831132054329, 0.016006510704755783, 0.12532028555870056, 0.07827955484390259, 0.033140912652015686, 0.1188848614692688, 0.24087215960025787, 0.2202235758304596, 0.14835470914840698, 0.06162819266319275, 0.052241940051317215, 0.13834422826766968, 0.22879056632518768, 0.05825761333107948, -0.10660728812217712, -0.06640051305294037, 0.013078916817903519, -0.034054093062877655, -0.010538795962929726, 0.025203542783856392, 4.5607841457240283e-05, -0.039109114557504654, -0.05345159396529198, -0.06453657895326614, -0.04605824872851372, -0.011552330106496811, -0.019070427864789963, -0.06802961975336075, 0.015178005211055279, 0.03516001999378204, 0.040585048496723175, -0.03896541893482208, -0.10705452412366867, -0.08315052092075348, 0.0888439491391182, 0.19131168723106384, 0.13237041234970093, 0.13394922018051147, 0.07333605736494064, 0.21670213341712952, 0.2715412378311157, 0.10667520761489868, -0.07406412065029144, -0.03947506472468376, -0.01749209128320217, -0.018371904268860817, -0.010103682987391949, -0.016045741736888885, -0.006779974326491356, -0.08333270996809006, -0.07544990628957748, 0.027314849197864532, -0.002372580813243985, -0.004821845795959234, -0.07025259733200073, -0.07492532581090927, -0.007677622605115175, -0.03462408483028412, -0.0383986160159111, -0.28618672490119934, -0.39989131689071655, -0.3636853098869324, -0.088071309030056, 0.013401806354522705, 0.07362282276153564, 0.1298082023859024, 0.15861831605434418, 0.2717495560646057, 0.28831106424331665, 0.19001160562038422, -0.06483212113380432, -0.015113024972379208, 0.023504294455051422, -0.021685002371668816, 0.035407163202762604, 0.02165793627500534, 0.007523954380303621, -0.09813087433576584, -0.026358211413025856, 0.05683588236570358, 0.03294404223561287, 0.018074598163366318, -0.016704827547073364, 0.01616443321108818, 0.04504571482539177, 0.045401591807603836, -0.14970697462558746, -0.4475269019603729, -0.5340301394462585, -0.5182508230209351, -0.24901458621025085, -0.04446787387132645, 0.013831790536642075, 0.04325496032834053, 0.14300468564033508, 0.26241016387939453, 0.3558792769908905, 0.24636368453502655, 0.03224525228142738, -0.03385942056775093, 0.03157360479235649, 0.025968173518776894, 0.007657814305275679, 0.018139375373721123, -0.002744913101196289, -0.06153886392712593, -0.001344068325124681, 0.17189650237560272, 0.13735297322273254, 0.09328774362802505, 0.06998865306377411, 0.13342346251010895, 0.08197234570980072, 0.029399864375591278, -0.2895231544971466, -0.5215036869049072, -0.6258649230003357, -0.5044370889663696, -0.2677023112773895, -0.05528927594423294, -0.09542161971330643, -0.09841929376125336, 0.08318404108285904, 0.26528894901275635, 0.3112626373767853, 0.1963166445493698, 0.03949012607336044, -0.016376452520489693, -0.017122790217399597, 0.033352334052324295, 0.007429506164044142, 0.00698762247338891, -0.0031000629533082247, -0.007938486523926258, 0.10178887844085693, 0.20977823436260223, 0.2056577354669571, 0.12148186564445496, 0.156166672706604, 0.14306560158729553, 0.16229389607906342, -0.023836039006710052, -0.3261764943599701, -0.5762609243392944, -0.5800079107284546, -0.5070390105247498, -0.2251700758934021, -0.07702048122882843, -0.0808660015463829, -0.019274430349469185, 0.08682869374752045, 0.22759491205215454, 0.27329474687576294, 0.2418469786643982, 0.007611101493239403, 0.015633439645171165, -0.02941419743001461, 0.012711743824183941, -0.006354521494358778, -0.016720540821552277, -0.027000971138477325, 0.02857973985373974, 0.15501613914966583, 0.13256606459617615, 0.2313501238822937, 0.1698942333459854, 0.18832235038280487, 0.2626074552536011, 0.03562826290726662, -0.17767930030822754, -0.47818708419799805, -0.6170288920402527, -0.5469115972518921, -0.40257638692855835, -0.20279386639595032, -0.048471685498952866, -0.020269498229026794, 0.06259385496377945, 0.07856810837984085, 0.17577800154685974, 0.23794929683208466, 0.17210842669010162, 0.03366871923208237, 0.0029403092339634895, -0.02049083635210991, 0.0010302942246198654, -0.01316435169428587, -0.0357985645532608, -0.020970724523067474, 0.019974663853645325, 0.2110581398010254, 0.18367135524749756, 0.18689770996570587, 0.23127275705337524, 0.21856753528118134, 0.22794802486896515, 0.034353598952293396, -0.27413132786750793, -0.5413286089897156, -0.5988296270370483, -0.44323793053627014, -0.2711585760116577, -0.048440154641866684, 0.00331127573736012, 0.021012570708990097, 0.07526719570159912, 0.1425541192293167, 0.13879212737083435, 0.1896318793296814, 0.026994528248906136, -0.058737676590681076, -0.019752126187086105, 0.01384055707603693, 0.0013595707714557648, -0.024001315236091614, -0.032493095844984055, -0.04314923286437988, -0.01729511469602585, 0.16195796430110931, 0.19431141018867493, 0.18634416162967682, 0.13269184529781342, 0.21276046335697174, 0.28888648748397827, 0.0322260782122612, -0.26975157856941223, -0.5145856738090515, -0.5102719664573669, -0.3132797181606293, -0.12904122471809387, 0.010082896798849106, 0.005087823607027531, 0.05777416005730629, 0.08788038790225983, 0.0822279080748558, 0.12907230854034424, 0.10982979834079742, 0.04362596943974495, -0.026319295167922974, -0.03167825937271118, -6.867283809697255e-05, 0.00866877380758524, 0.028342656791210175, 0.006190869491547346, -0.04436039179563522, -0.014336498454213142, 0.1317073553800583, 0.18481026589870453, 0.15262241661548615, 0.1570926159620285, 0.2403578907251358, 0.23849208652973175, 0.06045959144830704, -0.21465927362442017, -0.37026792764663696, -0.3909883499145508, -0.17451195418834686, -0.07063344120979309, 0.018543995916843414, -0.023040439933538437, -0.005533318035304546, -0.026152126491069794, 0.06990835815668106, 0.0817379280924797, 0.0003609335981309414, -0.04110344871878624, -0.04480396583676338, -0.003033817047253251, -0.03606772422790527, -0.019927646964788437, -0.015141934156417847, 0.012999755330383778, -0.021422646939754486, -0.023749465122818947, 0.06904829293489456, 0.18422110378742218, 0.18530301749706268, 0.14294636249542236, 0.2114129364490509, 0.28050944209098816, 0.2275044471025467, 0.04494955390691757, -0.15777026116847992, -0.13009954988956451, -0.08301316946744919, -0.06422194093465805, -0.02243569679558277, -0.028737127780914307, -0.03528260067105293, 0.017975900322198868, 0.07641320675611496, 0.04479828476905823, -0.02021620236337185, -0.05844851955771446, -0.006005930248647928, -0.0167550016194582, -0.005016637034714222, -0.005751967430114746, -0.004143217578530312, 0.02404027245938778, -0.03426637873053551, 0.0027527944184839725, 0.07061217725276947, 0.1251203566789627, 0.10535823553800583, 0.1066327765583992, 0.20153465867042542, 0.3089406490325928, 0.30422520637512207, 0.23700648546218872, 0.07356119900941849, 0.008662955835461617, -0.005013143643736839, -0.031055670231580734, -0.04253610223531723, -0.07323102653026581, -0.11391699314117432, -0.024008776992559433, -0.01244286447763443, 0.010773714631795883, -0.028696270659565926, -0.02483275905251503, 0.00877320021390915, 0.025057869032025337, -0.015977101400494576, 0.021690795198082924, 0.009780795313417912, -0.004391126334667206, -0.04198065400123596, -0.030261797830462456, 0.03748681768774986, 0.07280339300632477, 0.11045344173908234, 0.06895790994167328, 0.08115546405315399, 0.18914644420146942, 0.28423845767974854, 0.1741798371076584, 0.05943607538938522, 0.028964662924408913, -0.016375824809074402, -0.00672875065356493, -0.11040886491537094, -0.1158163920044899, -0.1181381493806839, -0.07355900853872299, -0.014197908341884613, -0.03523866832256317, -0.06230497732758522, -0.04070631414651871, -0.030807316303253174, -0.021301865577697754, 0.009231331758201122, -0.0337204784154892, -0.032352834939956665, 0.01576961576938629, 0.002380114048719406, -0.0502101331949234, 0.002003441099077463, 0.050268061459064484, 0.08241487294435501, 0.11859600991010666, 0.14866983890533447, 0.17416565120220184, 0.2021566927433014, 0.18760699033737183, 0.2280406504869461, 0.1282847374677658, 0.12006726115942001, 0.01471967063844204, -0.020852036774158478, -0.08079265803098679, -0.0853305459022522, -0.07475917786359787, -0.09658355265855789, -0.012952960096299648, -0.04392911121249199, -0.025841470807790756, -0.01206908468157053, 0.024492958560585976, -0.03352358564734459, -0.011397983878850937, 0.015328817069530487, 0.033208515495061874, -0.026370175182819366, -0.08254093676805496, -0.023444613441824913, -0.03099600039422512, 0.05470968782901764, 0.07028423249721527, 0.12921370565891266, 0.24750934541225433, 0.2610042989253998, 0.2579037845134735, 0.2800685167312622, 0.19042950868606567, 0.0786409005522728, 0.0008853117469698191, -0.029070435091853142, -0.15386317670345306, -0.15174920856952667, -0.15604224801063538, -0.09176360815763474, -0.008904923684895039, 0.011105100624263287, 0.02443022094666958, -0.017199676483869553, 0.009006629697978497, -0.018829308450222015, 0.025550585240125656, -0.021157607436180115, 0.00850325170904398, 0.02856302261352539, -0.023016387596726418, -0.036562930792570114, -0.07147437334060669, -0.05193093791604042, -0.05774156004190445, -0.08275547623634338, -0.03550887107849121, -0.025104491040110588, 0.07626805454492569, 0.06538940966129303, -0.00490045640617609, -0.04305719584226608, -0.08770381659269333, -0.11913292855024338, -0.11923480778932571, -0.13457711040973663, -0.06992749869823456, -0.0453670397400856, 0.003800054779276252, -0.04223779961466789, -0.034251514822244644, -0.013645526953041553, 0.0008507287711836398, 0.026300132274627686, 0.010168425738811493, 0.026161450892686844, -0.03043554350733757, -0.013615771196782589, 0.02330656163394451, -0.018302150070667267, -0.050965145230293274, -0.023906858637928963, -0.04899800568819046, -0.0996394008398056, -0.15399198234081268, -0.12462107837200165, -0.14654378592967987, -0.14695166051387787, -0.18510141968727112, -0.12760710716247559, -0.10506801307201385, -0.0998135656118393, -0.09088464081287384, -0.08917458355426788, -0.05375082790851593, -0.046974897384643555, -0.022007549181580544, -0.02019735611975193, 0.01679218001663685, 0.026691043749451637, 0.0027931639924645424, 0.009677939116954803, 0.02226373180747032, 0.03375241532921791, 0.022499877959489822, -0.009469632059335709, -0.01869160123169422, 0.006127479486167431, -0.01621137000620365, -0.007696726359426975, -0.05373355746269226, -0.012907195836305618, -0.02831798978149891, -0.011787651106715202, -0.03692327439785004, -0.006216881331056356, -0.04029552638530731, -0.02912241965532303, -0.03945910930633545, -0.01883799023926258, 0.007842660881578922, -0.04347632825374603, 0.011656432412564754, -0.04393887519836426, -0.02696884796023369, 0.02887951210141182, 0.0351095013320446, -0.025511082261800766, -0.011998837813735008, -0.019790969789028168, 0.022186513990163803, -0.010577445849776268, -0.02615360915660858, 0.03529990091919899, 0.0058212620206177235, 0.01988070085644722, -0.0024800642859190702, -0.010247798636555672, -0.0323273129761219, -0.01909678801894188, -0.02828727476298809, -0.020380916073918343, 0.002935858443379402, -0.031195932999253273, -0.03248969465494156, -0.028252145275473595, 0.009416819550096989, -0.015493559651076794, -0.007488827221095562, -0.01005002111196518, 0.0322226881980896, -0.022406911477446556, -0.037319015711545944, -0.036874230951070786, 0.012370839715003967, -0.009119341149926186, 0.01819157600402832, -0.009004861116409302], [0.015822816640138626, 0.008081227540969849, 0.005382012575864792, -0.0017475858330726624, 0.016203660517930984, -0.003700297325849533, -0.030537303537130356, 0.028552498668432236, -0.0317499153316021, -0.01646386831998825, -0.012288020923733711, -0.024906709790229797, 0.032116807997226715, -0.02506921999156475, -0.02372671663761139, 0.014399799518287182, -0.012964261695742607, 0.02040725201368332, -0.02212410420179367, -0.03400794789195061, -0.01958281733095646, 0.0012177452445030212, -0.000991620123386383, 0.003344554454088211, -0.013460274785757065, -0.018239064142107964, -0.01985105127096176, -0.02296951413154602, 0.023752424865961075, -0.02625875547528267, -0.026533642783761024, -0.016802780330181122, 0.02738129161298275, 0.03270452097058296, 0.033372074365615845, 0.028324343264102936, -0.0032004767563194036, 0.001883369404822588, -0.0029558914247900248, -0.022954395040869713, 0.001480282167904079, 0.022153951227664948, 0.011466607451438904, 0.027375146746635437, 0.027538083493709564, 0.021621298044919968, -0.014116883277893066, -0.023431560024619102, 0.03220073878765106, 0.028855115175247192, -0.009676679968833923, 0.0033754485193639994, -0.008845150470733643, -0.0033698566257953644, 0.008298832923173904, -0.014968741685152054, -0.012041429057717323, 0.022524908185005188, -0.00921003520488739, -0.03442270681262016, 0.001890441752038896, -0.03410275653004646, 0.015040067955851555, 0.014857111498713493, -0.016788505017757416, -0.020879406481981277, 0.008903604932129383, -0.002813898026943207, -0.009003915823996067, 0.017310816794633865, 0.05853911489248276, 0.04399200528860092, 0.047717753797769547, 0.002277043415233493, -0.0223246980458498, 0.009026680141687393, -0.008756210096180439, 0.024036336690187454, 0.032451629638671875, 0.032427940517663956, -0.0007152219768613577, -0.026626434177160263, 0.01482982188463211, 0.01905897632241249, 0.006082717329263687, -0.01513262465596199, 0.013790025375783443, 0.008121609687805176, 0.01384101901203394, 0.031020017340779305, 0.012091513723134995, -0.03021695464849472, 0.005859169643372297, -0.02126830443739891, -0.08507577329874039, -0.05265182629227638, -0.06711382418870926, -0.028176669031381607, 0.012470212765038013, -0.005408694967627525, 0.036280956119298935, -0.04596850648522377, -0.056648001074790955, -0.051015179604291916, -0.07391088455915451, -0.011620824225246906, -0.05003756284713745, -0.00820340309292078, -0.020889388397336006, 0.020407553762197495, -0.0332467146217823, -0.013476235792040825, -0.02874317392706871, 0.003900354029610753, -0.005791876930743456, 0.008195902220904827, -0.03203925862908363, -0.00840970128774643, -0.0004628778260666877, 0.0042725130915641785, -0.05904769524931908, -0.03128352016210556, -0.0545169897377491, -0.06906389445066452, 0.02564651146531105, 0.08029353618621826, 0.14007426798343658, 0.1253867894411087, 0.04084126278758049, 0.008098054677248001, -0.018561482429504395, 0.06986985355615616, 0.12548021972179413, 0.07159963995218277, 0.07753851264715195, -0.008984116837382317, -0.005631989799439907, 0.015948118641972542, -0.02521696127951145, -0.020746566355228424, 0.006564386188983917, -0.027575451880693436, -0.0077077834866940975, 0.02030685357749462, 0.02852516435086727, 0.027020344510674477, -0.03061516396701336, -0.055755313485860825, -0.1278209388256073, -0.1429205685853958, -0.10928421467542648, -0.06668709963560104, -0.00941200740635395, 0.08958522230386734, 0.0906372219324112, 0.09797113388776779, 0.006546353921294212, -0.07587254792451859, 0.005442274268716574, 0.07254301756620407, 0.11819139122962952, 0.19137302041053772, 0.16309083998203278, 0.09083583205938339, 0.0036557514686137438, 0.0009100297465920448, 0.015999380499124527, 0.01891462318599224, 0.0015849582850933075, -0.033401645720005035, 0.03307456150650978, -0.023167647421360016, 0.03273368999361992, -0.02101466804742813, -0.056389812380075455, -0.11248555779457092, -0.15053458511829376, -0.22879751026630402, -0.18281927704811096, -0.09590554237365723, -0.12597286701202393, -0.07789140194654465, -0.10811538994312286, -0.16538870334625244, -0.19569936394691467, -0.17403151094913483, -0.0857929214835167, -0.01835707575082779, 0.06988765299320221, 0.08873949944972992, 0.0629405528306961, 0.014175383374094963, 0.003756785998120904, -0.022395525127649307, -0.025075944140553474, 0.03044167533516884, -0.007871584966778755, 0.011813763529062271, 0.002914808690547943, -0.020842295140028, 0.017691997811198235, -0.06764515489339828, -0.12706932425498962, -0.1271626502275467, -0.23074162006378174, -0.20843473076820374, -0.21566708385944366, -0.21347887814044952, -0.11054810136556625, -0.13992968201637268, -0.13543087244033813, -0.20150227844715118, -0.2189425379037857, -0.1963067352771759, -0.1328447163105011, 0.02122744731605053, 0.0248433705419302, -0.005557349417358637, -0.01962265744805336, -0.046603817492723465, -0.15103338658809662, -0.03957873210310936, -0.023221736773848534, -0.0008712993585504591, 0.023941176012158394, -0.01789017766714096, -0.005405970849096775, 0.0010318357963114977, 0.010384793393313885, -0.08153971284627914, -0.11510688811540604, -0.11616364866495132, -0.23886962234973907, -0.2837304174900055, -0.26298266649246216, -0.19863587617874146, -0.11109686642885208, -0.03718319535255432, 0.0016110913129523396, -0.02336748316884041, -0.07951883226633072, -0.005385777447372675, -0.05529829487204552, -0.0931253507733345, -0.09459756314754486, -0.11609383672475815, -0.1755634844303131, -0.18625514209270477, -0.14536388218402863, -0.08545979112386703, 0.0061841183342039585, -0.03140606731176376, -0.008612516336143017, -0.033637627959251404, 0.027700252830982208, 0.006260754074901342, -0.013129979372024536, -0.096746526658535, -0.07343790680170059, -0.11886594444513321, -0.16559742391109467, -0.19481955468654633, -0.18676887452602386, -0.11286041885614395, -0.05687310919165611, 0.06583904474973679, 0.19400621950626373, 0.29079291224479675, 0.11995409429073334, -0.015922745689749718, -0.1011492982506752, -0.16888529062271118, -0.23759236931800842, -0.22409023344516754, -0.28183794021606445, -0.2041231393814087, -0.15253691375255585, -0.05306168273091316, -0.040922798216342926, 0.03106868267059326, 0.0110295619815588, -0.03145319223403931, -0.00834602490067482, -0.0034710681065917015, 0.00292031466960907, -0.0907759740948677, -0.0797976702451706, -0.13752229511737823, -0.17210207879543304, -0.17066828906536102, -0.11032421886920929, -0.06406174600124359, -0.009511160664260387, 0.16885089874267578, 0.43267762660980225, 0.5247046947479248, 0.20406033098697662, 0.01689201407134533, -0.1129620373249054, -0.18556638062000275, -0.23528164625167847, -0.23024173080921173, -0.2164778858423233, -0.19317308068275452, -0.08569834381341934, -0.0028107529506087303, -0.03369985520839691, 0.018685726448893547, -0.00025668914895504713, 0.020175153389573097, -0.03295908123254776, 0.009368447586894035, -0.0015043660532683134, -0.02978735789656639, -0.054892659187316895, -0.0759463906288147, -0.11011608690023422, -0.1553301066160202, -0.1857878416776657, -0.14205574989318848, -0.10500434786081314, 0.21544888615608215, 0.5697900652885437, 0.5970196723937988, 0.20629774034023285, -0.038689132779836655, -0.10256869345903397, -0.16556832194328308, -0.20632006227970123, -0.14954409003257751, -0.12500160932540894, -0.10209224373102188, -0.060249555855989456, -0.03477545082569122, 0.00866543035954237, 0.0050853947177529335, 0.02025986649096012, 0.01515974197536707, -0.03139744699001312, 0.012772533111274242, -0.007155610714107752, -0.007421465124934912, -0.04927651956677437, -0.03438345342874527, -0.10446824878454208, -0.17530056834220886, -0.2847553789615631, -0.34623098373413086, -0.1033267006278038, 0.23429431021213531, 0.6922503113746643, 0.4797593355178833, 0.0998498871922493, -0.005867797881364822, -0.0936439260840416, -0.17962080240249634, -0.100605309009552, -0.09585271030664444, -0.0834612175822258, -0.031033558771014214, -0.027615834027528763, 0.020154669880867004, 0.01683419570326805, 0.021776897832751274, -0.017903165891766548, 0.002473880536854267, -0.025371719151735306, -0.011012260802090168, -9.349064930574968e-05, -0.04231328144669533, -0.05165017023682594, -0.0294160395860672, -0.09802862256765366, -0.18024130165576935, -0.3837345242500305, -0.4163772165775299, -0.16294509172439575, 0.296695739030838, 0.6249582171440125, 0.41525405645370483, 0.09542200714349747, -0.01533645298331976, -0.18340247869491577, -0.22158010303974152, -0.116050586104393, -0.05102848261594772, -0.03399292379617691, -0.05193193629384041, -0.060257259756326675, -0.044578153640031815, 0.0157758928835392, -0.009485703893005848, -0.0137837715446949, 0.012290182523429394, -0.006107185501605272, -0.0024016902316361666, -0.03324242681264877, -0.02452155575156212, -0.08006111532449722, -0.11421430855989456, -0.1200435683131218, -0.1949208527803421, -0.3976268768310547, -0.43147891759872437, -0.06360410153865814, 0.3826587498188019, 0.5967687368392944, 0.3484707176685333, 0.08600780367851257, -0.23376725614070892, -0.2753649353981018, -0.22894997894763947, -0.1770637184381485, -0.13002215325832367, -0.05533149838447571, -0.04231834411621094, -0.03889802470803261, -0.028660107403993607, -0.017309144139289856, 0.020543674007058144, 0.01014256477355957, 0.030634010210633278, 0.007340032607316971, 0.033277567476034164, 0.031209219247102737, -0.038525424897670746, -0.11585109680891037, -0.10317918658256531, -0.11385767161846161, -0.22863486409187317, -0.3565157651901245, -0.20511621236801147, 0.016865158453583717, 0.3778882324695587, 0.565823495388031, 0.20145714282989502, -0.05800226330757141, -0.3453693985939026, -0.35723111033439636, -0.2665996849536896, -0.17016999423503876, -0.10243834555149078, -0.09867683053016663, -0.031579166650772095, -0.03832769766449928, -0.02751445583999157, 0.021830013021826744, -0.0011212175013497472, -0.03238829970359802, 0.024996325373649597, 0.02989765629172325, -0.007153529208153486, -0.0015657178591936827, -0.06198139488697052, -0.10617437213659286, -0.20050649344921112, -0.1758394092321396, -0.1857793927192688, -0.16285468637943268, -0.13621915876865387, -0.026821112260222435, 0.36460766196250916, 0.5465140342712402, 0.03447049483656883, -0.21905721724033356, -0.4321743845939636, -0.321255087852478, -0.21846462786197662, -0.168213352560997, -0.09384965896606445, -0.12007329612970352, -0.0597514733672142, -0.02120446227490902, -0.03340659663081169, -0.04288279637694359, -0.014124994166195393, 0.02677839994430542, -0.03253205865621567, -0.013497912324965, -0.03225240111351013, -0.028460223227739334, -0.14161832630634308, -0.20954135060310364, -0.20740297436714172, -0.17780116200447083, -0.10401494055986404, 0.002071863040328026, -0.11110512912273407, 0.110701784491539, 0.35849663615226746, 0.35781362652778625, -0.009951213374733925, -0.321014940738678, -0.37662315368652344, -0.27486374974250793, -0.21899373829364777, -0.1415509134531021, -0.08339955657720566, -0.09843746572732925, -0.07468746602535248, -0.026716070249676704, -0.033860594034194946, 0.012889898382127285, -0.02036304958164692, 0.00285828928463161, 0.03085874207317829, 0.005499467719346285, 0.006776368245482445, -0.02877548523247242, -0.133365198969841, -0.25428980588912964, -0.29944610595703125, -0.12832684814929962, -0.05999825894832611, -0.04313204064965248, -0.015884261578321457, 0.08636903762817383, 0.21581269800662994, 0.1992601901292801, -0.09547523409128189, -0.20703548192977905, -0.18895836174488068, -0.12911732494831085, -0.07588744908571243, -0.03307531401515007, -0.06358303874731064, -0.08895982801914215, -0.09517563134431839, -0.00844662357121706, -0.03492417559027672, 0.026636600494384766, 0.011061417870223522, 0.021313481032848358, 0.014977358281612396, 0.0034081514459103346, -0.021981066092848778, -0.02600393071770668, -0.18774648010730743, -0.18821506202220917, -0.18012498319149017, -0.08532199263572693, 0.01987464912235737, -0.03394405543804169, -0.030998364090919495, 0.02726472169160843, 0.13939626514911652, 0.025290781632065773, -0.020182162523269653, -0.024594148620963097, -0.029401758685708046, 0.02001839317381382, 0.00933361891657114, -0.026538318023085594, -0.01873169094324112, -0.055176541209220886, -0.0006373798241838813, -0.027387702837586403, -0.014877992682158947, 0.022079069167375565, -0.003299226053059101, -0.030048077926039696, -0.0021948714274913073, 0.02506238780915737, 0.0035631093196570873, -0.03517937287688255, -0.10675106197595596, -0.026854291558265686, -0.033843401819467545, 0.044950857758522034, 0.03350909426808357, 0.03638646751642227, 0.06313697248697281, 0.02255106531083584, 0.024594662711024284, 0.016710329800844193, 0.0013230290496721864, 0.10422921180725098, 0.1280672401189804, 0.14900624752044678, 0.08947612345218658, 0.049781933426856995, -0.025336334481835365, -0.047600388526916504, -0.0554373599588871, 0.0036926674656569958, -0.013860642910003662, -0.026065411046147346, -0.031028995290398598, -0.034255534410476685, -0.005298110656440258, -0.0275520421564579, -0.022690705955028534, 0.03857346624135971, 0.11411640793085098, 0.10864707082509995, 0.14343129098415375, 0.08624397218227386, 0.07687676697969437, 0.10434374958276749, -0.05124596133828163, -0.14522898197174072, -0.12321589887142181, -0.048089154064655304, 0.05655863881111145, 0.08084020018577576, 0.13583557307720184, 0.14080910384655, 0.04345139488577843, 0.03207001835107803, -0.005351778585463762, -0.03939457982778549, -0.013289482332766056, 0.03456758335232735, -0.004660018254071474, -0.011001287028193474, 0.034347232431173325, -0.03194471448659897, 0.032082002609968185, 0.025183180347085, -0.020717624574899673, 0.06478807330131531, 0.17673815786838531, 0.204017773270607, 0.1502990424633026, 0.10738597810268402, 0.047203198075294495, -0.07022235542535782, -0.19748669862747192, -0.3223014175891876, -0.24832025170326233, -0.06153624877333641, 0.0015133783454075456, 0.09493058174848557, 0.21857158839702606, 0.14907607436180115, 0.04799940064549446, 0.02139952778816223, -0.04413248598575592, -0.09095964580774307, -0.013792029581964016, -0.03305075317621231, -0.031923163682222366, 0.02012297883629799, 0.0008782251388765872, 0.006902053952217102, 0.029417481273412704, -0.01600332371890545, 0.013870012015104294, 0.011001174338161945, 0.17526587843894958, 0.1637931913137436, 0.13937689363956451, -0.0005309479893185198, -0.030154848471283913, -0.10363610833883286, -0.16181649267673492, -0.15550865232944489, -0.14498654007911682, -0.13423912227153778, 0.01992901973426342, 0.1198512613773346, 0.16594208776950836, 0.05379125475883484, 0.005739909131079912, 0.013873254880309105, -0.03371196612715721, -0.02343985252082348, -0.051821958273649216, -0.032572899013757706, -0.023644229397177696, 0.010864767245948315, 0.03384700044989586, 0.023466769605875015, 0.033785101026296616, -0.023617452010512352, 0.01715119183063507, -0.0272877998650074, 0.03448488563299179, 0.007835681550204754, -0.043667469173669815, -0.12429631501436234, -0.11951769888401031, -0.18404115736484528, -0.22656363248825073, -0.22378692030906677, -0.23052014410495758, -0.2149866670370102, -0.14674630761146545, -0.17620179057121277, -0.02820650301873684, -0.018338344991207123, -0.004295874387025833, 0.008566981181502342, -0.03180695325136185, -0.0038419407792389393, -0.019004730507731438, -0.007897966541349888, -0.034150801599025726, 0.0056279683485627174, 0.01641138643026352, 0.01233350858092308, 0.034012649208307266, 0.019329005852341652, 0.009685225784778595, 0.01970374770462513, -0.0033113944809883833, -0.013632840476930141, -0.04210790991783142, -0.05841147527098656, -0.11782853305339813, -0.16979554295539856, -0.16842976212501526, -0.17238065600395203, -0.14785704016685486, -0.13386094570159912, -0.1484529674053192, -0.11580009013414383, -0.08051012456417084, -0.04984205961227417, -0.045017655938863754, -0.034310754388570786, 0.009682322852313519, -0.031248968094587326, -0.008963708765804768, 0.03227392956614494, 0.026659492403268814, -0.02182028442621231, 0.03152093663811684, 0.010668829083442688, 0.025443632155656815, 0.022930476814508438, -0.020009296014904976, 0.013200238347053528, 0.026614131405949593, 0.015500402078032494, -0.03028903715312481, -0.01617119461297989, -0.022460471838712692, -0.009441462345421314, -0.04087148606777191, -0.018210889771580696, -0.04693002253770828, -0.0708974152803421, -0.021011151373386383, -0.030825162306427956, -0.013435177505016327, 0.005379801150411367, -0.023532075807452202, 0.012048188596963882, 0.005596051458269358, -0.01238794531673193, -0.024426080286502838, -0.03310520201921463, -0.013643578626215458, -0.03216168284416199, 0.0015623010694980621, 0.029227744787931442, 0.011190377175807953, 0.02244304120540619, -0.00595979206264019, -0.030127719044685364, -0.030861642211675644, 0.03291821479797363, -0.006809350568801165, -0.005781714804470539, 0.004551886580884457, 0.013302342034876347, 0.002605974907055497, -0.03400444611907005, -0.03145765885710716, 0.009679500013589859, -0.0020635398104786873, 0.02310941182076931, 0.027160143479704857, -0.010057126171886921, -0.018207034096121788, 0.021465778350830078, 0.017266036942601204, 0.02326623536646366, -0.00499233091250062, 0.029915224760770798, 0.027137380093336105, 0.02915113791823387, 0.02244754135608673], [0.029414672404527664, -0.013350026682019234, -0.030417945235967636, 0.0132756307721138, 0.004667799919843674, 0.01924264058470726, 0.03104713186621666, 0.010400768369436264, -0.034249335527420044, 0.004201237112283707, -0.027125976979732513, 0.02391604706645012, 0.03157292678952217, -5.7214761909563094e-05, 0.03431786969304085, 0.03522059693932533, 0.03195957466959953, -0.00554756261408329, 0.021986287087202072, 0.03536555543541908, -0.009282492101192474, 0.005513429641723633, -0.023006627336144447, -0.01161460392177105, -0.034570932388305664, -0.009484618902206421, 0.0026077739894390106, 0.027632776647806168, 0.016909129917621613, -0.012103302404284477, -0.021872764453291893, 0.015456348657608032, 0.02610822208225727, -0.018669165670871735, 0.004979692865163088, 0.007291443180292845, -0.0035269176587462425, -0.006668394897133112, -0.010979777202010155, -0.016383608803153038, 0.02569669857621193, 0.010093380697071552, 0.013165795244276524, -0.010041942819952965, 0.04516180604696274, 0.013757332228124142, 0.019829969853162766, 0.01412464864552021, -0.03152589872479439, 0.009705264121294022, -0.03084166906774044, 0.018081294372677803, 0.002712339162826538, 0.026568196713924408, 0.030245933681726456, -0.03002917394042015, 0.031190995126962662, -0.03561941906809807, -0.00010416133591206744, -0.018099801614880562, -0.012125266715884209, 0.0013834432465955615, -0.031149303540587425, 0.000755173503421247, 0.00492229824885726, 0.02550746500492096, 0.030673431232571602, 0.0006298862281255424, 0.056246381253004074, 0.0389726459980011, 0.05187669396400452, 0.05684155225753784, 0.05155596509575844, -0.01541389524936676, 0.013820482417941093, -0.015530653297901154, -0.05605092644691467, -0.022883906960487366, -0.04767128452658653, -0.016945259645581245, 0.01096996758133173, 0.02663405053317547, -0.0025782883167266846, -0.029300516471266747, 0.0005765780806541443, 0.03444938734173775, 0.013184923678636551, 0.007092316169291735, -0.008901682682335377, -0.025445524603128433, -0.02451489306986332, 0.029150092974305153, 0.04484965652227402, 0.11504422873258591, 0.16249774396419525, 0.1681821346282959, 0.1961832046508789, 0.1956184357404709, 0.15890850126743317, 0.12443042546510696, 0.11811370402574539, 0.04245676100254059, -0.026120763272047043, -0.08487606793642044, -0.06282981485128403, -0.09379006922245026, -0.03379767760634422, -0.059563733637332916, 0.012344565242528915, -0.027787448838353157, -0.03302885219454765, 0.0012307167053222656, -0.004843423143029213, -0.009512274526059628, 0.02948887087404728, -0.0003868118510581553, 0.02236122637987137, 0.01770787686109543, 0.011412895284593105, 0.036529041826725006, 0.11078110337257385, 0.23840630054473877, 0.24296869337558746, 0.2520417273044586, 0.29162824153900146, 0.20226404070854187, 0.1670801341533661, 0.13982413709163666, 0.07918372750282288, 0.06941819936037064, -0.010140785947442055, -0.05460188165307045, -0.10560645163059235, -0.11936832964420319, -0.17378656566143036, -0.09838300943374634, -0.06197189912199974, 0.028278108686208725, 0.011780362576246262, 0.014458621852099895, -0.006285753101110458, -0.017395880073308945, 0.008780376985669136, -0.02710377797484398, 0.007711729034781456, 0.003662304487079382, 0.09553340077400208, 0.11235269904136658, 0.18302755057811737, 0.22797046601772308, 0.22090992331504822, 0.227971613407135, 0.21981628239154816, 0.23401670157909393, 0.18912804126739502, 0.20979708433151245, 0.21902886033058167, 0.255898118019104, 0.11529624462127686, 0.018948281183838844, -0.045544981956481934, -0.08102317899465561, -0.08595583587884903, -0.12607622146606445, -0.07550971210002899, -0.03678003326058388, -0.01042932365089655, 0.025699790567159653, 0.021106980741024017, -0.02853238768875599, -0.006188592873513699, -0.02056134305894375, 0.03284355252981186, 0.04436521232128143, 0.08808179199695587, 0.18933963775634766, 0.14893527328968048, 0.15183761715888977, 0.14902180433273315, 0.07803569734096527, 0.026890628039836884, 0.0670626312494278, 0.10282236337661743, 0.08720821887254715, 0.10957350581884384, 0.028966568410396576, 0.019490206614136696, -0.036996327340602875, -0.07670263946056366, -0.06460186094045639, -0.14073330163955688, -0.16528840363025665, -0.13223403692245483, -0.028351742774248123, 0.013376533053815365, -0.0024633619468659163, -0.01780794747173786, 0.015254100784659386, 0.042165935039520264, 0.010463408194482327, 0.06933113932609558, 0.09458380937576294, 0.17653433978557587, 0.1209862008690834, 0.12485990673303604, 0.02968605048954487, 0.031041326001286507, 0.04101461544632912, 0.020486077293753624, 0.09141436219215393, 0.054803986102342606, -0.021214431151747704, -0.03630790114402771, -0.13184863328933716, -0.09810487926006317, -0.032962195575237274, -0.06679753214120865, -0.017395857721567154, -0.053783196955919266, -0.20389260351657867, -0.1462302953004837, -0.07070964574813843, -0.02244027890264988, 0.02130948007106781, -0.03571262210607529, -0.01076890341937542, 0.003058652626350522, 0.015677347779273987, 0.11670984327793121, 0.11476011574268341, 0.11077304184436798, 0.10133521258831024, 0.10092414170503616, 0.09168077260255814, 0.18198183178901672, 0.11885271221399307, 0.06465604901313782, 0.06098102405667305, 0.08803495764732361, 0.07725735753774643, 0.014504091814160347, -0.04620254412293434, -0.06624831259250641, 0.034249212592840195, -0.009861948899924755, -0.018582839518785477, -0.0507848858833313, -0.11302296072244644, -0.1800781786441803, -0.08218374848365784, -0.034851185977458954, 0.00047395500587299466, -0.03460531309247017, 0.012061198242008686, 0.006325436290353537, 0.024534469470381737, 0.04652084410190582, 0.1280602365732193, 0.08992283791303635, -0.013917284086346626, -0.016566015779972076, 0.08463894575834274, 0.15527474880218506, 0.07171367108821869, 0.03317153453826904, 0.0948377251625061, 0.11996167153120041, 0.12802718579769135, 0.1228640004992485, 0.06135599687695503, 0.06642213463783264, 0.011549645103514194, 0.006044706795364618, -0.04400036111474037, -0.039832912385463715, -0.1487267166376114, -0.10963859409093857, -0.0314364917576313, 0.02482505515217781, 0.03178372606635094, 0.0297261793166399, 0.026826629415154457, 0.024131333455443382, 0.015247822739183903, -0.021139059215784073, 0.05862908810377121, -0.01556775625795126, -0.08431574702262878, -0.12883169949054718, -0.1316823661327362, -0.131704181432724, -0.13605259358882904, -0.1574290543794632, -0.2556447982788086, -0.10249744355678558, -0.09903426468372345, 0.013577197678387165, 0.04166848957538605, 0.035124991089105606, -0.02116815559566021, 0.0014676686841994524, -0.04712996631860733, -0.041381530463695526, -0.07361073046922684, -0.12564080953598022, -0.0136396624147892, -0.0012801268603652716, -0.03527848795056343, -0.0022707702592015266, 0.028245404362678528, -0.007209462113678455, -0.017823416739702225, -0.056050557643175125, -0.08703748136758804, -0.2327921986579895, -0.35268324613571167, -0.36097028851509094, -0.3793908953666687, -0.48183509707450867, -0.48109662532806396, -0.5394142866134644, -0.5722917914390564, -0.4372712969779968, -0.25738781690597534, -0.15149828791618347, -0.14156554639339447, -0.05066360533237457, 0.028098631650209427, -0.024184145033359528, -0.06382399797439575, -0.06295202672481537, -0.08558350801467896, -0.05299508199095726, 0.03847396746277809, 0.019095206633210182, 0.0045500705018639565, 0.021546753123402596, 0.02164245769381523, -0.021679392084479332, -0.024123908951878548, -0.11439456045627594, -0.27141836285591125, -0.4863976538181305, -0.5666722655296326, -0.4700746238231659, -0.4460586905479431, -0.48196709156036377, -0.4639369547367096, -0.4881574213504791, -0.4671079218387604, -0.36633849143981934, -0.3499789535999298, -0.26621928811073303, -0.2034277468919754, -0.11681294441223145, 0.03981858491897583, -0.033898863941431046, -0.0129049988463521, -0.10949119925498962, -0.1705719232559204, 0.019416574388742447, 0.09420809149742126, 0.006184662226587534, 0.014329821802675724, -0.024049062281847, -0.025401290506124496, 0.018251456320285797, -0.04863564670085907, -0.1451684981584549, -0.3663215935230255, -0.5183240175247192, -0.4885737895965576, -0.3561628460884094, -0.30620771646499634, -0.19699576497077942, -0.10895861685276031, -0.0824185386300087, -0.07787095010280609, -0.08428636193275452, -0.2132139950990677, -0.2060260772705078, -0.1533730924129486, -0.09763659536838531, -0.03576914966106415, -0.045617856085300446, -0.03825654089450836, -0.11359831690788269, -0.08921963721513748, 0.06218414008617401, 0.15368527173995972, 0.08703312277793884, 0.02734665386378765, -0.025578826665878296, 0.023263365030288696, -0.03310239315032959, 0.000734754023142159, -0.12272117286920547, -0.3355894386768341, -0.3098883330821991, -0.1870695948600769, -0.07585727423429489, -0.043524667620658875, 0.023776493966579437, 0.0332036167383194, 0.08885654807090759, 0.16503123939037323, 0.04110027477145195, -0.0960163027048111, -0.0656704381108284, -0.15393716096878052, -0.04220046475529671, -0.09085008502006531, -0.07368983328342438, -0.09217412769794464, -0.1162087470293045, -0.046064116060733795, 0.10249067097902298, 0.12041576206684113, 0.08879115432500839, -0.020627329126000404, -0.0071143414825201035, 0.008627220056951046, -0.019086748361587524, 0.043286532163619995, 0.04365880414843559, -0.030465656891465187, 0.05697876587510109, 0.010659153573215008, 0.043931134045124054, 0.0341244637966156, 0.028345735743641853, 0.010191450826823711, 0.04524016007781029, 0.20872774720191956, 0.09073971211910248, 0.023985283449292183, -0.029297152534127235, -0.0621696412563324, -0.12732020020484924, -0.05071692541241646, -0.1296742856502533, -0.11649216711521149, -0.11753392219543457, -0.045104172080755234, 0.22289586067199707, 0.19952155649662018, 0.11171393096446991, 0.042101696133613586, -0.017237508669495583, -0.016926420852541924, -0.013313972391188145, 0.06331590563058853, 0.16888019442558289, 0.15352457761764526, 0.18331995606422424, 0.09694556146860123, -0.0021942686289548874, 0.09110188484191895, 0.08487758785486221, 0.15053729712963104, 0.24282100796699524, 0.263205349445343, 0.09579131752252579, 0.015766000375151634, 0.11378487944602966, 0.11638261377811432, 0.002438302617520094, 0.007000661920756102, -0.0353953018784523, 0.10632236301898956, 0.0757293701171875, 0.1434536576271057, 0.2922968864440918, 0.3198457360267639, 0.12744836509227753, 0.02901417389512062, 0.015238974243402481, -0.007670302875339985, -0.0038917814381420612, 0.07207697629928589, 0.24973711371421814, 0.24303194880485535, 0.21559180319309235, 0.1091482862830162, 0.0679737851023674, 0.1447903960943222, 0.17142616212368011, 0.25327542424201965, 0.2857820391654968, 0.2568719685077667, 0.06989599764347076, 0.09903310239315033, 0.05793856829404831, 0.010925033129751682, 0.0714958906173706, 0.005167877767235041, 0.026584891602396965, 0.143406480550766, 0.1483847200870514, 0.19052688777446747, 0.38666513562202454, 0.3790474534034729, 0.06805943697690964, 0.03402946516871452, 0.029355421662330627, -0.0266141165047884, 0.027063477784395218, 0.06595885753631592, 0.2645131051540375, 0.2870800495147705, 0.2042454034090042, 0.22326071560382843, 0.14043337106704712, 0.11100398749113083, 0.2164408564567566, 0.19474802911281586, 0.2794209122657776, 0.22748543322086334, 0.13964439928531647, 0.02155194617807865, 0.09645078331232071, 0.14154912531375885, 0.07196267694234848, 0.06554781645536423, 0.04551778733730316, 0.11209581047296524, 0.19204312562942505, 0.32238060235977173, 0.4070395529270172, 0.2436545044183731, 0.06666974723339081, -0.019152047112584114, -0.01497600320726633, 0.032865580171346664, -0.013393194414675236, 0.00906754843890667, 0.1840614676475525, 0.2107875496149063, 0.222935289144516, 0.2769705355167389, 0.22899475693702698, 0.22561149299144745, 0.2281089574098587, 0.26861852407455444, 0.22619177401065826, 0.2438099980354309, 0.1214352697134018, 0.10366714000701904, 0.09229020029306412, 0.12319113314151764, 0.07683485746383667, 0.023334775120019913, 0.09801881015300751, 0.164368137717247, 0.273699551820755, 0.28846627473831177, 0.25976333022117615, 0.2058422565460205, 0.05367426946759224, 0.014024341478943825, 0.03431031480431557, -0.014028646983206272, -0.007190102245658636, 0.029697924852371216, 0.1983865648508072, 0.1885070949792862, 0.18169790506362915, 0.28770342469215393, 0.2243637889623642, 0.1920928955078125, 0.17344693839550018, 0.2254558950662613, 0.13010843098163605, 0.05898132920265198, 0.046376876533031464, 0.057929541915655136, 0.08497880399227142, 0.01084404531866312, 0.11596594005823135, 0.16772709786891937, 0.14095979928970337, 0.23944681882858276, 0.22448864579200745, 0.2642444968223572, 0.24349060654640198, 0.09344933182001114, 0.03278656303882599, -0.020537087693810463, 0.03422771394252777, -0.02151157148182392, 0.02156708389520645, 0.00473190750926733, 0.12158205360174179, 0.1313159316778183, 0.16559536755084991, 0.14094875752925873, 0.10281781852245331, 0.17971695959568024, 0.12286704778671265, 0.14458559453487396, 0.04819827899336815, 0.05947781354188919, -0.01776185631752014, -0.047651056200265884, 0.03181862086057663, 0.11675522476434708, 0.20103903114795685, 0.23657454550266266, 0.11610949039459229, 0.1628863364458084, 0.23976659774780273, 0.2613852024078369, 0.15318366885185242, 0.023307139053940773, -0.02372276782989502, 0.02030964381992817, -0.018398920074105263, -0.02222721464931965, 0.007462198380380869, 0.013704824261367321, 0.07143962383270264, 0.06817583739757538, 0.1266741156578064, 0.13196448981761932, 0.1905582845211029, 0.21192704141139984, 0.12351513653993607, 0.11157011985778809, 0.040085162967443466, -0.04790402203798294, -0.07167679071426392, -0.11319130659103394, -0.03883184865117073, 0.03423703834414482, 0.18665242195129395, 0.1736341118812561, 0.2182483971118927, 0.2260407954454422, 0.19802546501159668, 0.16670873761177063, 0.11203546077013016, 0.011560586281120777, 0.019988687708973885, 0.009487688541412354, -0.011637113988399506, -0.012365886941552162, -0.005680120550096035, 0.01124129444360733, -0.030913356691598892, -0.011390719562768936, -0.021016273647546768, -0.016652429476380348, 0.008580530062317848, 0.009359009563922882, -0.026576753705739975, 0.03100506216287613, -0.02334892563521862, -0.09697907418012619, -0.060288138687610626, -0.09230217337608337, -0.036728385835886, -0.037251148372888565, 0.13751155138015747, 0.13201792538166046, 0.12348903715610504, 0.12082155793905258, 0.1368831843137741, 0.07680585980415344, 0.021765267476439476, 0.007361656986176968, 0.0018149438546970487, -0.0010592229664325714, -0.01889532059431076, 0.0005744695663452148, 0.008197701536118984, -0.030540701001882553, -0.04946546629071236, -0.10944359749555588, -0.12189054489135742, -0.17786647379398346, -0.15486808121204376, -0.14707738161087036, -0.1744358241558075, -0.14945663511753082, -0.07422620803117752, -0.023266509175300598, 0.004220656119287014, -0.010102282278239727, -0.04500829800963402, -0.01344994641840458, 0.058069486171007156, 0.008803748525679111, 0.01058981753885746, 0.021722035482525826, 0.029904188588261604, 0.028281545266509056, 0.04043980687856674, 0.05147523060441017, 0.015775086358189583, -0.0059646498411893845, 0.030114363878965378, 0.020041029900312424, -0.008380323648452759, -0.0377470888197422, -0.048805758357048035, -0.0398002527654171, -0.0782264992594719, -0.06306001543998718, -0.1303587555885315, -0.16582158207893372, -0.15906347334384918, -0.1246711015701294, -0.07640023529529572, -0.10018312186002731, -0.07557545602321625, -0.023617863655090332, -0.07389245927333832, -0.07457826286554337, -0.05491229519248009, -0.09685714542865753, -0.04085994139313698, -0.0651802271604538, -0.005430395714938641, -0.005358859896659851, 0.0314708836376667, 0.038240425288677216, 0.02324852906167507, -0.007879674434661865, 0.019314754754304886, 0.00032552704215049744, -0.02514553628861904, -0.030087362974882126, -0.03232832998037338, 0.005582885351032019, 0.003837107215076685, -0.015630770474672318, -0.015399997122585773, -0.04208868369460106, -0.02887059561908245, -0.021801289170980453, -0.022611362859606743, -0.039352089166641235, -0.018573345616459846, 0.002607552334666252, -0.00021459707932081074, -0.03249344229698181, -0.031078485772013664, -0.02439943701028824, 0.020125577226281166, -0.02843041531741619, -0.0023284489288926125, 0.012577236630022526, 0.025488119572401047, -0.008874619379639626, -0.0035607032477855682, -0.0098655354231596, 0.001707080751657486, -0.012509822845458984, -0.0008575096726417542, 0.025307651609182358, 0.030542362481355667, -0.0190904401242733, 0.0036058349069207907, -0.03152652084827423, -0.02584209106862545, 0.018361978232860565, -0.009632502682507038, 0.012048891745507717, 0.00013496051542460918, -0.004094940144568682, -0.0005500596598722041, 0.024864433333277702, 0.03078802116215229, -0.00619136355817318, -0.018227821215987206, -0.025109684094786644, 0.02825353294610977, 0.002660382306203246, -0.0016538386698812246, -0.026088321581482887, -0.017332984134554863, 0.011758480221033096, 0.017756998538970947, 0.02351986989378929], [8.646771311759949e-05, 0.022363219410181046, -0.007656127214431763, 0.008022673428058624, 0.026507779955863953, -0.0247575044631958, 0.005867432802915573, -0.020757749676704407, 0.003874111920595169, 0.01883726939558983, 0.017211057245731354, -0.01204436644911766, 0.016715887933969498, -0.01421641930937767, -0.021619388833642006, 0.005459025502204895, -0.02887273021042347, 0.030958574265241623, -0.027522582560777664, 0.03502756729722023, 0.031767453998327255, -0.011947611346840858, 0.005357325077056885, 0.0043327696621418, 0.028201859444379807, -0.02117711305618286, 0.0346631221473217, -0.016363825649023056, -0.01274149864912033, 0.011452607810497284, 9.952113032341003e-05, -0.013281814754009247, 0.006852773018181324, 0.02705284394323826, 0.008787376806139946, 0.035049911588430405, 0.025824127718806267, -0.0162077397108078, 0.035185690969228745, -0.034796539694070816, -0.028006799519062042, -0.009192189201712608, 0.03040984459221363, -0.03444712981581688, -0.03597263619303703, 0.034047096967697144, 0.014670862816274166, 0.004458209499716759, -0.003257086267694831, 0.03342345356941223, 0.030329089611768723, 0.014450102113187313, 0.006721712648868561, 0.024549081921577454, 0.00030792132019996643, -0.002032402902841568, -0.010062575340270996, -0.00959714874625206, 0.023685019463300705, -0.020777584984898567, -0.026420174166560173, 0.014730437658727169, -0.013426205143332481, 0.005306948442012072, -0.029190722852945328, 0.003220651298761368, 0.0037325904704630375, 0.015979818999767303, -0.029737742617726326, -0.029600491747260094, 0.024380328133702278, -0.010747008956968784, -0.03443970903754234, -0.009301185607910156, -0.03220222145318985, -0.029701510444283485, -0.02439613826572895, 0.007360970601439476, -0.018710969015955925, -0.004869093187153339, 0.012937506660819054, -0.023893052712082863, 0.03499511256814003, 0.005825605243444443, -0.007097326219081879, 0.0329870767891407, 0.03110886923968792, 0.004185534548014402, -0.014657395891845226, -0.015076677314937115, 0.00027946196496486664, 0.026450850069522858, 0.01482483185827732, -0.004086472559720278, 0.037336189299821854, 0.1091839149594307, 0.15476123988628387, 0.12971828877925873, 0.17541344463825226, 0.16599644720554352, 0.1919451653957367, 0.12075761705636978, 0.10395849496126175, 0.09243512153625488, 0.04015030711889267, -0.014896953478455544, -0.03654059022665024, -0.04886769875884056, -0.029048297554254532, -0.02678573876619339, 0.025527704507112503, -0.0023775435984134674, -0.03558390587568283, -0.005755518097430468, 0.02653099223971367, 0.01604904606938362, 0.040097735822200775, 0.05734574422240257, 0.1163354441523552, 0.1035352572798729, 0.20468419790267944, 0.17253825068473816, 0.24497771263122559, 0.28123658895492554, 0.29691237211227417, 0.31980597972869873, 0.23633837699890137, 0.23947706818580627, 0.18795078992843628, 0.12821823358535767, 0.14192798733711243, 0.026155509054660797, -0.03413322940468788, -0.0946393609046936, -0.1094726100564003, -0.06265877187252045, -0.004793626256287098, -0.02825789898633957, 0.013296211138367653, -0.033850084990262985, 0.0018015727400779724, 0.0019017718732357025, -0.007768644019961357, -0.002278793603181839, 0.054003532975912094, 0.13483229279518127, 0.2076403796672821, 0.22856974601745605, 0.19988805055618286, 0.15692739188671112, 0.1953575760126114, 0.1432020217180252, 0.08091997355222702, 0.10887423902750015, 0.02332543209195137, 0.12478315830230713, 0.11429672688245773, 0.028545105829834938, 0.01703573949635029, -0.019700393080711365, -0.11221227794885635, -0.16580472886562347, -0.14008674025535583, -0.1576736867427826, -0.04602884501218796, 0.003172293771058321, 0.004050279967486858, 0.032886918634176254, 0.015076819807291031, -0.007497919257730246, -0.011798770166933537, 0.06365399807691574, 0.07565124332904816, 0.14218005537986755, 0.1924695372581482, 0.17221535742282867, 0.11950622498989105, 0.20569060742855072, 0.17338915169239044, 0.11846134066581726, 0.09400568902492523, 0.16175943613052368, 0.1468978375196457, 0.11482459306716919, 0.1897767335176468, 0.07028128206729889, 0.12267965078353882, -0.002664719708263874, 0.01722608134150505, -0.038882337510585785, -0.15686288475990295, -0.16793933510780334, -0.055263154208660126, -0.03996162489056587, -0.00027358828810974956, 0.010555488988757133, 0.010596025735139847, 0.023948008194565773, -0.012594331055879593, 0.027074415236711502, 0.20654630661010742, 0.21734999120235443, 0.20597392320632935, 0.09714782238006592, 0.03889228776097298, 0.10298345983028412, 0.04605204612016678, 0.030877118930220604, 0.10902070999145508, 0.14376354217529297, 0.1904323250055313, 0.17617912590503693, 0.07558605819940567, 0.09984239935874939, 0.061859503388404846, 0.07462549954652786, 0.07064253091812134, -0.0035242161247879267, -0.1122455820441246, -0.18730320036411285, -0.09608818590641022, -0.0463058240711689, 0.0022685278672724962, -0.0072120968252420425, 0.03191356360912323, 0.029958415776491165, -0.021945156157016754, 0.03078448586165905, 0.18516460061073303, 0.21984077990055084, 0.12749657034873962, 0.08367214351892471, 0.017619436606764793, 0.034644536674022675, 0.04586054012179375, 0.0192442387342453, 0.034734588116407394, 0.08735020458698273, 0.15503452718257904, 0.16538631916046143, 0.1316087394952774, 0.09797736257314682, 0.16402976214885712, 0.11920731514692307, 0.14448998868465424, 0.07798060029745102, 0.00496584502980113, -0.18879282474517822, -0.19191838800907135, -0.039497215300798416, 0.0015059401048347354, -0.001120760920457542, 0.024399371817708015, 0.02086302638053894, 0.005325193051248789, 0.03609832003712654, 0.15395741164684296, 0.1375458687543869, 0.0918315052986145, 0.057425402104854584, -0.013399431481957436, -0.0558076836168766, -0.161272332072258, -0.2880803644657135, -0.22977210581302643, -0.08187787234783173, 0.18986374139785767, 0.2801331579685211, 0.22786132991313934, 0.14811289310455322, 0.10810063779354095, 0.17001189291477203, 0.2547018527984619, 0.17479722201824188, 0.09571514278650284, -0.10962939262390137, -0.13091576099395752, -0.008635930716991425, -0.013028165325522423, 0.009926353581249714, 0.020432187244296074, 0.028596246615052223, 0.004844822455197573, 0.08459993451833725, 0.10146891325712204, -0.030289301648736, -0.06547802686691284, -0.14049246907234192, -0.2669427692890167, -0.34093526005744934, -0.41882842779159546, -0.4312378764152527, -0.34315061569213867, -0.032317135483026505, 0.18748243153095245, 0.22637301683425903, 0.22045214474201202, 0.1743442267179489, 0.158256396651268, 0.16407223045825958, 0.21995387971401215, 0.1282912790775299, -0.01176771242171526, -0.06621494144201279, -0.07617418467998505, 0.01651461236178875, 0.026239322498440742, 0.013615863397717476, 0.014059021137654781, -0.035040296614170074, 0.028072888031601906, 0.034338388592004776, 0.029155761003494263, -0.13952331244945526, -0.21533052623271942, -0.33699318766593933, -0.3856644928455353, -0.35541263222694397, -0.2920142114162445, -0.2033897340297699, -0.07664143294095993, 0.11769939959049225, 0.1847866177558899, 0.1946903020143509, 0.0948852077126503, 0.17335647344589233, 0.18533211946487427, 0.14602573215961456, 0.143710196018219, -0.03957394137978554, -0.11104287207126617, -0.10354593396186829, -0.03803815320134163, 0.02760200947523117, -0.029792912304401398, 0.0026924987323582172, 0.006442774552851915, -0.005453475750982761, -0.04014855995774269, 0.00921148993074894, -0.04088986665010452, -0.17302972078323364, -0.3038264214992523, -0.32972845435142517, -0.27199167013168335, -0.1756202131509781, -0.030878664925694466, -0.044256553053855896, 0.05933353304862976, 0.14696016907691956, 0.29282405972480774, 0.1406201869249344, 0.08305417746305466, 0.11047746986150742, 0.12126089632511139, 0.010519936680793762, -0.08343636244535446, -0.23703116178512573, -0.18161927163600922, -0.08537588268518448, -0.02458251267671585, 0.01949133351445198, -0.03231959044933319, -0.029349099844694138, -0.013610826805233955, -0.0057692863047122955, 0.006234582047909498, -0.03932898864150047, -0.06389269977807999, -0.15870073437690735, -0.2649240791797638, -0.2974414825439453, -0.19205695390701294, -0.11805815249681473, -0.09876053780317307, -0.10630711168050766, 0.07460565119981766, 0.219793438911438, 0.18320760130882263, -0.01135235745459795, 0.09596820175647736, 0.0800204649567604, 0.08033748716115952, -0.0780964344739914, -0.22987785935401917, -0.22024813294410706, -0.1844453364610672, -0.14755019545555115, -0.05332200229167938, -0.0012705314438790083, 0.028799699619412422, 0.032701507210731506, -0.03625063598155975, -0.011301051825284958, -0.012508107349276543, 0.021015489473938942, -0.050697628408670425, -0.13110768795013428, -0.20800182223320007, -0.26911449432373047, -0.20780664682388306, -0.08492143452167511, -0.1668221354484558, -0.11710330098867416, 0.08223509788513184, 0.12226687371730804, 0.11146672070026398, 0.05314050614833832, -0.02992722950875759, 0.04632088169455528, 0.06228721886873245, -0.06355741620063782, -0.07912590354681015, -0.06480482220649719, -0.10846161097288132, -0.0754634365439415, -0.06260854005813599, -0.0021297731436789036, -0.03147456422448158, -0.005911332555115223, -0.014045383781194687, 0.032428763806819916, -0.0055582839995622635, 0.018633365631103516, 0.024329885840415955, -0.054852548986673355, -0.15808187425136566, -0.23526175320148468, -0.26057636737823486, -0.19861477613449097, -0.14918296039104462, -0.06349492073059082, 0.07882805913686752, 0.13673129677772522, 0.11077148467302322, 0.0604473352432251, -0.06248149275779724, -0.06367973238229752, 0.011468308977782726, 0.07931341975927353, 0.1661204844713211, 0.08792669326066971, 0.06364665925502777, 0.022529130801558495, 0.0022337569389492273, 0.01539828535169363, -0.0022479838225990534, -0.034140583127737045, -0.009409901686012745, 0.02436855249106884, 0.042937926948070526, 0.07252980768680573, 0.10303174704313278, 0.028662433847784996, -0.10060558468103409, -0.20381642878055573, -0.2553635835647583, -0.20928293466567993, -0.25199976563453674, -0.0977480560541153, -0.0027965332847088575, 0.11398482322692871, -0.015904752537608147, -0.16906945407390594, -0.1422443985939026, -0.001267297426238656, 0.14969757199287415, 0.21555060148239136, 0.1325167715549469, 0.1668156385421753, 0.17761974036693573, 0.12531617283821106, 0.04739629477262497, -0.011045671999454498, -0.01849432662129402, -0.029461178928613663, 0.0026034601032733917, 0.02394496090710163, 0.016731202602386475, 0.14048166573047638, 0.17793181538581848, 0.07010535895824432, -0.04800253361463547, -0.07584287226200104, -0.2383681982755661, -0.3464917242527008, -0.4435732364654541, -0.37882766127586365, -0.28452906012535095, -0.23147498071193695, -0.26561200618743896, -0.1688328981399536, 0.014713245443999767, 0.11687309294939041, 0.10516656935214996, 0.23042082786560059, 0.11902684718370438, 0.19242426753044128, 0.2658284902572632, 0.10986895114183426, -0.030428022146224976, -0.06748543679714203, 0.02653822861611843, -0.0012843753211200237, 0.009258102625608444, -0.028053564950823784, 0.04580916464328766, 0.23185160756111145, 0.20545345544815063, 0.15152259171009064, 0.07540999352931976, -0.07924006879329681, -0.1456792950630188, -0.27103427052497864, -0.38991817831993103, -0.3440043032169342, -0.3442896604537964, -0.33459773659706116, -0.2580145001411438, 0.02992561087012291, 0.18911343812942505, 0.2091626673936844, 0.16146309673786163, 0.18730896711349487, 0.13804076611995697, 0.26357129216194153, 0.25403353571891785, 0.04979892075061798, -0.05848754569888115, -0.05439013987779617, -0.03821178525686264, -0.03323112800717354, -0.02388327568769455, -0.02801559306681156, 0.047271158546209335, 0.21982790529727936, 0.2999859154224396, 0.2663899064064026, 0.16003301739692688, 0.05816369503736496, 0.002098287455737591, -0.06392475217580795, -0.18571242690086365, -0.20158052444458008, -0.27002429962158203, -0.18615324795246124, -0.055366601794958115, 0.03216773271560669, 0.14762356877326965, 0.23018930852413177, 0.22700238227844238, 0.18145522475242615, 0.1910591423511505, 0.2578994333744049, 0.15201282501220703, -0.0040280139073729515, -0.07551194727420807, -0.025583073496818542, -0.033118147403001785, 0.025810563936829567, -0.016088252887129784, -0.02880685031414032, 0.012470133602619171, 0.1949082463979721, 0.2788427472114563, 0.2363310605287552, 0.22085896134376526, 0.1749669462442398, 0.15287289023399353, 0.13713164627552032, -0.030566073954105377, -0.15149220824241638, -0.20266671478748322, -0.10772576928138733, 0.019704770296812057, 0.043738216161727905, 0.12126011401414871, 0.16018778085708618, 0.19312667846679688, 0.14373807609081268, 0.21942409873008728, 0.13384263217449188, 0.039690569043159485, -0.037145860493183136, -0.07164783030748367, -0.01579420082271099, -0.03819930925965309, 0.00034004240296781063, -0.032912477850914, -0.0035101782996207476, 0.01607506535947323, 0.11015176773071289, 0.1982068419456482, 0.17663824558258057, 0.15674109756946564, 0.109276182949543, 0.084930919110775, -0.042784690856933594, -0.0368046797811985, -0.12028701603412628, -0.1041686162352562, -0.07195720076560974, -0.038998689502477646, 0.02435687743127346, 0.05860285088419914, 0.06438646465539932, 0.20721971988677979, 0.19664736092090607, 0.10240428149700165, 0.017699355259537697, -0.07765527069568634, -0.07421974837779999, -0.03953825682401657, -0.033194784075021744, 0.004801994189620018, -0.017448099330067635, -0.01522047072649002, -0.01833508163690567, -0.0035594881046563387, 0.1117430180311203, 0.18159198760986328, 0.15142886340618134, 0.13489840924739838, 0.03972260281443596, -0.012636866420507431, 0.04189746454358101, 0.022431407123804092, 0.02779117412865162, -0.028533626347780228, -0.05237795412540436, -0.04344848915934563, 0.02581188641488552, 0.059765562415122986, 0.07948519289493561, 0.10746222734451294, 0.10472043603658676, 0.0687575489282608, -0.0813293382525444, -0.02597750723361969, -0.07127617299556732, -0.047724805772304535, 0.00976814515888691, -0.004639182239770889, 0.007009289693087339, 0.016585558652877808, 0.015312302857637405, -0.0017538996180519462, 0.07721197605133057, 0.12535360455513, 0.18722786009311676, 0.1950111836194992, 0.1854749321937561, 0.024026835337281227, 0.04884742572903633, 0.06015947461128235, 0.07193844765424728, -0.030429314821958542, 0.022907022386789322, -0.048497024923563004, 0.006024194415658712, -0.07599958032369614, 0.07543919235467911, 0.09206103533506393, 0.042599305510520935, -0.07641509175300598, -0.06540828943252563, -0.03790968656539917, -0.06058790162205696, -0.022638998925685883, -0.01507676299661398, -0.02089633233845234, -0.03360963985323906, 0.020534981042146683, -0.023414991796016693, 0.016801798716187477, 0.05000683292746544, 0.11593271046876907, 0.15857228636741638, 0.2461671084165573, 0.2685428261756897, 0.21954482793807983, 0.2299487590789795, 0.27707579731941223, 0.25989964604377747, 0.1976766586303711, 0.25708869099617004, 0.16481690108776093, 0.10304945707321167, 0.07579902559518814, 0.0598878376185894, -0.03574488312005997, -0.0751577764749527, -0.06865016371011734, 0.005610527936369181, -0.04428301379084587, -0.019658604636788368, 0.012495825067162514, 0.018813613802194595, 0.01653262972831726, -0.028215155005455017, -0.02953035570681095, -0.03393492102622986, -0.012930842116475105, 0.013859773986041546, -0.012075789272785187, 0.03821292892098427, 0.049539558589458466, 0.17265518009662628, 0.21814250946044922, 0.26633790135383606, 0.30692464113235474, 0.3171819746494293, 0.31146886944770813, 0.2990865409374237, 0.17680896818637848, 0.09326827526092529, 0.03128731623291969, -0.013023224659264088, -0.017609966918826103, -0.02544424682855606, 0.00014148285845294595, -0.015493678860366344, -0.002508089179173112, -0.01074015349149704, 0.003351271152496338, 0.028795719146728516, -0.029815029352903366, -0.022090652957558632, -0.0061295293271541595, -0.034228190779685974, -0.013945264741778374, 0.008554277010262012, 0.0015652562724426389, -0.017153345048427582, 0.02242952398955822, -0.007128528319299221, 2.8980046408833005e-05, -0.023597845807671547, -0.014878702349960804, 0.020422959700226784, 0.015729276463389397, -0.039022430777549744, -0.0016542281955480576, -0.03728850558400154, -0.016177915036678314, -0.0272432342171669, 0.015430230647325516, -0.035762425512075424, 0.021172361448407173, 0.028003234416246414, -0.006871084216982126, -0.03552601486444473, -0.0219096876680851, -0.0028105326928198338, -0.03439115732908249, -0.022120706737041473, 0.028973612934350967, -0.028335781767964363, 0.00783585011959076, -0.031846269965171814, 0.033120911568403244, 0.025037197396159172, 0.001603987766429782, -0.008976281620562077, -0.005737894214689732, 0.03201780468225479, 0.033221568912267685, 0.025414030998945236, -0.01709534227848053, 0.013331558555364609, -0.024206440895795822, -0.0031376718543469906, -0.004947139415889978, -0.024391157552599907, -0.02165813371539116, 0.026479806751012802, 0.028150390833616257, -0.019082413986325264, 0.029451746493577957, 0.019537603482604027, -0.002981133759021759, -0.027351507917046547, -0.014150381088256836, -0.020053386688232422], [-0.0326913520693779, -0.032686036080121994, -0.008421804755926132, 0.03440471366047859, 0.029538024216890335, 0.006240665912628174, -0.023899173364043236, -0.026052013039588928, -0.018150484189391136, -0.005676750093698502, -0.0021315738558769226, 0.03394336625933647, -0.017198927700519562, -0.02799254283308983, -0.034437939524650574, 0.007055819034576416, 0.018198832869529724, -0.006757013499736786, -0.0028581805527210236, -0.005023572593927383, 0.028877373784780502, -0.0067397356033325195, 0.020122837275266647, 0.003589726984500885, -0.004918554797768593, -0.024207130074501038, -0.026236411184072495, 0.02434850111603737, 0.007467582821846008, -0.022245217114686966, -0.0352371521294117, -0.022177062928676605, 0.01814187690615654, -0.009214862249791622, -0.01464820560067892, 0.012814244255423546, 0.006184407509863377, 0.024353615939617157, -0.04067440703511238, -0.031023986637592316, -0.02705381065607071, -0.0467582605779171, -0.0373094417154789, -0.038954958319664, -0.03610343486070633, -0.01371937058866024, 0.014360805042088032, -0.020367512479424477, -0.006798017304390669, -0.025078335776925087, -0.03287237882614136, 0.028938433155417442, 0.033724937587976456, -0.02674456313252449, 0.0093974769115448, -0.017081866040825844, -0.012152081355452538, -0.013137856498360634, -0.034285709261894226, 0.029184779152274132, 0.024096699431538582, 0.021767525002360344, -0.009521584957838058, -0.03834749385714531, -0.03450920060276985, -0.0614614300429821, -0.06606990844011307, -0.08607979118824005, -0.10495269298553467, -0.07696671783924103, -0.07466689497232437, -0.07084470987319946, -0.07944644242525101, -0.021143347024917603, -0.003403154667466879, -0.01821548491716385, 0.018641918897628784, -0.025661632418632507, 0.004478194750845432, -0.02296847477555275, 0.016420617699623108, 0.03261546418070793, 0.033746976405382156, -0.022744640707969666, 0.02924712374806404, 0.002114720642566681, -0.008561638183891773, 0.0315510556101799, -0.03596189245581627, 0.0193477850407362, -0.03003273718059063, -0.04762950539588928, -0.029107334092259407, -0.1216769888997078, -0.14319664239883423, -0.1665160208940506, -0.23547697067260742, -0.2186083048582077, -0.2053353488445282, -0.2096835970878601, -0.19113865494728088, -0.10821106284856796, -0.07523474097251892, -0.06539438664913177, 0.00028445158386603, 0.00859038531780243, 0.016909226775169373, 0.032784607261419296, -0.03770594671368599, 0.024253861978650093, -0.002174343215301633, -0.00853620283305645, 0.024820249527692795, -0.004348966758698225, -0.024916576221585274, 0.028907326981425285, 0.01733304001390934, -0.024068091064691544, 0.016446884721517563, -0.02579951472580433, -0.04271116107702255, -0.09231043606996536, -0.1862424910068512, -0.17017029225826263, -0.2417837679386139, -0.21502795815467834, -0.22813265025615692, -0.2145123928785324, -0.15749073028564453, -0.13503655791282654, -0.10082154721021652, -0.024962104856967926, 0.07915958017110825, 0.05001186579465866, 0.08746645599603653, 0.05980289727449417, 0.028855837881565094, 0.03186982125043869, 0.02008053846657276, 0.024599172174930573, -0.018475525081157684, 0.00926726683974266, 0.034135714173316956, 0.011892718262970448, 0.03329627588391304, -0.0023548726458102465, -0.00563161913305521, -0.0005392968305386603, -0.02815472148358822, -0.029958821833133698, -0.10373179614543915, -0.1390562355518341, -0.17153853178024292, -0.19507047533988953, -0.08715903013944626, -0.0888272076845169, -0.006907735951244831, 0.003933110274374485, 0.055047616362571716, 0.08741846680641174, 0.10502353310585022, 0.08005647361278534, 0.17960593104362488, 0.16849152743816376, 0.07299768924713135, -0.016172470524907112, -0.032352738082408905, -0.02419106848537922, 0.024573490023612976, 0.01591312140226364, -0.020062245428562164, 0.024171965196728706, 0.040313512086868286, 0.0813954547047615, 0.03637579828500748, 0.07754089683294296, 0.03506282716989517, 0.013306894339621067, -0.09050022065639496, -0.17679819464683533, -0.20511242747306824, -0.2759858965873718, -0.30835697054862976, -0.26605719327926636, -0.2111835777759552, -0.1950705349445343, -0.16606329381465912, -0.05533132702112198, -0.007954709231853485, 0.08320365101099014, 0.24806970357894897, 0.3048410713672638, 0.10564024746417999, 0.05021459609270096, 0.03202962875366211, 0.012592545710504055, -0.025752855464816093, -0.015404686331748962, -0.019625820219516754, -0.012881096452474594, 0.050480637699365616, 0.050107020884752274, 0.03632667288184166, 0.030970202758908272, -0.009285598061978817, -0.06424359232187271, -0.13616116344928741, -0.23080813884735107, -0.32854098081588745, -0.312368780374527, -0.3656512200832367, -0.41606417298316956, -0.40342774987220764, -0.24990712106227875, -0.21705718338489532, -0.13432848453521729, -0.08997287601232529, -0.009446034207940102, 0.16805242002010345, 0.22699527442455292, 0.06292565912008286, 0.009034674614667892, -0.020501945167779922, -0.004920572973787785, 0.028020821511745453, 0.0030219340696930885, 0.030832625925540924, 0.0049143522046506405, -0.02222082018852234, 0.07206563651561737, -0.02268405817449093, -0.004647913388907909, -0.11234721541404724, -0.05803428217768669, -0.15600702166557312, -0.17164774239063263, -0.26233717799186707, -0.22317518293857574, -0.41958293318748474, -0.43480098247528076, -0.3210223615169525, -0.2029707282781601, -0.08991827070713043, -0.07405011355876923, -0.06783292442560196, -0.031731266528367996, 0.025059610605239868, 0.08301280438899994, 0.004043311811983585, -0.03136327862739563, 0.009907415136694908, -0.017671821638941765, 0.029732046648859978, 0.03221995383501053, -0.016454201191663742, -0.048935119062662125, -0.06821832060813904, -0.03714005649089813, -0.07296041399240494, -0.06872441619634628, -0.05310462415218353, -0.019759343937039375, -0.07283344119787216, -0.09013240784406662, -0.09686403721570969, -0.15350107848644257, -0.4849732518196106, -0.3824356198310852, -0.09358786791563034, -0.032013535499572754, -0.048408474773168564, -0.021791880950331688, -0.050589337944984436, -0.01154092326760292, -0.04097677022218704, -0.08515653759241104, -0.13528507947921753, -0.09993107616901398, -0.01659236289560795, 0.019024772569537163, -0.012158366851508617, -0.0046594347804784775, -0.0406431183218956, -0.05786489322781563, -0.07042989134788513, -0.04741431027650833, -0.09470067173242569, -0.03785400465130806, -0.00476633058860898, 0.09702342003583908, 0.035107508301734924, 0.07262328267097473, 0.11560218781232834, -0.2326807677745819, -0.5582951903343201, -0.19347769021987915, 0.041630715131759644, 0.08207613974809647, -0.031363438814878464, 0.0021572806872427464, -0.1117396429181099, -0.056723207235336304, -0.11019237339496613, -0.20729303359985352, -0.15608590841293335, -0.1142711415886879, -0.00038662709994241595, 0.031088458374142647, 0.017238054424524307, -0.02186969853937626, -0.058890704065561295, -0.07216822355985641, -0.07292962074279785, -0.08973319083452225, -0.015290034003555775, 0.04355717822909355, 0.13155913352966309, 0.22516383230686188, 0.2423696219921112, 0.26549339294433594, 0.2681867480278015, -0.3138103187084198, -0.5197976231575012, -0.020340900868177414, 0.24191558361053467, 0.12050522118806839, -0.030102694407105446, -0.04502063989639282, -0.1271279901266098, -0.11482399702072144, -0.13337378203868866, -0.1872052103281021, -0.10779498517513275, -0.0821099653840065, -0.0032749383244663477, 0.03417153283953667, -0.023736080154776573, -0.007942358031868935, -0.051851119846105576, -0.08117249608039856, -0.05572211742401123, -0.018412364646792412, 0.0348728708922863, 0.22858700156211853, 0.2678619623184204, 0.26109907031059265, 0.3841938078403473, 0.45796042680740356, 0.42869094014167786, -0.0971563309431076, -0.2556137442588806, 0.1206723302602768, 0.31720399856567383, 0.13007836043834686, 0.0018764495616778731, 0.023071318864822388, 0.027547230944037437, 0.06208627671003342, -0.017195427790284157, -0.09450339525938034, -0.0381544828414917, -0.009580968879163265, -0.011300640180706978, 0.026332039386034012, -0.022908734157681465, -0.03900405392050743, 0.011518395505845547, -0.014347282238304615, -0.019459987059235573, 0.09325214475393295, 0.24414068460464478, 0.2950247824192047, 0.28136616945266724, 0.2801077365875244, 0.41457757353782654, 0.5260196328163147, 0.3571450412273407, -0.1130298301577568, -0.12985754013061523, 0.17770512402057648, 0.2758267819881439, 0.2513892352581024, 0.2055273801088333, 0.16225363314151764, 0.18592514097690582, 0.14270037412643433, 0.04261216148734093, -0.0538533590734005, -0.05302960425615311, 0.023551661521196365, 0.018557101488113403, -0.03977694734930992, 0.02005411870777607, 0.0062403748743236065, 0.01295533124357462, 0.013776647858321667, 0.060643766075372696, 0.21985651552677155, 0.28494468331336975, 0.34259045124053955, 0.2848253548145294, 0.24525585770606995, 0.3115684390068054, 0.3574221134185791, 0.22084708511829376, -0.060442712157964706, -0.03959181532263756, 0.14550574123859406, 0.34740328788757324, 0.4091275930404663, 0.24244548380374908, 0.2838972210884094, 0.17958122491836548, 0.07318145781755447, 0.02297072298824787, -0.052826590836048126, -0.0326990932226181, -0.04918716847896576, 0.012616617605090141, -0.008236324414610863, -0.01768334209918976, -0.02707359567284584, 0.0351669080555439, 0.025512248277664185, 0.058367982506752014, 0.1438312530517578, 0.20170700550079346, 0.27696555852890015, 0.3415560722351074, 0.2755473256111145, 0.1781042367219925, 0.22488026320934296, 0.1307838261127472, -0.08578624576330185, 0.03789432719349861, 0.2573937177658081, 0.3955312669277191, 0.3222387135028839, 0.18518108129501343, 0.1786542385816574, 0.013278988189995289, 0.019483240321278572, 0.013544498011469841, -0.07376264035701752, -0.10358010232448578, -0.08630378544330597, -0.01534303743392229, 0.0045441072434186935, 0.03456620126962662, 0.0071982769295573235, 0.010958599857985973, -0.00887368805706501, -0.047202859073877335, 0.054718777537345886, 0.1008327379822731, 0.26673969626426697, 0.30975887179374695, 0.22623096406459808, 0.027037018910050392, 0.012841246090829372, 0.06135208532214165, 0.048954177647829056, 0.2660885155200958, 0.45330023765563965, 0.42473894357681274, 0.27235928177833557, 0.17962396144866943, 0.08161312341690063, 0.09367770701646805, 0.020467933267354965, -0.046265263110399246, -0.0849728211760521, -0.12239176034927368, -0.07354966551065445, -0.004294838756322861, 0.014655795879662037, 0.03058723732829094, -0.010226626880466938, 0.014761469326913357, -0.03698527440428734, -0.10335373133420944, -0.05005141720175743, -0.016256846487522125, 0.1707099974155426, 0.2009885311126709, 0.1618880033493042, -0.022767284885048866, -0.05607576668262482, 0.09974338114261627, 0.23412875831127167, 0.43915194272994995, 0.3624403774738312, 0.3340151309967041, 0.14778456091880798, 0.09750001132488251, -0.04963662475347519, -0.011899583972990513, -0.01932564750313759, -0.12608292698860168, -0.08150792121887207, -0.11959666758775711, -0.06426737457513809, -0.03641972690820694, -0.003909810911864042, -0.009823276661336422, 0.01053602434694767, -0.011728053912520409, -0.03541409224271774, -0.06964707374572754, -0.09901624917984009, -0.06668659299612045, -0.026880335062742233, 0.03748289868235588, -0.01571233570575714, -0.1376829743385315, -0.12633244693279266, 0.10032400488853455, 0.2131202071905136, 0.25325995683670044, 0.23698508739471436, 0.10750927031040192, -0.11321169137954712, -0.0683249831199646, -0.13807687163352966, -0.055167801678180695, -0.1329714059829712, -0.20814883708953857, -0.15820036828517914, -0.06692788004875183, -0.06585235148668289, -0.023457594215869904, 0.030468733981251717, -0.02595643512904644, -0.014408579096198082, -0.033924393355846405, -0.032106950879096985, -0.0713142529129982, -0.11976300179958344, -0.1400938481092453, -0.19347535073757172, -0.2793009579181671, -0.3120197057723999, -0.3253769874572754, -0.26031985878944397, -0.20130985975265503, -0.09771470725536346, 0.04825660213828087, 0.07308262586593628, -0.023799121379852295, -0.09865269064903259, -0.12672016024589539, -0.17173388600349426, -0.11296918243169785, -0.13753816485404968, -0.1907838135957718, -0.13656197488307953, -0.0762522965669632, -0.04520207270979881, -0.005875907372683287, -0.009725376963615417, 0.01666755974292755, 0.026730045676231384, 0.006102229468524456, -0.04532036930322647, -0.054047469049692154, -0.1413240134716034, -0.1955629289150238, -0.2817242443561554, -0.3503628373146057, -0.3583413064479828, -0.3475329875946045, -0.22932083904743195, -0.20147450268268585, -0.26456502079963684, -0.11189597845077515, -0.04651356860995293, -0.012917867861688137, -0.07975009828805923, -0.10598175972700119, -0.10613126307725906, -0.07580690085887909, -0.0526687316596508, -0.10664468258619308, -0.12172436714172363, -0.025898242369294167, 0.0052168723195791245, -0.008286532014608383, 0.01613355055451393, -0.018836084753274918, 0.035569388419389725, -0.0004073666350450367, -0.020113077014684677, -0.08201280981302261, -0.07853967696428299, -0.20491009950637817, -0.2997268736362457, -0.23381178081035614, -0.26026666164398193, -0.23123028874397278, -0.1582047939300537, -0.15060241520404816, -0.15289823710918427, -0.1237005814909935, -0.04568785801529884, -0.04737243428826332, 0.007280091289430857, -0.017502684146165848, 0.0033952980302274227, 0.0195702463388443, 0.016130447387695312, -0.03993003070354462, -0.01990242674946785, -0.04255696013569832, 0.01819438487291336, 0.033414579927921295, -0.0043298015370965, -0.021538514643907547, 0.018397798761725426, -0.03441920503973961, 0.008674458600580692, -0.020352482795715332, -0.05406922847032547, -0.11012014001607895, -0.18591341376304626, -0.16775944828987122, -0.1785932034254074, -0.08275698870420456, -0.08509133756160736, -0.11137805134057999, -0.10886034369468689, -0.0627894178032875, -0.03280683234333992, -0.022131243720650673, 0.016296664252877235, 0.04063348099589348, 0.13638761639595032, 0.09775073826313019, 0.0836305171251297, -0.01653481088578701, -0.012759632430970669, -0.049920111894607544, -0.002295050537213683, 0.007792303338646889, 0.03210777789354324, 0.006431616842746735, 0.030581746250391006, 0.002757522277534008, -0.028182461857795715, -0.02311398647725582, -0.003758237464353442, -0.022619260475039482, -0.09847697615623474, -0.034363310784101486, -0.028624402359128, -0.024348588660359383, -0.06511180102825165, -0.05972053483128548, -0.08536447584629059, -0.050185948610305786, -0.034750644117593765, 0.010903674177825451, 0.10997053980827332, 0.17048168182373047, 0.16356518864631653, 0.1417602300643921, 0.12677128612995148, -0.013541113585233688, 0.0025709287729114294, 0.00444078678265214, -0.020189769566059113, 0.020188752561807632, 0.019232753664255142, -0.016364209353923798, -0.021686814725399017, 0.00541245611384511, -0.010302531532943249, 0.026030762121081352, -0.02561214752495289, -0.04605001211166382, -0.07089781761169434, -0.08244828879833221, -0.04340144246816635, -0.01724887825548649, 0.01181851141154766, -0.10794851183891296, -0.11949487030506134, -0.03906173259019852, -0.04809829220175743, -0.03574519604444504, -0.04461977258324623, -0.008483413606882095, 0.08438854664564133, 0.03060144931077957, 0.01687086559832096, 0.00845030602067709, -0.004204742144793272, -0.03763530030846596, -0.003305802121758461, -0.024072732776403427, -0.016615135595202446, 0.014131750911474228, 0.03187846764922142, -0.0017002695240080357, -0.01370606105774641, 0.02480466663837433, 0.009547368623316288, -0.07391498982906342, -0.10195653885602951, -0.14183619618415833, -0.1429152935743332, -0.14160197973251343, -0.23864972591400146, -0.22567719221115112, -0.23995964229106903, -0.23179997503757477, -0.18110348284244537, -0.24826250970363617, -0.23710490763187408, -0.23113417625427246, -0.19135503470897675, -0.061288587749004364, -0.03156372904777527, 0.002420830074697733, -0.0014875971246510744, 0.01760919764637947, -0.011322145350277424, -0.002969616325572133, 0.01703106239438057, 0.020177002996206284, 0.028658751398324966, 0.016311325132846832, -0.025835629552602768, 0.012428654357790947, -0.013036970980465412, 0.007169604301452637, -0.058920830488204956, -0.0641988217830658, -0.09579404443502426, -0.13744176924228668, -0.18084026873111725, -0.18534044921398163, -0.190339595079422, -0.2577376365661621, -0.17602545022964478, -0.2095016986131668, -0.19015803933143616, -0.147117018699646, -0.09448570758104324, -0.07761117070913315, -0.0572424940764904, -0.03090505488216877, 0.024749398231506348, -0.026952901855111122, 0.01798797771334648, 0.028351549059152603, -0.032100509852170944, 0.022401556372642517, -0.00683516263961792, -0.01118471473455429, 0.011369653046131134, 0.006722616031765938, 0.0018797873053699732, -0.023461759090423584, 0.004448554944247007, -0.019834639504551888, -0.005539607256650925, -0.016234656795859337, 0.006923407316207886, -0.04278275743126869, -0.02381780929863453, -0.005229382310062647, -0.034692443907260895, -0.009223573841154575, -0.03759317100048065, -0.041592929512262344, 0.010891933925449848, 0.009289543144404888, -0.02496093511581421, 0.027261603623628616, 0.007849632762372494, -0.026191657409071922, -0.0014170818030834198, -0.007264468818902969, 0.026995506137609482], [-0.008123151957988739, 0.007604245096445084, -0.03156418725848198, -0.01437591202557087, 0.031531672924757004, 0.024165000766515732, -0.0333411768078804, 0.014446116983890533, 0.029195185750722885, -0.012620428577065468, -0.028850415721535683, -0.007196605205535889, -0.03084328956902027, -0.03304906189441681, 0.01557689905166626, -0.026000410318374634, -0.024073079228401184, -0.026163578033447266, -0.016361352056264877, 0.0018622912466526031, -0.01368306390941143, -0.02989376150071621, 0.0272764153778553, 0.022779427468776703, 0.010256178677082062, 0.032958824187517166, -0.028487171977758408, -0.005770031362771988, -0.007402423769235611, -0.0020274817943573, 0.018047742545604706, 0.02347562089562416, 0.025651076808571815, 0.013057487085461617, -0.029827510938048363, -0.016002165153622627, -0.013780085369944572, -0.013809164054691792, 0.00560325663536787, -0.011621288023889065, -0.007901902310550213, 0.027595482766628265, 0.013508579693734646, -0.0005280941841192544, 0.006382666993886232, -0.026030855253338814, -0.018848685547709465, -0.00037270085886120796, 0.023927513509988785, 0.007595863658934832, -0.019488153979182243, -0.004168021026998758, 0.019012853503227234, 0.008369028568267822, 0.029506836086511612, 0.032955851405858994, 0.016768604516983032, 0.010985367000102997, 0.027034640312194824, -0.0008842477109283209, 0.02778964675962925, -0.00721639534458518, -0.025678467005491257, -0.012005750089883804, 0.033798251301050186, -0.005262778140604496, -0.02135588601231575, -0.04363011568784714, -0.012477457523345947, -0.0504513643682003, -0.04187468811869621, -0.021576980128884315, 0.012231901288032532, 0.009444331750273705, -0.026143314316868782, 0.022605082020163536, 0.019472921267151833, -0.027341976761817932, -0.04059796407818794, -0.026768583804368973, 0.006369402166455984, 0.02134193852543831, 0.014248460531234741, -0.004302702844142914, -0.02431098185479641, 0.010135114192962646, -0.010295764543116093, -0.030224261805415154, -0.009122012183070183, 0.015359091572463512, -0.03369571641087532, -0.03440675139427185, -0.017111916095018387, -0.05872095748782158, -0.06266223639249802, -0.04453020915389061, -0.06898143142461777, -0.051006119698286057, -0.038854993879795074, 0.002361589577049017, 0.021219108253717422, 0.07101251929998398, 0.07447046786546707, 0.053010307252407074, 0.07601208239793777, 0.04508426785469055, 0.0378689281642437, -0.006316308863461018, 0.026271743699908257, 0.008683055639266968, -0.031878575682640076, -0.007501240819692612, 0.029347751289606094, 0.02951350249350071, 0.02933778055012226, 0.013947048224508762, -0.013989968225359917, -0.053180892020463943, -0.03466835618019104, -0.07393798977136612, -0.10230892151594162, -0.15964330732822418, -0.09810077399015427, -0.06616955995559692, -0.08973701298236847, -0.11291620880365372, -0.0795237198472023, 0.06242965906858444, 0.08911687135696411, 0.12003052234649658, 0.15087078511714935, 0.05393141880631447, -0.007694941014051437, 0.10666366666555405, 0.05810464546084404, 0.08927269279956818, 0.1082892119884491, 0.01823875866830349, 0.016422897577285767, -0.01955675520002842, 0.024299558252096176, -0.01131352037191391, 0.00427658436819911, -0.020596139132976532, -0.0683949887752533, -0.09082179516553879, -0.14618350565433502, -0.133928120136261, -0.06823509931564331, -0.04669446870684624, 0.024480581283569336, 0.02923487313091755, -0.02139373868703842, -0.07137314230203629, -0.07165949791669846, -0.09111078083515167, 0.004845139570534229, 0.11065907031297684, 0.06292492151260376, 0.04819595441222191, 0.11498571187257767, 0.08493705838918686, 0.22032631933689117, 0.19261030852794647, 0.16761940717697144, 0.0853782370686531, 0.042966075241565704, -0.019647914916276932, -0.028515901416540146, 0.01744839735329151, -0.03342995047569275, -0.05730339139699936, -0.1080363392829895, -0.1005060002207756, -0.11480805277824402, -0.0335535928606987, 0.026094166561961174, 0.057162102311849594, 0.03918789327144623, 0.04497386887669563, 0.01807103492319584, -0.007286628242582083, 0.050536204129457474, -0.026967603713274002, -0.055815160274505615, 0.015430713072419167, 0.04632966220378876, 0.11049121618270874, 0.12013883143663406, 0.058609236031770706, 0.1787717193365097, 0.28263142704963684, 0.36919060349464417, 0.22485652565956116, 0.05424768105149269, 0.016129834577441216, -0.01016177423298359, 0.01659044623374939, -0.006393034942448139, -0.06837254762649536, -0.12329521775245667, -0.17365416884422302, -0.1279418170452118, 0.004864247515797615, 0.12436655908823013, 0.08553843200206757, 0.16778717935085297, 0.120448999106884, 0.03407293185591698, -0.022051934152841568, 0.050042010843753815, -0.07446292787790298, 0.040359534323215485, 0.07236282527446747, 0.027307558804750443, 0.10596351325511932, 0.08343162387609482, 0.07650291919708252, 0.18107089400291443, 0.38935762643814087, 0.48250845074653625, 0.38227379322052, 0.09931554645299911, 0.0074133723974227905, -0.033456701785326004, 0.00314789405092597, -0.031655266880989075, -0.04529134929180145, -0.23247243463993073, -0.15841592848300934, -0.13649882376194, -0.0204049963504076, 0.13960738480091095, 0.07281315326690674, 0.06744694709777832, 0.14055366814136505, 0.02093784138560295, -0.06018439680337906, -0.1425180733203888, -0.14470238983631134, -0.12449388206005096, -0.06740698963403702, -0.016128718852996826, 0.020718073472380638, 0.13585537672042847, 0.11610723286867142, 0.1929287165403366, 0.4368912875652313, 0.6696709990501404, 0.47140324115753174, 0.1044728010892868, 0.0028278797399252653, 0.009939167648553848, -0.03418755531311035, -0.026603873819112778, -0.054798226803541183, -0.15384598076343536, -0.14588160812854767, -0.09117072075605392, 0.05139142647385597, 0.1342117339372635, 0.12230795621871948, 0.17349739372730255, 0.26789554953575134, 0.16212299466133118, -0.004069698508828878, -0.14111082255840302, -0.28486931324005127, -0.2919182777404785, -0.17597690224647522, -0.12792174518108368, -0.048012103885412216, 0.0037214579060673714, 0.21054081618785858, 0.24334825575351715, 0.5456804633140564, 0.778205394744873, 0.5535072088241577, 0.09604697674512863, -0.01831025630235672, -0.019207671284675598, -0.025753403082489967, -0.014799878001213074, -0.039359766989946365, -0.10844988375902176, -0.05437704175710678, 0.041591037064790726, 0.13349154591560364, 0.22569639980793, 0.26605552434921265, 0.2404249757528305, 0.2816472053527832, 0.29982754588127136, 0.17820359766483307, 0.04033271223306656, -0.11714750528335571, -0.2141503393650055, -0.28506502509117126, -0.2293015867471695, -0.23452003300189972, -0.12366289645433426, 0.0024859693367034197, 0.06176506727933884, 0.3076779842376709, 0.5978332757949829, 0.5620477795600891, 0.11616713553667068, 0.03699703887104988, -0.014704620465636253, -0.010030063800513744, 0.02441433258354664, -0.017252735793590546, -0.05607379227876663, -0.002646423177793622, 0.12670643627643585, 0.15622888505458832, 0.154954731464386, 0.15447017550468445, 0.14156648516654968, 0.19905471801757812, 0.2919754087924957, 0.3278949558734894, 0.11961505562067032, -0.06480619311332703, -0.1548175811767578, -0.19737978279590607, -0.23011945188045502, -0.3717575669288635, -0.4398619830608368, -0.3902118504047394, -0.33034875988960266, -0.1337246149778366, 0.1325494647026062, 0.22081780433654785, 0.06705347448587418, -0.010976565070450306, 0.017817068845033646, -0.004101334605365992, -0.008763471618294716, -0.0052652377635240555, -0.02521532028913498, 0.05325181037187576, 0.1704740822315216, 0.11161566525697708, 0.09427094459533691, 0.016126856207847595, 0.18012699484825134, 0.28548815846443176, 0.3119293749332428, 0.28782832622528076, 0.017004484310746193, -0.1554924100637436, -0.30039557814598083, -0.268924742937088, -0.2275206446647644, -0.28805938363075256, -0.3478562533855438, -0.4833117723464966, -0.5382311344146729, -0.4335401952266693, -0.24051161110401154, 0.004616616293787956, 0.029596854001283646, -0.018502235412597656, 0.025642935186624527, -0.03613123670220375, -0.032394275069236755, 0.0202490221709013, 0.031813912093639374, 0.04179215431213379, 0.08148214966058731, 0.16086018085479736, 0.0897054374217987, 0.07883397489786148, 0.22741448879241943, 0.2810528874397278, 0.3203255534172058, 0.168715238571167, -0.01382895465940237, -0.21628552675247192, -0.3888240158557892, -0.21603678166866302, -0.14936032891273499, -0.061140771955251694, -0.1415962427854538, -0.2599855363368988, -0.3629103899002075, -0.3369641900062561, -0.22172845900058746, -0.011324334889650345, 0.021624896675348282, 0.021621085703372955, -0.014724946580827236, -0.014457824639976025, -0.004929013084620237, 0.022314976900815964, -0.0012062960304319859, -0.03466914966702461, -0.0007597844814881682, -0.01525211799889803, 0.06388632208108902, 0.19210749864578247, 0.26444211602211, 0.13655075430870056, 0.12808406352996826, 0.0743667408823967, -0.06631465256214142, -0.17665286362171173, -0.2522834837436676, -0.22793523967266083, -0.1359710693359375, -0.14174778759479523, -0.057832494378089905, -0.11917989701032639, -0.09439372271299362, -0.15763063728809357, -0.14879333972930908, -0.028603211045265198, -0.009215045720338821, 0.009804327972233295, 0.035968467593193054, 0.01856345124542713, -0.0028878808952867985, 0.02205207385122776, -0.006623548921197653, -0.1257472187280655, -0.13770607113838196, -0.13888469338417053, -0.023848123848438263, 0.09992558509111404, 0.15114754438400269, 0.07558435201644897, 0.0802810862660408, -0.030401067808270454, -0.20667798817157745, -0.2356576919555664, -0.22007355093955994, -0.17874743044376373, 0.04340711981058121, -0.048063725233078, -0.04132663831114769, -0.04528815299272537, -0.02687079645693302, -0.07036956399679184, -0.05700263753533363, -0.02317287214100361, -0.002472823252901435, -0.013370424509048462, -0.0328553207218647, 0.022881168872117996, 0.021593894809484482, 0.011091812513768673, -0.026785096153616905, -0.09352042526006699, -0.1546165496110916, -0.29680025577545166, -0.2505350708961487, -0.22560204565525055, -0.09918076545000076, -0.09009779989719391, -0.07933051884174347, -0.13947948813438416, -0.22651782631874084, -0.18673206865787506, -0.16264504194259644, -0.08469817042350769, -0.05794975161552429, -0.041230302304029465, 0.04220621660351753, -0.012939720414578915, 0.0215437151491642, 0.03339816629886627, -0.0166795514523983, -0.04279914125800133, -0.014073589816689491, 0.022997094318270683, 0.01735285297036171, 0.006570152007043362, -0.032908231019973755, 0.02375093102455139, 0.008336134254932404, 0.046669501811265945, 0.1671009063720703, -0.14348027110099792, -0.2965924143791199, -0.26594439148902893, -0.316234290599823, -0.24328599870204926, -0.3053419291973114, -0.30969008803367615, -0.23432321846485138, -0.11831486970186234, -0.030536387115716934, 0.032686032354831696, 0.11085033416748047, 0.04781434312462807, 0.05789125710725784, 0.03690042719244957, 0.015914376825094223, 0.08566847443580627, 0.08872071653604507, -0.03069513849914074, -0.001696271589025855, -0.03613825887441635, -0.007003397215157747, -0.02067107893526554, -0.003994629718363285, -0.008247245103120804, 0.09868928790092468, 0.14575374126434326, 0.37114694714546204, 0.14538393914699554, -0.047503016889095306, -0.12798844277858734, -0.21133479475975037, -0.15301541984081268, -0.1762324869632721, -0.0630287453532219, -0.0032593768555670977, -0.0024626583326607943, 0.023550519719719887, 0.08151558041572571, 0.009096376597881317, 0.0420709103345871, 0.11456558853387833, 0.05592244118452072, 0.06330215930938721, 0.07989640533924103, 0.06127738952636719, -0.018632186576724052, -0.026052596047520638, 0.013462284579873085, -0.012523936107754707, 0.0268125981092453, -0.01826578564941883, 0.028970560058951378, 0.1029263585805893, 0.16870415210723877, 0.2922172248363495, 0.21755367517471313, 0.2073386162519455, 0.10487175732851028, 0.02061799168586731, 0.05938628315925598, 0.04835392162203789, 0.07725111395120621, 0.040471963584423065, 0.023821625858545303, -0.01640298031270504, -0.013093331828713417, 0.06728966534137726, 0.047357991337776184, 0.09956372529268265, 0.07984600216150284, 0.0885913074016571, 0.09936649352312088, 0.06354682147502899, -0.03277020901441574, -0.03566658869385719, 0.00837622582912445, 0.033263061195611954, 0.031110715121030807, 0.004972685594111681, -0.017918968573212624, 0.05867436155676842, 0.12593795359134674, 0.1912969946861267, 0.12534445524215698, 0.24418728053569794, 0.21578213572502136, 0.07602272182703018, 0.17197255790233612, 0.05118080973625183, 0.04318550229072571, -0.05279130861163139, 0.0008238728623837233, 0.0784575492143631, 0.07877706736326218, 0.07067517191171646, 0.07813160121440887, 0.019869793206453323, 0.0720490887761116, 0.21789677441120148, 0.12057375907897949, 0.01550034899264574, 0.04099181294441223, -0.009620746597647667, 0.021163826808333397, 0.03014221601188183, -0.00252808490768075, -0.02134896069765091, -0.02830982394516468, 0.05962764099240303, 0.08350342512130737, 0.08580614626407623, 0.12795165181159973, 0.17585435509681702, 0.11538457870483398, 0.08620177954435349, 0.12828756868839264, 0.08729817718267441, 0.04095955193042755, 0.07356247305870056, 0.03832292556762695, 0.033878426998853683, 0.08434486389160156, -0.0004467880935408175, 0.013393674977123737, 0.10786893218755722, 0.17993852496147156, 0.2036750316619873, 0.13054168224334717, 0.031169986352324486, -0.017140831798315048, -0.03337055444717407, -0.015542206354439259, -0.0055458443239331245, -0.006845360156148672, -0.029303330928087234, 0.03225773945450783, 0.0699770450592041, -0.0057056983932852745, -0.05282645300030708, -0.0015344400890171528, 0.04482468217611313, 0.08246299624443054, -0.005246603395789862, 0.06139927729964256, 0.1477794200181961, 0.21288661658763885, 0.10205548256635666, 0.08921884745359421, 0.1106404960155487, 0.047560371458530426, 0.09163662046194077, 0.09077432006597519, 0.12670287489891052, 0.11291351169347763, 0.09304261207580566, 0.03840039670467377, -0.000630004855338484, -0.01916614919900894, 0.023518569767475128, 0.029381997883319855, 0.005062580108642578, 0.01766393333673477, 0.010706162080168724, -0.015944400802254677, 0.05132848769426346, 0.011658906936645508, -0.04905885085463524, -0.0008934888755902648, 0.03933461382985115, 0.12287954241037369, 0.15381677448749542, 0.1377858817577362, 0.13894282281398773, 0.027315305545926094, 0.09057977795600891, 0.0864296481013298, 0.0906090959906578, 0.02190256305038929, -0.028679873794317245, 0.0008895737701095641, 0.047326475381851196, 0.041071634739637375, 0.04059194028377533, 0.01309051550924778, 0.012813188135623932, 